svm_type one_class
kernel_type linear
nr_class 2
total_sv 905
rho 18707.7
SV
1 0:1 1:1 2:1 3:1 4:1 5:1 6:1 7:1 8:1 9:1 10:1 11:1 12:1 13:1 14:1 15:1 16:1 17:1 18:1 19:1 20:1 21:1 22:1 23:1 24:1 25:1 26:1 27:1 28:1 29:1 30:1 31:1 32:1 33:1 34:1 35:1 36:1 37:1 38:1 39:1 40:1 41:1 42:1 43:1 44:1 45:1 46:1 47:1 48:1 49:1 50:1 51:1 52:1 53:1 54:1 55:1 56:1 57:1 58:1 59:1 60:1 61:1 62:1 63:1 64:1 65:1 66:1 67:1 68:1 69:1 70:1 71:1 72:1 73:1 74:1 75:1 76:1 77:1 78:1 79:1 80:1 81:1 82:1 83:1 84:1 85:1 86:1 87:1 88:1 89:1 90:1 91:1 92:1 93:1 94:1 95:1 96:1 97:1 98:1 99:1 100:1 101:1 102:1 103:1 104:1 105:1 106:1 107:1 108:1 109:1 110:1 111:1 112:1 113:1 114:1 115:1 116:1 117:1 118:1 119:1 120:1 121:1 122:1 123:1 124:1 125:1 126:1 127:1 128:1 129:1 130:1 131:1 132:1 133:1 134:1 135:1 136:1 
1 0:1 8:1 11:1 21:1 54:1 87:1 110:1 111:1 112:1 126:1 131:1 157:1 206:1 275:1 279:1 312:1 342:1 400:1 484:1 499:1 512:1 565:1 569:1 609:1 672:1 936:1 1081:1 1108:1 1189:1 1460:1 1463:1 1464:1 1465:1 1466:1 1467:1 1468:1 1469:1 1470:1 1471:1 1472:1 1473:1 1474:1 1475:1 1476:1 1477:1 1478:1 1479:1 1480:1 1481:1 1482:1 1483:1 1484:1 
1 0:1 5:1 16:1 54:1 111:1 116:1 126:1 129:1 342:1 1283:1 1455:1 1476:1 1507:1 1508:1 1509:1 1510:1 1511:1 1512:1 1513:1 
1 0:1 1:1 4:1 5:1 10:1 11:1 16:1 28:1 39:1 45:1 50:1 51:1 54:1 56:1 57:1 71:1 80:1 82:1 83:1 85:1 110:1 111:1 116:1 127:1 129:1 131:1 135:1 155:1 170:1 189:1 199:1 201:1 229:1 237:1 242:1 253:1 263:1 312:1 318:1 321:1 340:1 341:1 366:1 376:1 382:1 392:1 399:1 400:1 410:1 422:1 465:1 482:1 484:1 502:1 511:1 516:1 523:1 530:1 549:1 551:1 552:1 633:1 644:1 694:1 719:1 855:1 995:1 1081:1 1108:1 1122:1 1176:1 1194:1 1244:1 1254:1 1298:1 1393:1 1463:1 1469:1 1485:1 1486:1 1488:1 1490:1 1514:1 1527:1 1564:1 1574:1 1575:1 1589:1 1611:1 1612:1 1613:1 1614:1 1615:1 1616:1 1617:1 1618:1 1619:1 1620:1 1621:1 1622:1 1623:1 1624:1 1625:1 1626:1 1627:1 1628:1 1629:1 1630:1 1631:1 1632:1 1633:1 1634:1 1635:1 1636:1 1637:1 1638:1 1639:1 1640:1 1641:1 1642:1 
1 0:1 5:1 10:1 16:1 17:1 39:1 42:1 54:1 67:1 80:1 82:1 83:1 85:1 110:1 111:1 116:1 131:1 135:1 261:1 300:1 312:1 316:1 372:1 376:1 399:1 451:1 465:1 513:1 618:1 624:1 629:1 674:1 880:1 897:1 931:1 948:1 985:1 989:1 1081:1 1095:1 1154:1 1164:1 1184:1 1258:1 1320:1 1336:1 1387:1 1469:1 1527:1 1542:1 1550:1 1565:1 1570:1 1582:1 1615:1 1629:1 1671:1 1687:1 1688:1 1689:1 1690:1 1691:1 1692:1 1693:1 1694:1 1695:1 1696:1 1697:1 1698:1 1699:1 1700:1 1701:1 1702:1 1703:1 1704:1 1705:1 1706:1 1707:1 1708:1 1709:1 1710:1 1711:1 1712:1 1713:1 1714:1 1715:1 1716:1 1717:1 1718:1 1719:1 1720:1 1721:1 1722:1 1723:1 1724:1 1725:1 1726:1 1727:1 1728:1 1729:1 
1 0:1 3:1 5:1 6:1 8:1 10:1 11:1 16:1 17:1 37:1 39:1 51:1 52:1 54:1 57:1 67:1 80:1 82:1 84:1 85:1 87:1 107:1 110:1 111:1 116:1 124:1 129:1 131:1 135:1 136:1 151:1 215:1 229:1 232:1 249:1 255:1 275:1 294:1 296:1 299:1 307:1 312:1 321:1 349:1 366:1 376:1 386:1 407:1 412:1 465:1 511:1 516:1 533:1 535:1 555:1 560:1 581:1 618:1 695:1 723:1 767:1 784:1 931:1 941:1 994:1 1122:1 1124:1 1126:1 1255:1 1265:1 1336:1 1392:1 1394:1 1437:1 1469:1 1527:1 1568:1 1583:1 1630:1 1691:1 1692:1 1704:1 1708:1 1710:1 1718:1 1719:1 1724:1 1725:1 1726:1 1728:1 1948:1 2080:1 2231:1 2467:1 2470:1 2471:1 2472:1 2473:1 2474:1 2475:1 2476:1 2477:1 2478:1 2479:1 2480:1 2481:1 2482:1 2483:1 2484:1 2485:1 2486:1 2487:1 2488:1 2489:1 2490:1 2491:1 2492:1 2493:1 2494:1 2495:1 2496:1 2497:1 2498:1 2499:1 2500:1 2501:1 2502:1 2503:1 2504:1 2505:1 2506:1 2507:1 2508:1 2509:1 2510:1 2511:1 2512:1 2513:1 2514:1 2515:1 2516:1 2517:1 2518:1 2519:1 2520:1 2521:1 2522:1 2523:1 2524:1 
1 0:1 10:1 16:1 52:1 54:1 82:1 84:1 110:1 116:1 129:1 135:1 253:1 321:1 366:1 399:1 471:1 512:1 556:1 595:1 681:1 860:1 872:1 994:1 1111:1 1189:1 1396:1 1453:1 1469:1 1509:1 1521:1 1528:1 1556:1 1568:1 1574:1 1605:1 1606:1 1661:1 2104:1 2525:1 2526:1 2527:1 2528:1 2529:1 2530:1 2531:1 2532:1 2533:1 2534:1 2535:1 
1 0:1 1:1 5:1 16:1 21:1 39:1 51:1 80:1 82:1 110:1 111:1 116:1 126:1 129:1 135:1 180:1 249:1 321:1 343:1 399:1 400:1 407:1 465:1 547:1 610:1 1016:1 1324:1 1329:1 1354:1 1392:1 1457:1 1596:1 1636:1 1671:1 1754:1 1804:1 1900:1 2134:1 2159:1 2483:1 2536:1 2537:1 2538:1 2539:1 2540:1 2541:1 2542:1 2543:1 2544:1 2545:1 2546:1 2547:1 2548:1 2549:1 2550:1 2551:1 2552:1 2553:1 
1 0:1 5:1 8:1 10:1 28:1 39:1 44:1 47:1 51:1 52:1 54:1 56:1 57:1 80:1 84:1 110:1 129:1 131:1 135:1 199:1 229:1 307:1 312:1 340:1 392:1 400:1 407:1 465:1 484:1 511:1 516:1 542:1 547:1 558:1 572:1 645:1 723:1 1019:1 1164:1 1288:1 1376:1 1518:1 1594:1 1646:1 1647:1 1658:1 1664:1 1670:1 1671:1 1678:1 1679:1 1681:1 1684:1 1781:1 1793:1 1951:1 2258:1 2298:1 2483:1 2554:1 2555:1 2556:1 2557:1 2558:1 2559:1 2560:1 2561:1 2562:1 2563:1 2564:1 2565:1 2566:1 2567:1 2568:1 
1 0:1 5:1 8:1 10:1 13:1 16:1 21:1 28:1 39:1 45:1 51:1 52:1 54:1 56:1 57:1 61:1 70:1 71:1 80:1 84:1 106:1 110:1 111:1 112:1 113:1 116:1 124:1 131:1 135:1 136:1 146:1 189:1 201:1 227:1 256:1 258:1 321:1 353:1 377:1 399:1 420:1 465:1 486:1 513:1 514:1 516:1 540:1 543:1 546:1 565:1 618:1 650:1 723:1 774:1 856:1 872:1 874:1 947:1 1015:1 1081:1 1194:1 1205:1 1295:1 1298:1 1329:1 1469:1 1502:1 1518:1 1574:1 1583:1 1589:1 1613:1 1767:1 1870:1 2066:1 2167:1 2213:1 2282:1 2290:1 2532:1 2565:1 2569:1 2570:1 2571:1 2572:1 2573:1 2574:1 2575:1 2576:1 2577:1 2578:1 2579:1 2580:1 2581:1 2582:1 2583:1 2584:1 2585:1 2586:1 2587:1 2588:1 2589:1 2590:1 2591:1 2592:1 2593:1 2594:1 2595:1 2596:1 
1 0:1 4:1 5:1 10:1 11:1 16:1 21:1 22:1 28:1 39:1 44:1 51:1 52:1 54:1 56:1 57:1 65:1 66:1 68:1 78:1 80:1 83:1 84:1 86:1 101:1 110:1 111:1 116:1 122:1 131:1 132:1 135:1 171:1 174:1 180:1 182:1 225:1 229:1 255:1 297:1 300:1 304:1 307:1 312:1 313:1 386:1 392:1 400:1 430:1 465:1 466:1 509:1 512:1 516:1 519:1 540:1 547:1 551:1 552:1 555:1 576:1 578:1 604:1 650:1 681:1 723:1 771:1 788:1 968:1 992:1 1031:1 1043:1 1048:1 1081:1 1244:1 1288:1 1298:1 1315:1 1376:1 1392:1 1435:1 1513:1 1517:1 1594:1 1612:1 1632:1 1646:1 1647:1 1658:1 1664:1 1670:1 1678:1 1679:1 1681:1 1684:1 1781:1 1862:1 1952:1 2016:1 2048:1 2155:1 2257:1 2292:1 2512:1 2569:1 2572:1 2597:1 2598:1 2599:1 2600:1 2601:1 2602:1 2603:1 2604:1 2605:1 2606:1 2607:1 2608:1 2609:1 2610:1 2611:1 2612:1 2613:1 2614:1 2615:1 2616:1 2617:1 2618:1 2619:1 2620:1 2621:1 2622:1 2623:1 2624:1 2625:1 2626:1 2627:1 2628:1 2629:1 2630:1 2631:1 2632:1 2633:1 2634:1 2635:1 2636:1 2637:1 2638:1 2639:1 2640:1 2641:1 2642:1 2643:1 2644:1 2645:1 2646:1 2647:1 
1 0:1 5:1 8:1 10:1 17:1 21:1 39:1 48:1 51:1 52:1 54:1 56:1 80:1 82:1 84:1 85:1 87:1 100:1 106:1 110:1 111:1 116:1 124:1 126:1 131:1 135:1 136:1 151:1 221:1 234:1 255:1 256:1 294:1 313:1 316:1 347:1 365:1 366:1 376:1 386:1 392:1 407:1 412:1 491:1 511:1 512:1 518:1 542:1 569:1 591:1 601:1 625:1 640:1 646:1 721:1 776:1 823:1 824:1 879:1 938:1 1007:1 1052:1 1091:1 1096:1 1108:1 1174:1 1189:1 1284:1 1327:1 1407:1 1469:1 1501:1 1518:1 1544:1 1588:1 1600:1 1870:1 1937:1 2057:1 2145:1 2236:1 2390:1 2405:1 2603:1 2648:1 2649:1 2650:1 2651:1 2652:1 2653:1 2654:1 2655:1 2656:1 2657:1 2658:1 2659:1 2660:1 2661:1 2662:1 2663:1 2664:1 2665:1 2666:1 2667:1 2668:1 2669:1 2670:1 2671:1 2672:1 2673:1 2674:1 2675:1 2676:1 2677:1 2678:1 2679:1 2680:1 2681:1 2682:1 2683:1 2684:1 2685:1 2686:1 2687:1 2688:1 2689:1 2690:1 
1 0:1 5:1 6:1 10:1 13:1 16:1 28:1 51:1 54:1 56:1 57:1 73:1 80:1 109:1 111:1 112:1 116:1 121:1 126:1 131:1 136:1 144:1 188:1 191:1 194:1 242:1 283:1 288:1 342:1 374:1 376:1 392:1 399:1 465:1 516:1 573:1 576:1 595:1 684:1 732:1 745:1 853:1 860:1 922:1 948:1 1015:1 1031:1 1122:1 1377:1 1453:1 1489:1 1518:1 1588:1 1629:1 1746:1 1917:1 1959:1 2085:1 2342:1 2406:1 2509:1 2569:1 2572:1 2675:1 2717:1 2718:1 2719:1 2720:1 2721:1 2722:1 2723:1 2724:1 2725:1 2726:1 2727:1 2728:1 2729:1 2730:1 2731:1 2732:1 2733:1 2734:1 2735:1 2736:1 2737:1 2738:1 2739:1 2740:1 2741:1 2742:1 2743:1 2744:1 2745:1 2746:1 2747:1 2748:1 2749:1 2750:1 2751:1 2752:1 2753:1 2754:1 2755:1 2756:1 2757:1 2758:1 2759:1 2760:1 2761:1 2762:1 2763:1 
1 0:1 5:1 16:1 50:1 51:1 71:1 89:1 116:1 129:1 138:1 151:1 296:1 297:1 321:1 342:1 366:1 465:1 558:1 595:1 700:1 830:1 922:1 938:1 1108:1 1254:1 1283:1 1690:1 1870:1 2367:1 2764:1 2765:1 2766:1 2767:1 2768:1 2769:1 2770:1 2771:1 
1 0:1 1:1 3:1 5:1 8:1 10:1 11:1 16:1 18:1 21:1 22:1 23:1 24:1 25:1 26:1 28:1 31:1 32:1 33:1 35:1 36:1 39:1 40:1 42:1 44:1 45:1 46:1 47:1 48:1 49:1 50:1 51:1 52:1 54:1 56:1 57:1 59:1 60:1 61:1 62:1 63:1 64:1 65:1 66:1 67:1 68:1 71:1 73:1 76:1 77:1 80:1 81:1 84:1 86:1 88:1 89:1 91:1 92:1 94:1 95:1 96:1 97:1 101:1 105:1 106:1 107:1 108:1 109:1 110:1 111:1 112:1 113:1 114:1 116:1 117:1 119:1 120:1 122:1 123:1 126:1 127:1 128:1 129:1 131:1 135:1 136:1 184:1 185:1 188:1 255:1 272:1 275:1 312:1 313:1 314:1 337:1 351:1 389:1 407:1 465:1 480:1 511:1 518:1 519:1 569:1 591:1 601:1 860:1 862:1 1042:1 1346:1 1487:1 1494:1 1495:1 1497:1 1501:1 1584:1 2773:1 2778:1 3034:1 3083:1 3084:1 3085:1 3086:1 3087:1 3088:1 
1 0:1 4:1 5:1 6:1 8:1 11:1 13:1 39:1 42:1 54:1 56:1 57:1 58:1 61:1 80:1 82:1 87:1 110:1 111:1 116:1 163:1 188:1 190:1 258:1 262:1 305:1 354:1 373:1 388:1 392:1 400:1 407:1 465:1 512:1 516:1 547:1 556:1 560:1 562:1 582:1 610:1 837:1 880:1 941:1 1015:1 1111:1 1122:1 1155:1 1291:1 1440:1 1453:1 1671:1 1793:1 1981:1 1984:1 2025:1 2456:1 2457:1 2508:1 2575:1 2671:1 3057:1 3165:1 3169:1 3170:1 3171:1 3172:1 3173:1 3174:1 3175:1 3176:1 3177:1 3178:1 3179:1 3180:1 3181:1 3182:1 3183:1 3184:1 3185:1 3186:1 3187:1 3188:1 3189:1 3190:1 3191:1 3192:1 3193:1 3194:1 3195:1 3196:1 
1 1:1 5:1 8:1 11:1 12:1 13:1 21:1 28:1 31:1 39:1 44:1 45:1 52:1 54:1 56:1 57:1 65:1 66:1 67:1 68:1 69:1 72:1 73:1 74:1 78:1 79:1 80:1 84:1 87:1 91:1 100:1 101:1 106:1 107:1 110:1 111:1 116:1 119:1 121:1 126:1 131:1 132:1 133:1 134:1 135:1 140:1 152:1 153:1 170:1 184:1 185:1 196:1 237:1 242:1 243:1 255:1 256:1 294:1 296:1 317:1 318:1 340:1 341:1 354:1 372:1 376:1 390:1 399:1 445:1 466:1 467:1 491:1 499:1 500:1 513:1 516:1 530:1 532:1 540:1 554:1 567:1 568:1 569:1 580:1 606:1 646:1 774:1 900:1 919:1 926:1 996:1 1255:1 2668:1 3018:1 3197:1 3198:1 3199:1 3200:1 3201:1 3202:1 3203:1 3204:1 3205:1 3206:1 
1 0:1 1:1 4:1 5:1 6:1 10:1 16:1 28:1 39:1 42:1 52:1 54:1 56:1 80:1 82:1 106:1 107:1 110:1 111:1 112:1 116:1 126:1 131:1 163:1 190:1 201:1 250:1 255:1 258:1 261:1 262:1 296:1 305:1 354:1 365:1 373:1 396:1 400:1 407:1 449:1 465:1 466:1 478:1 516:1 547:1 556:1 560:1 609:1 652:1 796:1 837:1 948:1 1037:1 1052:1 1091:1 1096:1 1104:1 1108:1 1174:1 1203:1 1218:1 1393:1 1407:1 1440:1 1455:1 1518:1 1600:1 1671:1 1794:1 1818:1 1870:1 1919:1 1937:1 1981:1 1984:1 2236:1 2456:1 2653:1 2655:1 2659:1 2663:1 2666:1 2680:1 2685:1 3057:1 3088:1 3171:1 3176:1 3177:1 3178:1 3183:1 3186:1 3190:1 3191:1 3192:1 3193:1 3196:1 3345:1 3346:1 3347:1 3348:1 3349:1 3350:1 3351:1 3352:1 3353:1 3354:1 3355:1 3356:1 3357:1 3358:1 3359:1 
1 0:1 3:1 4:1 5:1 6:1 11:1 16:1 17:1 21:1 28:1 39:1 44:1 50:1 51:1 52:1 54:1 57:1 59:1 67:1 73:1 80:1 82:1 83:1 84:1 101:1 106:1 110:1 111:1 116:1 126:1 131:1 135:1 136:1 165:1 188:1 190:1 199:1 201:1 249:1 256:1 312:1 372:1 377:1 382:1 400:1 430:1 474:1 484:1 502:1 512:1 514:1 516:1 534:1 547:1 551:1 618:1 723:1 948:1 995:1 1017:1 1031:1 1096:1 1108:1 1256:1 1283:1 1288:1 1409:1 1411:1 1439:1 1453:1 1455:1 1469:1 1485:1 1486:1 1488:1 1490:1 1494:1 1685:1 1730:1 1930:1 2048:1 2456:1 2569:1 2572:1 2604:1 2605:1 2626:1 2637:1 2777:1 2855:1 2917:1 3044:1 3100:1 3126:1 3246:1 3312:1 3341:1 3356:1 3360:1 3361:1 3362:1 3363:1 3364:1 3365:1 3366:1 3367:1 3368:1 3369:1 3370:1 3371:1 3372:1 3373:1 3374:1 3375:1 3376:1 3377:1 3378:1 3379:1 3380:1 3381:1 3382:1 3383:1 3384:1 3385:1 3386:1 3387:1 
1 0:1 5:1 8:1 11:1 39:1 42:1 51:1 52:1 54:1 56:1 57:1 83:1 84:1 87:1 111:1 113:1 116:1 122:1 131:1 204:1 240:1 307:1 386:1 465:1 513:1 533:1 547:1 551:1 552:1 556:1 633:1 651:1 855:1 872:1 1031:1 1037:1 1043:1 1244:1 1469:1 1485:1 1486:1 1488:1 1490:1 1506:1 1527:1 1591:1 1612:1 1619:1 1624:1 1625:1 1627:1 1630:1 1633:1 1659:1 1670:1 1709:1 1759:1 1837:1 2203:1 2917:1 2932:1 2939:1 2974:1 3281:1 3316:1 3388:1 3389:1 3390:1 3391:1 3392:1 3393:1 3394:1 3395:1 3396:1 3397:1 3398:1 3399:1 3400:1 3401:1 3402:1 3403:1 3404:1 3405:1 
1 0:1 5:1 10:1 11:1 13:1 21:1 28:1 45:1 47:1 51:1 52:1 54:1 56:1 57:1 58:1 61:1 80:1 87:1 106:1 110:1 111:1 116:1 124:1 126:1 131:1 151:1 188:1 249:1 255:1 256:1 337:1 388:1 392:1 399:1 465:1 502:1 513:1 516:1 530:1 547:1 550:1 556:1 562:1 610:1 640:1 730:1 880:1 1015:1 1091:1 1107:1 1255:1 1291:1 1329:1 1415:1 1417:1 1453:1 1470:1 1518:1 1632:1 1671:1 1685:1 1793:1 1893:1 2025:1 2045:1 2083:1 2447:1 2457:1 2508:1 2575:1 2587:1 2671:1 2858:1 3165:1 3169:1 3170:1 3172:1 3174:1 3175:1 3178:1 3181:1 3185:1 3187:1 3194:1 3195:1 3347:1 3351:1 3355:1 3406:1 3407:1 3408:1 3409:1 3410:1 3411:1 3412:1 3413:1 3414:1 3415:1 3416:1 3417:1 3418:1 3419:1 3420:1 
1 0:1 1:1 5:1 8:1 13:1 16:1 28:1 47:1 50:1 51:1 52:1 54:1 56:1 57:1 71:1 73:1 80:1 83:1 85:1 88:1 90:1 106:1 107:1 108:1 110:1 111:1 116:1 129:1 131:1 135:1 201:1 229:1 235:1 256:1 307:1 312:1 321:1 337:1 343:1 366:1 516:1 534:1 547:1 560:1 569:1 717:1 1037:1 1259:1 1346:1 1428:1 1469:1 1485:1 1486:1 1488:1 1490:1 1685:1 1698:1 1761:1 1782:1 1846:1 2466:1 2564:1 2707:1 2777:1 2781:1 2818:1 2917:1 2987:1 3025:1 3494:1 3495:1 3529:1 3537:1 3538:1 3539:1 3540:1 3541:1 3542:1 3543:1 3544:1 3545:1 3546:1 3547:1 3548:1 3549:1 3550:1 3551:1 3552:1 3553:1 3554:1 3555:1 3556:1 3557:1 3558:1 3559:1 3560:1 3561:1 3562:1 3563:1 3564:1 3565:1 3566:1 3567:1 
1 0:1 1:1 5:1 39:1 42:1 45:1 51:1 54:1 73:1 80:1 82:1 86:1 103:1 104:1 105:1 110:1 111:1 112:1 116:1 126:1 135:1 188:1 199:1 201:1 232:1 255:1 280:1 296:1 312:1 321:1 376:1 399:1 412:1 465:1 502:1 509:1 516:1 526:1 550:1 555:1 573:1 576:1 595:1 606:1 627:1 633:1 723:1 734:1 855:1 938:1 1096:1 1125:1 1145:1 1377:1 1411:1 1584:1 1921:1 1960:1 2082:1 2419:1 2457:1 2466:1 2926:1 2946:1 3000:1 3147:1 3149:1 3264:1 3312:1 3381:1 3604:1 3605:1 3606:1 3607:1 3608:1 3609:1 3610:1 3611:1 3612:1 3613:1 3614:1 3615:1 3616:1 3617:1 3618:1 3619:1 3620:1 3621:1 3622:1 3623:1 3624:1 3625:1 3626:1 3627:1 3628:1 3629:1 3630:1 3631:1 3632:1 3633:1 3634:1 
1 0:1 4:1 5:1 10:1 11:1 16:1 28:1 42:1 45:1 51:1 54:1 56:1 57:1 64:1 73:1 80:1 82:1 84:1 86:1 91:1 98:1 104:1 105:1 109:1 110:1 111:1 116:1 126:1 129:1 131:1 135:1 136:1 188:1 199:1 201:1 232:1 255:1 267:1 278:1 280:1 289:1 296:1 312:1 321:1 367:1 376:1 377:1 399:1 400:1 407:1 412:1 502:1 509:1 514:1 516:1 526:1 547:1 555:1 556:1 558:1 573:1 591:1 597:1 601:1 606:1 612:1 695:1 700:1 723:1 839:1 855:1 948:1 1031:1 1125:1 1145:1 1185:1 1194:1 1199:1 1315:1 1377:1 1425:1 1453:1 1530:1 1584:1 1613:1 1681:1 1793:1 1835:1 1921:1 1960:1 2026:1 2082:1 2109:1 2313:1 2359:1 2447:1 2457:1 2466:1 2761:1 2773:1 2778:1 2894:1 2940:1 3005:1 3149:1 3163:1 3182:1 3264:1 3312:1 3381:1 3544:1 3604:1 3605:1 3608:1 3609:1 3614:1 3617:1 3619:1 3621:1 3622:1 3623:1 3624:1 3627:1 3629:1 3630:1 3633:1 3634:1 3682:1 3683:1 3684:1 3685:1 3686:1 3687:1 3688:1 3689:1 3690:1 3691:1 3692:1 3693:1 3694:1 3695:1 3696:1 3697:1 3698:1 3699:1 
1 0:1 5:1 10:1 21:1 28:1 52:1 54:1 80:1 82:1 110:1 111:1 116:1 131:1 400:1 484:1 516:1 547:1 573:1 577:1 609:1 679:1 941:1 1081:1 1189:1 1295:1 1341:1 1370:1 1415:1 1428:1 1435:1 1518:1 1589:1 1754:1 1767:1 1775:1 1796:1 1819:1 1834:1 1846:1 1848:1 1871:1 1881:1 1901:1 1945:1 1951:1 1991:1 2028:1 2079:1 2087:1 3223:1 3674:1 3700:1 3701:1 3702:1 3703:1 3704:1 3705:1 3706:1 3707:1 3708:1 3709:1 
1 0:1 5:1 6:1 8:1 10:1 11:1 22:1 28:1 45:1 52:1 54:1 56:1 73:1 80:1 83:1 101:1 106:1 110:1 111:1 116:1 126:1 131:1 135:1 136:1 153:1 154:1 201:1 278:1 286:1 312:1 321:1 335:1 343:1 377:1 399:1 400:1 465:1 484:1 516:1 541:1 562:1 576:1 581:1 595:1 606:1 640:1 645:1 948:1 1095:1 1140:1 1238:1 1245:1 1273:1 1370:1 1469:1 1495:1 1517:1 1518:1 1550:1 1588:1 1646:1 1655:1 1678:1 1679:1 1846:1 2069:1 2092:1 2129:1 2252:1 2404:1 2649:1 2909:1 3001:1 3149:1 3445:1 3535:1 3855:1 3856:1 3857:1 3858:1 3859:1 3860:1 3861:1 3862:1 3863:1 3864:1 3865:1 3866:1 3867:1 3868:1 3869:1 3870:1 3871:1 3872:1 3873:1 3874:1 3875:1 3876:1 3877:1 3878:1 3879:1 3880:1 3881:1 3882:1 3883:1 3884:1 
1 0:1 4:1 10:1 20:1 28:1 39:1 43:1 51:1 54:1 56:1 71:1 80:1 84:1 116:1 124:1 131:1 204:1 205:1 225:1 278:1 300:1 421:1 513:1 548:1 551:1 644:1 650:1 700:1 718:1 750:1 1336:1 1469:1 1629:1 2262:1 3108:1 3598:1 3674:1 3885:1 3886:1 3887:1 3888:1 3889:1 3890:1 3891:1 3892:1 3893:1 3894:1 3895:1 3896:1 3897:1 3898:1 3899:1 
1 0:1 4:1 5:1 6:1 10:1 11:1 13:1 17:1 27:1 28:1 39:1 47:1 54:1 56:1 57:1 58:1 61:1 67:1 73:1 80:1 82:1 87:1 106:1 110:1 111:1 116:1 131:1 188:1 199:1 235:1 255:1 256:1 262:1 307:1 356:1 388:1 407:1 425:1 465:1 486:1 512:1 516:1 532:1 547:1 562:1 565:1 582:1 610:1 747:1 879:1 880:1 941:1 1015:1 1155:1 1291:1 1376:1 1402:1 1453:1 1518:1 1600:1 1756:1 1791:1 1793:1 1981:1 2009:1 2025:1 2457:1 2508:1 2575:1 2671:1 2825:1 2980:1 3165:1 3169:1 3170:1 3172:1 3173:1 3174:1 3175:1 3178:1 3180:1 3181:1 3182:1 3184:1 3185:1 3187:1 3188:1 3189:1 3190:1 3194:1 3195:1 3347:1 3351:1 3355:1 3591:1 3615:1 3757:1 3774:1 3850:1 3900:1 3901:1 3902:1 3903:1 3904:1 3905:1 3906:1 3907:1 3908:1 3909:1 3910:1 3911:1 
1 0:1 1:1 10:1 17:1 39:1 51:1 54:1 57:1 78:1 80:1 84:1 87:1 106:1 110:1 111:1 116:1 129:1 151:1 189:1 199:1 205:1 256:1 278:1 312:1 321:1 393:1 400:1 509:1 512:1 519:1 550:1 556:1 559:1 561:1 562:1 595:1 635:1 681:1 839:1 866:1 1048:1 1095:1 1194:1 1329:1 1372:1 1382:1 1440:1 1680:1 1870:1 2480:1 2921:1 3795:1 3827:1 3891:1 3912:1 3913:1 3914:1 3915:1 3916:1 3917:1 3918:1 
1 0:1 1:1 11:1 13:1 17:1 39:1 51:1 54:1 56:1 70:1 71:1 80:1 83:1 86:1 87:1 101:1 106:1 107:1 110:1 111:1 113:1 116:1 126:1 131:1 154:1 189:1 199:1 201:1 249:1 255:1 278:1 283:1 296:1 321:1 366:1 378:1 392:1 400:1 465:1 484:1 513:1 514:1 515:1 516:1 527:1 595:1 610:1 645:1 793:1 996:1 1015:1 1035:1 1042:1 1081:1 1095:1 1108:1 1222:1 1324:1 1402:1 1428:1 1464:1 1469:1 1485:1 1486:1 1488:1 1490:1 1517:1 1655:1 1671:1 1735:1 1761:1 1791:1 1967:1 2003:1 2237:1 2336:1 2539:1 2693:1 2860:1 2863:1 2881:1 3443:1 3445:1 3591:1 3664:1 3778:1 3811:1 3949:1 3950:1 3951:1 3952:1 3953:1 3954:1 3955:1 3956:1 3957:1 3958:1 3959:1 3960:1 3961:1 3962:1 3963:1 3964:1 3965:1 3966:1 3967:1 3968:1 
1 0:1 1:1 5:1 8:1 10:1 11:1 13:1 21:1 22:1 28:1 31:1 39:1 44:1 45:1 51:1 52:1 54:1 56:1 57:1 61:1 65:1 66:1 67:1 68:1 69:1 72:1 73:1 80:1 84:1 87:1 91:1 94:1 95:1 101:1 106:1 107:1 110:1 111:1 116:1 119:1 126:1 131:1 133:1 135:1 140:1 146:1 152:1 153:1 184:1 185:1 190:1 196:1 229:1 235:1 243:1 249:1 255:1 256:1 268:1 272:1 294:1 296:1 312:1 317:1 354:1 356:1 372:1 376:1 390:1 399:1 445:1 466:1 467:1 491:1 499:1 500:1 502:1 509:1 513:1 516:1 530:1 532:1 540:1 554:1 565:1 567:1 568:1 569:1 580:1 582:1 591:1 601:1 606:1 646:1 774:1 878:1 900:1 919:1 922:1 926:1 940:1 1194:1 1199:1 1255:1 1329:1 1404:1 1505:1 1746:1 2668:1 2773:1 2778:1 3018:1 3198:1 3199:1 3200:1 3202:1 3205:1 3206:1 3717:1 4090:1 4091:1 4092:1 4093:1 
1 0:1 1:1 4:1 5:1 8:1 11:1 21:1 28:1 39:1 52:1 54:1 74:1 80:1 82:1 86:1 87:1 106:1 110:1 111:1 116:1 124:1 126:1 129:1 131:1 134:1 135:1 147:1 151:1 174:1 205:1 252:1 256:1 261:1 274:1 289:1 296:1 304:1 307:1 312:1 321:1 347:1 366:1 376:1 398:1 412:1 435:1 437:1 450:1 466:1 486:1 487:1 509:1 511:1 512:1 513:1 514:1 525:1 533:1 534:1 547:1 549:1 552:1 555:1 556:1 558:1 562:1 563:1 573:1 576:1 582:1 595:1 605:1 640:1 734:1 815:1 937:1 1007:1 1048:1 1189:1 1270:1 1298:1 1346:1 1367:1 1370:1 1377:1 1398:1 1404:1 1415:1 1460:1 1461:1 1480:1 1506:1 1509:1 1518:1 1611:1 1660:1 1694:1 1743:1 1764:1 1947:1 1995:1 2014:1 2016:1 2053:1 2325:1 2367:1 2396:1 2432:1 2482:1 2527:1 2528:1 2534:1 2569:1 2572:1 2721:1 3120:1 3183:1 3364:1 3572:1 3667:1 3907:1 4092:1 4167:1 4466:1 4495:1 4496:1 4497:1 4498:1 4499:1 4500:1 4501:1 4502:1 4503:1 4504:1 4505:1 4506:1 4507:1 4508:1 4509:1 4510:1 4511:1 4512:1 4513:1 4514:1 4515:1 4516:1 4517:1 4518:1 4519:1 4520:1 4521:1 4522:1 4523:1 4524:1 4525:1 4526:1 4527:1 4528:1 4529:1 4530:1 4531:1 4532:1 4533:1 4534:1 4535:1 4536:1 
1 0:1 3:1 5:1 8:1 10:1 16:1 21:1 22:1 23:1 25:1 26:1 28:1 31:1 33:1 39:1 44:1 45:1 47:1 48:1 49:1 50:1 51:1 52:1 54:1 56:1 57:1 58:1 61:1 63:1 64:1 65:1 66:1 67:1 68:1 71:1 73:1 76:1 77:1 80:1 84:1 86:1 90:1 91:1 92:1 94:1 96:1 101:1 105:1 107:1 108:1 109:1 110:1 111:1 112:1 113:1 116:1 117:1 119:1 122:1 126:1 127:1 128:1 131:1 135:1 136:1 199:1 258:1 314:1 324:1 343:1 400:1 410:1 420:1 465:1 490:1 543:1 551:1 556:1 634:1 673:1 709:1 752:1 1136:1 1322:1 1494:1 1503:1 1810:1 2594:1 2974:1 3083:1 3088:1 3186:1 3310:1 4537:1 4538:1 
1 0:1 1:1 4:1 5:1 6:1 11:1 13:1 16:1 21:1 39:1 51:1 54:1 56:1 57:1 71:1 77:1 80:1 86:1 106:1 110:1 111:1 116:1 124:1 126:1 129:1 152:1 175:1 191:1 199:1 233:1 235:1 245:1 251:1 299:1 307:1 312:1 321:1 343:1 376:1 382:1 400:1 407:1 450:1 465:1 469:1 477:1 499:1 511:1 516:1 530:1 534:1 549:1 551:1 555:1 561:1 576:1 625:1 627:1 642:1 683:1 685:1 752:1 869:1 900:1 922:1 1177:1 1199:1 1254:1 1327:1 1330:1 1343:1 1383:1 1414:1 1415:1 1453:1 1469:1 1495:1 1671:1 1698:1 1717:1 1726:1 1875:1 2000:1 2584:1 2746:1 2802:1 2874:1 3072:1 3103:1 3464:1 3510:1 3982:1 4200:1 4233:1 4334:1 4336:1 4337:1 4338:1 4339:1 4344:1 4345:1 4346:1 4347:1 4348:1 4507:1 4621:1 4622:1 4623:1 4624:1 4625:1 4626:1 4627:1 4628:1 4629:1 
1 0:1 1:1 10:1 16:1 17:1 21:1 22:1 28:1 50:1 51:1 52:1 54:1 57:1 83:1 84:1 111:1 116:1 131:1 135:1 136:1 138:1 157:1 229:1 312:1 342:1 413:1 465:1 490:1 506:1 511:1 612:1 652:1 673:1 723:1 1023:1 1043:1 1464:1 1469:1 1471:1 1726:1 1810:1 1846:1 2650:1 2651:1 3273:1 4696:1 4697:1 4698:1 4699:1 4700:1 4701:1 4702:1 4703:1 4704:1 4705:1 4706:1 4707:1 4708:1 
1 0:1 5:1 8:1 10:1 11:1 16:1 22:1 28:1 51:1 54:1 56:1 65:1 66:1 68:1 80:1 84:1 86:1 101:1 106:1 110:1 111:1 116:1 122:1 131:1 132:1 135:1 300:1 304:1 312:1 313:1 374:1 376:1 465:1 466:1 490:1 509:1 513:1 516:1 555:1 604:1 673:1 681:1 771:1 948:1 1031:1 1048:1 1081:1 1517:1 1810:1 1862:1 1952:1 2016:1 2048:1 2512:1 2569:1 2572:1 2601:1 2604:1 2605:1 2606:1 2607:1 2610:1 2612:1 2615:1 2623:1 2624:1 2625:1 2626:1 2627:1 2628:1 2634:1 2635:1 2637:1 2638:1 2645:1 2646:1 2996:1 3208:1 4709:1 
1 0:1 5:1 8:1 10:1 11:1 13:1 16:1 17:1 21:1 28:1 39:1 50:1 51:1 52:1 54:1 56:1 71:1 72:1 80:1 83:1 84:1 106:1 107:1 108:1 110:1 111:1 116:1 129:1 131:1 135:1 189:1 190:1 193:1 201:1 206:1 235:1 307:1 321:1 337:1 366:1 392:1 516:1 534:1 547:1 676:1 717:1 723:1 768:1 866:1 872:1 968:1 1037:1 1259:1 1288:1 1346:1 1376:1 1428:1 1469:1 1485:1 1486:1 1488:1 1490:1 1594:1 1646:1 1647:1 1658:1 1664:1 1670:1 1678:1 1679:1 1681:1 1684:1 1685:1 1761:1 1782:1 1846:1 2466:1 2482:1 2564:1 2707:1 2818:1 3025:1 3042:1 3494:1 3495:1 3529:1 3537:1 3539:1 3541:1 3544:1 3545:1 3546:1 3548:1 3550:1 3551:1 3554:1 3559:1 3560:1 3562:1 3563:1 3565:1 3567:1 3778:1 3811:1 4060:1 4688:1 4782:1 4783:1 4784:1 4785:1 4786:1 4787:1 4788:1 4789:1 4790:1 4791:1 4792:1 
1 0:1 5:1 8:1 11:1 16:1 19:1 42:1 47:1 51:1 52:1 54:1 56:1 57:1 58:1 61:1 82:1 106:1 109:1 110:1 111:1 116:1 129:1 131:1 135:1 137:1 180:1 189:1 199:1 212:1 214:1 253:1 256:1 307:1 321:1 343:1 348:1 354:1 357:1 386:1 407:1 425:1 465:1 511:1 514:1 516:1 556:1 558:1 560:1 562:1 563:1 569:1 618:1 650:1 695:1 707:1 915:1 1081:1 1199:1 1255:1 1259:1 1273:1 1336:1 1342:1 1404:1 1434:1 1440:1 1469:1 1588:1 1698:1 1727:1 1793:1 1995:1 2026:1 2203:1 2213:1 2292:1 2480:1 2650:1 2700:1 3299:1 3446:1 3542:1 3598:1 3658:1 3899:1 4330:1 4503:1 4504:1 4511:1 4792:1 4806:1 4813:1 4817:1 4819:1 4831:1 4832:1 4844:1 5009:1 5074:1 5126:1 5136:1 5137:1 5138:1 5139:1 5140:1 5141:1 
1 0:1 5:1 6:1 10:1 11:1 16:1 21:1 37:1 39:1 40:1 41:1 51:1 54:1 56:1 57:1 62:1 63:1 73:1 80:1 84:1 89:1 109:1 110:1 111:1 116:1 124:1 126:1 129:1 142:1 155:1 177:1 255:1 267:1 307:1 321:1 330:1 335:1 376:1 399:1 400:1 465:1 466:1 485:1 499:1 502:1 509:1 512:1 516:1 533:1 560:1 565:1 615:1 680:1 815:1 886:1 946:1 1045:1 1053:1 1091:1 1095:1 1175:1 1177:1 1205:1 1244:1 1257:1 1295:1 1354:1 1372:1 1407:1 1469:1 1497:1 1517:1 1589:1 1636:1 1644:1 1645:1 1652:1 1653:1 1683:1 1726:1 1807:1 1882:1 1896:1 1937:1 1981:1 2007:1 2009:1 2091:1 2105:1 2109:1 2194:1 2290:1 2532:1 2588:1 2625:1 2750:1 2836:1 2877:1 2901:1 2907:1 3008:1 3037:1 3055:1 3080:1 3276:1 3582:1 3762:1 3840:1 3871:1 3907:1 3980:1 4951:1 5185:1 5186:1 5187:1 5188:1 5189:1 5190:1 5191:1 5192:1 5193:1 5194:1 5195:1 5196:1 5197:1 5198:1 5199:1 5200:1 5201:1 5202:1 5203:1 5204:1 5205:1 5206:1 5207:1 5208:1 5209:1 5210:1 5211:1 5212:1 5213:1 5214:1 5215:1 5216:1 5217:1 5218:1 5219:1 5220:1 
1 5:1 10:1 28:1 51:1 54:1 67:1 80:1 110:1 111:1 126:1 131:1 135:1 136:1 307:1 321:1 335:1 407:1 536:1 557:1 565:1 595:1 650:1 730:1 931:1 1392:1 1394:1 1469:1 1518:1 1589:1 1756:1 2745:1 2939:1 3488:1 4156:1 4224:1 5292:1 5293:1 5294:1 5295:1 5296:1 5297:1 5298:1 5299:1 5300:1 5301:1 5302:1 5303:1 5304:1 5305:1 5306:1 5307:1 5308:1 5309:1 5310:1 5311:1 5312:1 5313:1 5314:1 5315:1 5316:1 5317:1 5318:1 5319:1 5320:1 
1 0:1 1:1 4:1 39:1 51:1 54:1 80:1 84:1 124:1 126:1 128:1 129:1 131:1 136:1 313:1 354:1 362:1 366:1 512:1 532:1 540:1 547:1 550:1 555:1 643:1 698:1 706:1 732:1 962:1 1083:1 1122:1 1179:1 1327:1 1329:1 1469:1 1527:1 1654:1 1659:1 1803:1 1868:1 1917:1 2002:1 2668:1 2700:1 2964:1 3446:1 3542:1 3621:1 4127:1 4278:1 4803:1 4812:1 4830:1 4833:1 5248:1 5269:1 5361:1 5362:1 5363:1 5364:1 5365:1 5366:1 
1 0:1 4:1 5:1 16:1 17:1 28:1 39:1 41:1 50:1 51:1 52:1 54:1 56:1 57:1 80:1 83:1 84:1 106:1 110:1 111:1 116:1 117:1 135:1 199:1 201:1 205:1 256:1 278:1 299:1 307:1 343:1 399:1 400:1 409:1 465:1 473:1 513:1 534:1 552:1 556:1 557:1 559:1 565:1 576:1 581:1 618:1 625:1 634:1 700:1 760:1 862:1 938:1 939:1 992:1 1010:1 1127:1 1194:1 1377:1 1613:1 1632:1 1689:1 2116:1 2441:1 2584:1 2614:1 2656:1 2746:1 2999:1 3473:1 3621:1 3662:1 3782:1 4259:1 4328:1 4361:1 5423:1 5424:1 5425:1 5426:1 5427:1 5428:1 5429:1 5430:1 5431:1 5432:1 5433:1 5434:1 5435:1 5436:1 
1 0:1 5:1 6:1 8:1 13:1 28:1 47:1 51:1 73:1 80:1 87:1 106:1 109:1 110:1 111:1 112:1 116:1 124:1 126:1 128:1 131:1 151:1 225:1 256:1 286:1 299:1 307:1 399:1 400:1 407:1 425:1 445:1 650:1 750:1 872:1 937:1 1082:1 1105:1 1244:1 1436:1 1443:1 1469:1 1494:1 1495:1 1574:1 1583:1 1610:1 1753:1 1928:1 2087:1 2174:1 2282:1 2569:1 2572:1 2573:1 2574:1 2589:1 2650:1 2909:1 3001:1 3290:1 3427:1 3640:1 3777:1 3785:1 3786:1 3787:1 3788:1 3789:1 3791:1 3793:1 3794:1 3800:1 3816:1 3819:1 3821:1 3822:1 4438:1 4506:1 5286:1 5541:1 5542:1 5543:1 5544:1 5545:1 5546:1 5547:1 
1 0:1 5:1 8:1 16:1 21:1 30:1 56:1 74:1 80:1 82:1 84:1 110:1 111:1 116:1 126:1 131:1 151:1 160:1 335:1 365:1 469:1 509:1 512:1 513:1 516:1 550:1 872:1 885:1 898:1 956:1 1001:1 1052:1 1189:1 1347:1 1435:1 1469:1 1485:1 1486:1 1488:1 1490:1 1589:1 1762:1 1797:1 1800:1 1891:1 1918:1 1948:1 2213:1 2738:1 3017:1 3938:1 4733:1 5162:1 5166:1 5168:1 5182:1 5608:1 5610:1 5611:1 5612:1 5651:1 5665:1 5668:1 5670:1 5671:1 5672:1 5673:1 5674:1 5675:1 5676:1 
1 0:1 1:1 5:1 8:1 11:1 14:1 16:1 21:1 39:1 51:1 54:1 56:1 57:1 69:1 74:1 80:1 82:1 86:1 87:1 106:1 110:1 111:1 112:1 116:1 126:1 129:1 134:1 135:1 136:1 151:1 193:1 199:1 201:1 232:1 233:1 235:1 255:1 256:1 266:1 297:1 300:1 307:1 312:1 321:1 335:1 343:1 366:1 375:1 400:1 412:1 435:1 499:1 511:1 516:1 552:1 556:1 562:1 618:1 625:1 640:1 683:1 717:1 919:1 938:1 940:1 1074:1 1083:1 1100:1 1136:1 1189:1 1330:1 1417:1 1448:1 1469:1 1502:1 1518:1 1598:1 1611:1 1743:1 1919:1 2016:1 2109:1 2121:1 2396:1 2466:1 2528:1 2534:1 3104:1 3132:1 3140:1 3183:1 3287:1 3364:1 3379:1 3386:1 3399:1 3419:1 3510:1 3774:1 3843:1 4062:1 4107:1 4167:1 4291:1 4425:1 4508:1 4509:1 4517:1 4529:1 4688:1 4725:1 4965:1 4974:1 4976:1 4983:1 4990:1 5000:1 5002:1 5003:1 5009:1 5013:1 5014:1 5162:1 5166:1 5168:1 5182:1 5594:1 5677:1 5678:1 5679:1 5680:1 5681:1 
1 0:1 5:1 11:1 16:1 28:1 39:1 47:1 51:1 54:1 56:1 80:1 84:1 106:1 110:1 111:1 116:1 124:1 130:1 138:1 201:1 234:1 312:1 325:1 343:1 399:1 412:1 465:1 511:1 513:1 527:1 530:1 532:1 549:1 550:1 581:1 610:1 673:1 758:1 892:1 938:1 1048:1 1095:1 1096:1 1118:1 1127:1 1324:1 1392:1 1404:1 1453:1 1583:1 1724:1 1728:1 2074:1 2104:1 2252:1 2307:1 2596:1 2914:1 2962:1 3081:1 3457:1 3535:1 3742:1 3920:1 4788:1 4849:1 5074:1 5320:1 5366:1 5714:1 5715:1 5716:1 5717:1 5718:1 5719:1 5720:1 5721:1 5722:1 5723:1 5724:1 5725:1 5726:1 5727:1 5728:1 5729:1 5730:1 5731:1 5732:1 5733:1 5734:1 5735:1 5736:1 5737:1 
1 0:1 5:1 6:1 8:1 16:1 28:1 39:1 54:1 67:1 71:1 80:1 84:1 85:1 106:1 109:1 110:1 111:1 112:1 116:1 129:1 131:1 135:1 139:1 144:1 193:1 199:1 229:1 235:1 256:1 307:1 312:1 313:1 325:1 366:1 372:1 400:1 516:1 546:1 576:1 633:1 650:1 683:1 716:1 824:1 901:1 938:1 1126:1 1159:1 1284:1 1315:1 1324:1 1370:1 1469:1 1517:1 1568:1 1589:1 1637:1 1728:1 1799:1 1841:1 1877:1 1931:1 2044:1 2091:1 2104:1 2148:1 2220:1 2252:1 2288:1 2307:1 2404:1 2408:1 2501:1 2596:1 2723:1 2874:1 3000:1 3025:1 3064:1 3582:1 3596:1 3638:1 3930:1 4436:1 4445:1 4849:1 4994:1 5337:1 5714:1 5717:1 5721:1 5726:1 5727:1 5730:1 5737:1 5738:1 5739:1 5740:1 5741:1 5742:1 5743:1 5744:1 5745:1 5746:1 5747:1 5748:1 
1 0:1 4:1 5:1 8:1 11:1 19:1 28:1 39:1 42:1 47:1 51:1 52:1 54:1 56:1 57:1 71:1 80:1 81:1 91:1 109:1 110:1 111:1 112:1 116:1 124:1 126:1 129:1 135:1 151:1 164:1 199:1 214:1 235:1 255:1 274:1 297:1 307:1 325:1 335:1 392:1 400:1 437:1 484:1 486:1 509:1 510:1 513:1 516:1 530:1 532:1 550:1 557:1 561:1 562:1 595:1 640:1 824:1 901:1 938:1 969:1 1003:1 1049:1 1094:1 1103:1 1118:1 1227:1 1324:1 1329:1 1396:1 1489:1 1728:1 1736:1 1793:1 1799:1 2066:1 2104:1 2174:1 2252:1 2292:1 2467:1 2596:1 2965:1 3000:1 3001:1 3449:1 3816:1 3851:1 4243:1 4849:1 5337:1 5595:1 5700:1 5714:1 5717:1 5721:1 5726:1 5727:1 5730:1 5737:1 5749:1 5750:1 5751:1 5752:1 5753:1 5754:1 5755:1 5756:1 5757:1 5758:1 5759:1 5760:1 5761:1 5762:1 5763:1 5764:1 5765:1 5766:1 5767:1 5768:1 
1 0:1 4:1 5:1 8:1 9:1 10:1 11:1 16:1 21:1 28:1 33:1 51:1 52:1 54:1 57:1 71:1 73:1 80:1 87:1 106:1 108:1 109:1 110:1 111:1 113:1 116:1 129:1 131:1 136:1 157:1 158:1 183:1 188:1 189:1 199:1 201:1 241:1 255:1 262:1 264:1 313:1 318:1 335:1 340:1 341:1 374:1 376:1 392:1 393:1 399:1 465:1 484:1 488:1 511:1 514:1 516:1 525:1 530:1 533:1 540:1 547:1 556:1 557:1 561:1 565:1 587:1 597:1 633:1 634:1 745:1 860:1 901:1 938:1 996:1 1284:1 1298:1 1343:1 1377:1 1392:1 1394:1 1404:1 1425:1 1442:1 1517:1 1518:1 1609:1 1685:1 1793:1 2070:1 2105:1 2184:1 2225:1 2477:1 2511:1 2584:1 2622:1 2859:1 2874:1 2909:1 3000:1 3127:1 3281:1 3295:1 3425:1 3493:1 3621:1 3768:1 4053:1 4210:1 4371:1 4382:1 4406:1 4425:1 4604:1 4962:1 4963:1 4964:1 4966:1 4967:1 4968:1 4969:1 4970:1 4977:1 4978:1 4981:1 4984:1 4986:1 4988:1 4993:1 4994:1 4999:1 5003:1 5004:1 5005:1 5006:1 5008:1 5012:1 5569:1 5769:1 5770:1 5771:1 5772:1 5773:1 5774:1 5775:1 5776:1 5777:1 5778:1 5779:1 5780:1 5781:1 
1 0:1 10:1 13:1 21:1 28:1 39:1 51:1 52:1 54:1 56:1 57:1 74:1 80:1 82:1 84:1 86:1 106:1 110:1 111:1 131:1 135:1 136:1 199:1 201:1 241:1 307:1 392:1 465:1 511:1 723:1 745:1 938:1 1029:1 1288:1 1376:1 1419:1 1461:1 1478:1 1594:1 1646:1 1647:1 1658:1 1664:1 1670:1 1678:1 1679:1 1681:1 1684:1 1862:1 2898:1 3223:1 3365:1 3396:1 3533:1 3732:1 4568:1 5791:1 5792:1 5793:1 5794:1 5795:1 5796:1 5797:1 5798:1 5799:1 5800:1 
1 0:1 5:1 8:1 10:1 11:1 19:1 22:1 28:1 36:1 39:1 42:1 47:1 51:1 52:1 54:1 56:1 61:1 76:1 80:1 82:1 106:1 109:1 110:1 111:1 116:1 124:1 129:1 131:1 135:1 149:1 174:1 189:1 199:1 201:1 206:1 256:1 260:1 268:1 279:1 312:1 321:1 356:1 376:1 399:1 400:1 409:1 418:1 484:1 499:1 512:1 513:1 532:1 550:1 557:1 595:1 823:1 869:1 907:1 938:1 941:1 1091:1 1111:1 1177:1 1244:1 1298:1 1315:1 1329:1 1343:1 1445:1 1457:1 1646:1 1678:1 1679:1 1764:1 1862:1 2057:1 2116:1 2252:1 2501:1 2617:1 2644:1 2668:1 2676:1 2746:1 2825:1 3052:1 3189:1 3350:1 3459:1 3463:1 3742:1 3851:1 3882:1 3967:1 4314:1 4315:1 4316:1 4320:1 4322:1 4323:1 4324:1 4325:1 4326:1 4329:1 4332:1 4457:1 4504:1 4760:1 4870:1 5015:1 5239:1 5290:1 5653:1 5665:1 5936:1 5937:1 5938:1 5939:1 5940:1 5941:1 5942:1 5943:1 5944:1 5945:1 5946:1 5947:1 5948:1 5949:1 5950:1 5951:1 5952:1 5953:1 5954:1 5955:1 5956:1 5957:1 5958:1 5959:1 5960:1 5961:1 
1 0:1 5:1 6:1 10:1 11:1 17:1 21:1 27:1 28:1 42:1 45:1 47:1 51:1 54:1 56:1 57:1 58:1 69:1 73:1 77:1 80:1 83:1 85:1 106:1 109:1 110:1 111:1 116:1 127:1 131:1 172:1 199:1 201:1 206:1 235:1 256:1 299:1 313:1 321:1 399:1 407:1 451:1 475:1 484:1 486:1 511:1 512:1 516:1 547:1 556:1 558:1 560:1 585:1 646:1 695:1 925:1 992:1 1081:1 1131:1 1259:1 1467:1 1518:1 1562:1 1591:1 1632:1 1659:1 1667:1 1680:1 1940:1 2000:1 2105:1 2276:1 2380:1 2405:1 2509:1 2670:1 2954:1 2956:1 3101:1 3223:1 3228:1 3380:1 3674:1 4095:1 4144:1 4146:1 4168:1 4189:1 4192:1 4193:1 4241:1 4242:1 5351:1 5555:1 6005:1 6006:1 6007:1 6008:1 6009:1 6010:1 6011:1 6012:1 
1 0:1 4:1 5:1 10:1 11:1 13:1 16:1 17:1 21:1 28:1 39:1 50:1 51:1 52:1 54:1 56:1 57:1 67:1 69:1 80:1 82:1 84:1 106:1 110:1 111:1 116:1 131:1 199:1 224:1 249:1 250:1 265:1 300:1 313:1 339:1 372:1 376:1 392:1 400:1 415:1 465:1 484:1 486:1 487:1 502:1 516:1 530:1 547:1 633:1 745:1 872:1 1469:1 1517:1 1518:1 1574:1 1591:1 1653:1 1667:1 1680:1 1851:1 2026:1 2105:1 2109:1 2125:1 2380:1 2506:1 2579:1 2708:1 2748:1 2789:1 2794:1 2859:1 3000:1 3223:1 3383:1 3684:1 3735:1 3843:1 4143:1 4625:1 4988:1 4993:1 4994:1 5006:1 5008:1 6008:1 6013:1 6014:1 6015:1 6016:1 6017:1 6018:1 6019:1 6020:1 6021:1 6022:1 6023:1 6024:1 6025:1 6026:1 6027:1 6028:1 6029:1 6030:1 
1 0:1 1:1 4:1 5:1 8:1 11:1 13:1 21:1 28:1 39:1 41:1 47:1 52:1 54:1 56:1 80:1 86:1 87:1 90:1 110:1 111:1 116:1 126:1 233:1 299:1 300:1 312:1 313:1 386:1 392:1 399:1 400:1 410:1 465:1 486:1 511:1 516:1 561:1 562:1 604:1 605:1 610:1 652:1 824:1 901:1 922:1 948:1 1015:1 1109:1 1122:1 1123:1 1217:1 1298:1 1377:1 1404:1 1415:1 1453:1 1518:1 1575:1 1588:1 1667:1 1680:1 1735:1 1767:1 1870:1 2009:1 2380:1 2419:1 2642:1 2650:1 2663:1 2666:1 2677:1 2691:1 2888:1 2914:1 3004:1 3223:1 3316:1 3381:1 3670:1 3953:1 4671:1 6008:1 6024:1 6126:1 6127:1 6128:1 6129:1 6130:1 6131:1 6132:1 
1 0:1 1:1 5:1 8:1 17:1 21:1 39:1 51:1 54:1 56:1 57:1 80:1 84:1 86:1 90:1 109:1 110:1 111:1 116:1 117:1 129:1 132:1 135:1 151:1 155:1 253:1 366:1 392:1 399:1 407:1 465:1 466:1 513:1 516:1 534:1 552:1 557:1 559:1 565:1 700:1 760:1 922:1 1096:1 1111:1 1194:1 1212:1 1254:1 1574:1 1600:1 1612:1 1613:1 1689:1 1870:1 1981:1 2009:1 2312:1 2576:1 3542:1 3662:1 3815:1 4062:1 4231:1 4259:1 4309:1 5423:1 5426:1 5432:1 5433:1 5568:1 6181:1 6182:1 6183:1 6184:1 6185:1 6186:1 6187:1 6188:1 6189:1 6190:1 
1 0:1 5:1 16:1 28:1 39:1 51:1 54:1 56:1 57:1 80:1 82:1 84:1 111:1 116:1 135:1 157:1 199:1 255:1 314:1 321:1 322:1 343:1 372:1 376:1 378:1 407:1 452:1 465:1 469:1 513:1 557:1 612:1 618:1 683:1 738:1 994:1 1049:1 1163:1 1395:1 1402:1 1414:1 1433:1 1530:1 1603:1 1698:1 1761:1 1967:1 2587:1 3396:1 3500:1 3710:1 3831:1 3915:1 3922:1 3953:1 4084:1 4625:1 4782:1 5023:1 5302:1 6191:1 6192:1 6193:1 6194:1 6195:1 6196:1 6197:1 6198:1 6199:1 6200:1 6201:1 6202:1 6203:1 
1 1:1 4:1 5:1 6:1 10:1 16:1 21:1 39:1 50:1 54:1 56:1 57:1 80:1 82:1 84:1 103:1 111:1 116:1 131:1 135:1 136:1 153:1 155:1 191:1 201:1 261:1 391:1 465:1 478:1 517:1 560:1 626:1 633:1 634:1 638:1 641:1 686:1 941:1 979:1 992:1 994:1 995:1 999:1 1048:1 1155:1 1172:1 1315:1 1453:1 1469:1 1527:1 1624:1 1625:1 1627:1 1647:1 1699:1 1724:1 1972:1 2111:1 2132:1 2364:1 2477:1 2506:1 2518:1 2844:1 2863:1 3621:1 3641:1 3742:1 3872:1 4088:1 4902:1 4957:1 5294:1 5700:1 6204:1 6205:1 6206:1 6207:1 6208:1 6209:1 6210:1 6211:1 6212:1 6213:1 6214:1 6215:1 6216:1 6217:1 6218:1 6219:1 6220:1 
1 0:1 5:1 8:1 45:1 57:1 61:1 69:1 70:1 80:1 84:1 86:1 110:1 111:1 116:1 122:1 326:1 342:1 346:1 363:1 386:1 400:1 451:1 484:1 513:1 530:1 546:1 573:1 880:1 917:1 993:1 1095:1 1266:1 1273:1 1394:1 1398:1 1461:1 1476:1 1482:1 1782:1 2006:1 2650:1 2670:1 3097:1 3161:1 3774:1 4244:1 5113:1 5489:1 5830:1 5833:1 6221:1 6222:1 6223:1 6224:1 
1 6:1 10:1 11:1 21:1 22:1 28:1 39:1 47:1 54:1 56:1 57:1 72:1 80:1 83:1 106:1 110:1 111:1 130:1 131:1 135:1 146:1 147:1 155:1 158:1 199:1 214:1 215:1 255:1 256:1 314:1 343:1 413:1 465:1 499:1 514:1 532:1 533:1 547:1 556:1 557:1 562:1 569:1 612:1 879:1 922:1 982:1 1043:1 1327:1 1329:1 2298:1 2378:1 2496:1 2500:1 2508:1 3092:1 3106:1 3698:1 3968:1 4080:1 4191:1 4193:1 4696:1 4703:1 4704:1 5045:1 6429:1 6430:1 6431:1 6432:1 6433:1 6434:1 
1 0:1 5:1 8:1 13:1 39:1 40:1 54:1 55:1 73:1 80:1 111:1 116:1 136:1 204:1 234:1 307:1 353:1 376:1 392:1 413:1 552:1 565:1 650:1 747:1 776:1 936:1 979:1 1111:1 1122:1 1315:1 1588:1 1698:1 1917:1 1959:1 1984:1 2080:1 2259:1 2324:1 2408:1 2415:1 2555:1 2834:1 3291:1 3425:1 3638:1 3782:1 3895:1 4151:1 4241:1 4283:1 5485:1 6478:1 6479:1 6480:1 6481:1 6482:1 6483:1 6484:1 6485:1 6486:1 6487:1 6488:1 6489:1 6490:1 6491:1 6492:1 
1 0:1 1:1 4:1 5:1 8:1 11:1 13:1 45:1 51:1 52:1 54:1 56:1 57:1 80:1 83:1 108:1 111:1 112:1 116:1 129:1 136:1 151:1 199:1 252:1 307:1 321:1 368:1 372:1 376:1 400:1 407:1 465:1 480:1 484:1 490:1 511:1 513:1 516:1 518:1 527:1 530:1 537:1 540:1 549:1 551:1 555:1 618:1 774:1 796:1 903:1 918:1 956:1 994:1 1144:1 1255:1 1342:1 1540:1 1698:1 2476:1 2570:1 2629:1 2774:1 2913:1 2988:1 3141:1 3240:1 3371:1 3955:1 5240:1 5254:1 6424:1 6546:1 6547:1 6548:1 6549:1 
1 0:1 1:1 4:1 5:1 8:1 10:1 30:1 39:1 45:1 51:1 54:1 56:1 57:1 73:1 76:1 80:1 82:1 83:1 87:1 106:1 107:1 108:1 109:1 110:1 111:1 116:1 126:1 129:1 131:1 135:1 136:1 147:1 155:1 168:1 199:1 209:1 255:1 256:1 280:1 297:1 300:1 343:1 399:1 415:1 465:1 473:1 509:1 511:1 514:1 516:1 532:1 534:1 549:1 557:1 562:1 565:1 569:1 625:1 652:1 752:1 823:1 917:1 947:1 1048:1 1110:1 1122:1 1329:1 1396:1 1469:1 1478:1 1494:1 1517:1 1518:1 1612:1 1630:1 1685:1 1799:1 2231:1 2414:1 2477:1 2681:1 2700:1 2707:1 2833:1 2895:1 3001:1 3181:1 3186:1 3459:1 3532:1 3684:1 3884:1 4444:1 4610:1 4959:1 5162:1 5166:1 5168:1 5182:1 5532:1 6436:1 6505:1 6687:1 6688:1 6689:1 6690:1 6691:1 6692:1 6693:1 6694:1 6695:1 6696:1 6697:1 6698:1 6699:1 6700:1 
1 5:1 6:1 10:1 16:1 28:1 51:1 52:1 54:1 56:1 57:1 61:1 80:1 106:1 110:1 111:1 113:1 116:1 129:1 131:1 170:1 237:1 242:1 256:1 278:1 297:1 300:1 304:1 312:1 318:1 321:1 340:1 341:1 343:1 356:1 375:1 399:1 400:1 511:1 513:1 516:1 549:1 556:1 855:1 942:1 1118:1 1175:1 1494:1 1517:1 1589:1 1612:1 1630:1 1775:1 2671:1 2712:1 2738:1 2874:1 3380:1 3451:1 3473:1 3949:1 4392:1 4653:1 4923:1 5311:1 6436:1 6628:1 6701:1 6702:1 6703:1 6704:1 6705:1 6706:1 
1 0:1 5:1 8:1 10:1 13:1 16:1 19:1 51:1 54:1 56:1 83:1 106:1 112:1 116:1 131:1 135:1 136:1 250:1 351:1 513:1 565:1 595:1 748:1 1043:1 1105:1 1225:1 1346:1 1396:1 1453:1 1469:1 1518:1 1574:1 1762:1 1880:1 2104:1 2105:1 2252:1 2477:1 2650:1 2792:1 3456:1 3493:1 4284:1 4693:1 4859:1 5162:1 5166:1 5168:1 5182:1 6219:1 6255:1 6634:1 6772:1 6775:1 6874:1 6886:1 6887:1 6888:1 6889:1 6890:1 6891:1 6892:1 6893:1 6894:1 6895:1 6896:1 
1 0:1 3:1 5:1 8:1 11:1 51:1 54:1 56:1 75:1 80:1 110:1 111:1 116:1 124:1 135:1 136:1 144:1 147:1 205:1 206:1 278:1 296:1 297:1 300:1 307:1 312:1 392:1 399:1 400:1 484:1 511:1 514:1 516:1 534:1 549:1 558:1 596:1 824:1 938:1 1027:1 1244:1 1469:1 1494:1 1517:1 1518:1 1612:1 1630:1 1859:1 2105:1 2317:1 2625:1 2884:1 2923:1 3025:1 3131:1 3233:1 3341:1 3363:1 3641:1 3938:1 4084:1 4444:1 4751:1 4875:1 5162:1 5166:1 5168:1 5182:1 5355:1 5535:1 5545:1 5694:1 6436:1 6687:1 6691:1 6699:1 6700:1 6837:1 6838:1 6839:1 7115:1 7116:1 7117:1 7118:1 
1 0:1 5:1 10:1 13:1 17:1 21:1 51:1 54:1 56:1 67:1 71:1 80:1 87:1 106:1 110:1 111:1 116:1 119:1 124:1 131:1 135:1 136:1 151:1 256:1 307:1 343:1 366:1 400:1 410:1 532:1 547:1 548:1 552:1 1227:1 1256:1 1258:1 1516:1 1518:1 1781:1 2105:1 2769:1 2914:1 3197:1 3596:1 3716:1 3895:1 4107:1 4332:1 4430:1 4467:1 4658:1 5453:1 5597:1 6450:1 6452:1 6454:1 6459:1 6474:1 6500:1 6518:1 7119:1 7120:1 7121:1 
1 0:1 5:1 10:1 11:1 13:1 16:1 50:1 51:1 52:1 54:1 56:1 57:1 69:1 71:1 75:1 83:1 87:1 111:1 112:1 116:1 129:1 135:1 136:1 154:1 199:1 255:1 321:1 343:1 366:1 376:1 400:1 513:1 516:1 547:1 565:1 625:1 640:1 938:1 962:1 1105:1 1225:1 1244:1 1255:1 1259:1 1283:1 1336:1 1414:1 1424:1 1453:1 1469:1 1518:1 1574:1 1575:1 1588:1 1600:1 2105:1 2125:1 2372:1 2477:1 2532:1 2650:1 2903:1 3446:1 3493:1 3598:1 3899:1 4246:1 4275:1 4284:1 4363:1 4443:1 4693:1 4740:1 4859:1 5046:1 5162:1 5166:1 5168:1 5182:1 5306:1 5701:1 6772:1 6775:1 6827:1 7157:1 7158:1 7159:1 
1 0:1 5:1 11:1 16:1 28:1 45:1 54:1 56:1 57:1 65:1 66:1 80:1 111:1 115:1 116:1 132:1 144:1 189:1 335:1 547:1 627:1 650:1 917:1 1109:1 1162:1 1315:1 1341:1 1436:1 1437:1 1730:1 2023:1 2026:1 2057:1 2628:1 2698:1 2958:1 3176:1 3365:1 3390:1 3682:1 4449:1 4808:1 4977:1 5209:1 5697:1 7167:1 7168:1 7169:1 7170:1 7171:1 7172:1 7173:1 
1 0:1 5:1 11:1 45:1 54:1 56:1 57:1 80:1 111:1 115:1 116:1 144:1 189:1 335:1 547:1 627:1 650:1 917:1 1109:1 1162:1 1315:1 1341:1 1436:1 2023:1 2057:1 2628:1 2698:1 2958:1 3365:1 3390:1 3682:1 4449:1 4808:1 4977:1 5209:1 7167:1 7168:1 7169:1 7170:1 7171:1 7172:1 
1 0:1 5:1 11:1 16:1 21:1 39:1 47:1 50:1 51:1 54:1 56:1 57:1 69:1 71:1 74:1 80:1 82:1 83:1 84:1 106:1 107:1 110:1 111:1 112:1 116:1 124:1 126:1 135:1 152:1 155:1 165:1 199:1 202:1 204:1 216:1 225:1 227:1 242:1 255:1 299:1 304:1 307:1 312:1 313:1 321:1 326:1 356:1 358:1 362:1 365:1 370:1 381:1 386:1 391:1 400:1 409:1 411:1 413:1 421:1 423:1 425:1 432:1 486:1 493:1 499:1 512:1 513:1 516:1 525:1 530:1 533:1 547:1 550:1 552:1 562:1 565:1 625:1 629:1 745:1 749:1 862:1 906:1 917:1 935:1 936:1 938:1 968:1 1003:1 1005:1 1018:1 1154:1 1214:1 1298:1 1327:1 1329:1 1417:1 1455:1 1548:1 1577:1 1585:1 1995:1 2105:1 2146:1 2147:1 2223:1 2367:1 2428:1 2474:1 2578:1 2668:1 2765:1 2792:1 2961:1 3025:1 3036:1 3124:1 3223:1 3312:1 3364:1 3385:1 3448:1 3545:1 3554:1 3846:1 3895:1 3953:1 3980:1 4210:1 4319:1 4366:1 4396:1 4457:1 4625:1 4627:1 4664:1 4738:1 4876:1 4905:1 5071:1 5101:1 5151:1 5861:1 5882:1 6387:1 7115:1 7203:1 7204:1 7205:1 7206:1 7207:1 7208:1 7209:1 7210:1 7211:1 7212:1 7213:1 7214:1 7215:1 7216:1 7217:1 7218:1 7219:1 7220:1 7221:1 7222:1 7223:1 7224:1 7225:1 7226:1 7227:1 7228:1 7229:1 7230:1 
1 1:1 5:1 8:1 10:1 11:1 13:1 16:1 27:1 28:1 47:1 51:1 52:1 54:1 56:1 57:1 58:1 61:1 73:1 80:1 83:1 84:1 85:1 106:1 109:1 110:1 111:1 113:1 116:1 124:1 128:1 129:1 130:1 135:1 137:1 188:1 199:1 214:1 229:1 232:1 235:1 256:1 273:1 280:1 312:1 321:1 325:1 377:1 400:1 465:1 466:1 484:1 486:1 499:1 509:1 513:1 516:1 534:1 541:1 556:1 558:1 562:1 618:1 626:1 670:1 686:1 778:1 823:1 824:1 909:1 1015:1 1118:1 1177:1 1236:1 1259:1 1278:1 1324:1 1329:1 1346:1 1358:1 1390:1 1415:1 1461:1 1499:1 1506:1 1509:1 1517:1 1574:1 1589:1 1603:1 1609:1 1681:1 1689:1 1728:1 1868:1 1882:1 1886:1 2066:1 2104:1 2224:1 2252:1 2318:1 2596:1 2700:1 2707:1 2809:1 2866:1 2964:1 3106:1 3176:1 3184:1 3656:1 3707:1 3726:1 3758:1 3851:1 3962:1 4244:1 4328:1 4476:1 4849:1 5118:1 5337:1 5562:1 5714:1 5717:1 5721:1 5726:1 5727:1 5730:1 5737:1 5943:1 7121:1 7231:1 7232:1 7233:1 7234:1 7235:1 7236:1 7237:1 7238:1 7239:1 7240:1 7241:1 7242:1 7243:1 7244:1 7245:1 7246:1 
1 0:1 5:1 8:1 14:1 16:1 39:1 54:1 57:1 67:1 69:1 80:1 87:1 106:1 110:1 111:1 112:1 116:1 129:1 131:1 136:1 138:1 151:1 193:1 199:1 229:1 232:1 235:1 249:1 256:1 266:1 300:1 304:1 307:1 312:1 321:1 335:1 354:1 375:1 400:1 484:1 499:1 511:1 516:1 547:1 552:1 560:1 562:1 569:1 824:1 919:1 935:1 938:1 1074:1 1100:1 1136:1 1155:1 1177:1 1189:1 1294:1 1330:1 1370:1 1417:1 1469:1 1502:1 1598:1 1919:1 2023:1 2109:1 2156:1 2161:1 2205:1 2312:1 2779:1 3287:1 3399:1 3419:1 4291:1 4688:1 4965:1 4974:1 4976:1 4983:1 4990:1 5000:1 5002:1 5003:1 5005:1 5009:1 5013:1 5014:1 5160:1 5162:1 5166:1 5168:1 5182:1 5367:1 5368:1 5370:1 5372:1 5375:1 5386:1 7247:1 7248:1 
1 0:1 4:1 5:1 21:1 45:1 48:1 54:1 56:1 72:1 80:1 82:1 111:1 116:1 124:1 278:1 326:1 358:1 379:1 407:1 412:1 443:1 511:1 516:1 555:1 562:1 573:1 574:1 1042:1 1160:1 1254:1 1306:1 1322:1 1612:1 1630:1 1745:1 1799:1 2044:1 2109:1 2549:1 2726:1 2958:1 3989:1 4049:1 4427:1 4866:1 7662:1 7663:1 7664:1 7665:1 7666:1 
1 0:1 1:1 5:1 10:1 11:1 22:1 28:1 45:1 51:1 54:1 56:1 57:1 65:1 66:1 71:1 80:1 106:1 110:1 111:1 115:1 116:1 129:1 131:1 135:1 136:1 144:1 188:1 189:1 241:1 256:1 262:1 274:1 307:1 335:1 366:1 376:1 407:1 465:1 514:1 547:1 549:1 627:1 650:1 673:1 917:1 941:1 1023:1 1043:1 1109:1 1162:1 1199:1 1245:1 1298:1 1315:1 1341:1 1404:1 1415:1 1436:1 1469:1 1569:1 1584:1 1600:1 1612:1 1630:1 1698:1 1717:1 2023:1 2057:1 2104:1 2628:1 2698:1 2721:1 2860:1 2903:1 2958:1 2985:1 3139:1 3365:1 3380:1 3390:1 3682:1 3950:1 4233:1 4336:1 4337:1 4338:1 4339:1 4344:1 4345:1 4346:1 4347:1 4348:1 4366:1 4449:1 4808:1 4907:1 4977:1 5142:1 5143:1 5147:1 5153:1 5156:1 5157:1 5209:1 7167:1 7168:1 7169:1 7170:1 7171:1 7172:1 7667:1 7668:1 7669:1 7670:1 7671:1 
1 5:1 6:1 32:1 62:1 80:1 87:1 101:1 110:1 111:1 112:1 116:1 131:1 135:1 188:1 199:1 255:1 289:1 313:1 321:1 453:1 486:1 565:1 576:1 633:1 745:1 768:1 897:1 938:1 1222:1 1330:1 1464:1 1517:1 1761:1 1859:1 1967:1 3443:1 3953:1 3958:1 3959:1 3961:1 3962:1 3963:1 3965:1 4419:1 4749:1 4770:1 4988:1 4993:1 4994:1 5006:1 5008:1 7437:1 7729:1 
1 0:1 1:1 8:1 16:1 28:1 36:1 47:1 51:1 80:1 82:1 83:1 84:1 111:1 116:1 135:1 174:1 249:1 312:1 313:1 376:1 391:1 399:1 400:1 525:1 550:1 557:1 1111:1 1315:1 1329:1 1343:1 1370:1 1417:1 1436:1 1445:1 1457:1 1596:1 1685:1 2252:1 3131:1 3690:1 3742:1 3967:1 4314:1 4315:1 4316:1 4320:1 4322:1 4323:1 4324:1 4325:1 4326:1 4329:1 4332:1 5943:1 5945:1 5958:1 5959:1 7944:1 7945:1 7946:1 
1 1:1 4:1 6:1 8:1 11:1 28:1 39:1 51:1 54:1 56:1 57:1 80:1 111:1 116:1 124:1 300:1 312:1 313:1 399:1 400:1 410:1 486:1 487:1 511:1 516:1 561:1 618:1 901:1 1027:1 1122:1 1123:1 1377:1 1415:1 1453:1 1518:1 1530:1 1667:1 1680:1 1859:1 2105:1 2642:1 2663:1 2666:1 2677:1 2691:1 2712:1 2914:1 3223:1 3316:1 3381:1 3699:1 4952:1 5781:1 6008:1 6024:1 6127:1 6130:1 6131:1 7965:1 7966:1 7967:1 7968:1 7969:1 7970:1 
1 0:1 5:1 8:1 11:1 13:1 16:1 32:1 51:1 52:1 54:1 56:1 57:1 80:1 82:1 86:1 90:1 104:1 110:1 111:1 116:1 120:1 124:1 126:1 129:1 131:1 135:1 136:1 151:1 275:1 307:1 321:1 343:1 356:1 392:1 399:1 400:1 465:1 481:1 484:1 499:1 511:1 513:1 516:1 545:1 547:1 549:1 557:1 561:1 565:1 615:1 788:1 938:1 973:1 979:1 1049:1 1109:1 1154:1 1194:1 1315:1 1372:1 1414:1 1417:1 1453:1 1469:1 1527:1 1577:1 1600:1 1659:1 1660:1 1685:1 1864:1 1960:1 2105:1 2129:1 2213:1 2527:1 2653:1 2868:1 2877:1 2878:1 2881:1 2883:1 2884:1 2889:1 2894:1 2898:1 2903:1 2904:1 2907:1 2908:1 2909:1 2915:1 2923:1 2932:1 2933:1 2934:1 2939:1 3482:1 3851:1 3867:1 4124:1 4363:1 4506:1 4809:1 5023:1 5220:1 5907:1 6467:1 6775:1 7570:1 7866:1 7879:1 7883:1 7976:1 7980:1 
1 0:1 1:1 6:1 10:1 11:1 28:1 39:1 51:1 54:1 56:1 57:1 80:1 106:1 111:1 116:1 124:1 131:1 155:1 300:1 399:1 400:1 413:1 487:1 516:1 618:1 935:1 1027:1 1096:1 1122:1 1415:1 1453:1 1518:1 1698:1 1859:1 2105:1 2712:1 2874:1 3552:1 3699:1 4952:1 5781:1 6009:1 6334:1 6903:1 7965:1 7966:1 7967:1 7969:1 7970:1 8004:1 8005:1 8006:1 8007:1 8008:1 
1 0:1 5:1 8:1 11:1 13:1 16:1 19:1 32:1 39:1 50:1 51:1 52:1 56:1 57:1 62:1 69:1 72:1 80:1 83:1 84:1 86:1 87:1 106:1 111:1 112:1 113:1 126:1 135:1 146:1 151:1 188:1 199:1 201:1 232:1 234:1 255:1 256:1 289:1 296:1 307:1 313:1 372:1 381:1 400:1 466:1 486:1 513:1 514:1 519:1 550:1 552:1 561:1 565:1 595:1 640:1 730:1 938:1 1027:1 1095:1 1177:1 1330:1 1346:1 1602:1 1660:1 1706:1 1870:1 2116:1 2404:1 2474:1 2653:1 2672:1 2786:1 2877:1 2901:1 2909:1 3127:1 3228:1 3461:1 3764:1 3842:1 3850:1 4749:1 5117:1 5167:1 5277:1 5341:1 5352:1 7509:1 8090:1 8091:1 8092:1 8093:1 
1 0:1 4:1 5:1 8:1 10:1 11:1 13:1 16:1 21:1 28:1 30:1 39:1 51:1 52:1 54:1 56:1 58:1 80:1 82:1 84:1 86:1 87:1 110:1 111:1 112:1 116:1 126:1 129:1 131:1 135:1 136:1 189:1 196:1 199:1 201:1 255:1 307:1 321:1 343:1 366:1 375:1 400:1 407:1 511:1 513:1 533:1 540:1 547:1 552:1 562:1 643:1 700:1 764:1 936:1 1095:1 1199:1 1258:1 1283:1 1284:1 1506:1 1518:1 1571:1 1584:1 1600:1 1762:1 1983:1 2057:1 2105:1 2505:1 2530:1 2553:1 2752:1 2808:1 2877:1 2942:1 3264:1 3313:1 3318:1 3324:1 3493:1 3535:1 3701:1 3795:1 4127:1 4168:1 4278:1 4316:1 4324:1 4326:1 4329:1 4602:1 4883:1 5061:1 5079:1 5241:1 5248:1 5401:1 5640:1 5687:1 7416:1 7433:1 7773:1 7937:1 7938:1 7939:1 7940:1 7941:1 7942:1 8096:1 8097:1 
1 0:1 1:1 4:1 5:1 8:1 10:1 13:1 16:1 21:1 32:1 38:1 39:1 47:1 51:1 54:1 57:1 73:1 80:1 87:1 91:1 110:1 111:1 113:1 116:1 129:1 135:1 146:1 151:1 157:1 305:1 313:1 321:1 324:1 332:1 335:1 343:1 366:1 407:1 410:1 412:1 425:1 465:1 472:1 474:1 514:1 516:1 518:1 527:1 547:1 555:1 562:1 609:1 640:1 646:1 650:1 776:1 799:1 874:1 948:1 1095:1 1227:1 1239:1 1284:1 1329:1 1342:1 1414:1 1544:1 1671:1 2026:1 2057:1 2377:1 2468:1 2564:1 2684:1 2720:1 2942:1 3120:1 3133:1 3208:1 3243:1 3365:1 3445:1 3701:1 4062:1 4083:1 4089:1 4131:1 4168:1 4223:1 4247:1 4300:1 4496:1 4504:1 4580:1 4620:1 4886:1 4980:1 5151:1 5248:1 5351:1 5594:1 5640:1 5961:1 6365:1 6843:1 7281:1 7941:1 8110:1 8111:1 8112:1 8113:1 8114:1 8115:1 8116:1 8117:1 8118:1 8119:1 8120:1 8121:1 8122:1 8123:1 8124:1 8125:1 8126:1 8127:1 8128:1 8129:1 8130:1 8131:1 8132:1 
1 1:1 5:1 8:1 10:1 11:1 22:1 45:1 47:1 51:1 54:1 56:1 57:1 73:1 80:1 82:1 86:1 106:1 110:1 111:1 115:1 124:1 126:1 131:1 136:1 151:1 189:1 227:1 278:1 289:1 317:1 392:1 400:1 412:1 465:1 484:1 540:1 555:1 595:1 615:1 618:1 948:1 1111:1 1259:1 1318:1 1327:1 1336:1 1428:1 1469:1 1495:1 1518:1 1584:1 1596:1 1693:1 1768:1 1870:1 2105:1 2512:1 2527:1 2584:1 2715:1 2731:1 2876:1 2896:1 2909:1 2920:1 3000:1 3007:1 3029:1 3156:1 3446:1 3493:1 3495:1 3591:1 3593:1 3598:1 3899:1 4726:1 4813:1 5558:1 5569:1 5575:1 5852:1 5963:1 5964:1 5968:1 5971:1 5977:1 5978:1 5979:1 5983:1 5985:1 5987:1 5988:1 5990:1 5993:1 5997:1 5999:1 6000:1 8139:1 8140:1 8141:1 
1 0:1 5:1 10:1 22:1 28:1 39:1 45:1 51:1 54:1 57:1 76:1 80:1 83:1 85:1 110:1 111:1 116:1 122:1 124:1 129:1 131:1 155:1 189:1 232:1 321:1 400:1 481:1 484:1 513:1 530:1 549:1 556:1 562:1 595:1 618:1 938:1 941:1 1096:1 1255:1 1377:1 1517:1 1646:1 1654:1 1678:1 1679:1 1930:1 1931:1 2129:1 2309:1 2456:1 2502:1 2928:1 2980:1 3295:1 3316:1 3379:1 3463:1 3660:1 3674:1 3882:1 4511:1 4543:1 5876:1 6672:1 6852:1 7699:1 7700:1 7743:1 8142:1 8143:1 8144:1 
1 5:1 8:1 51:1 54:1 80:1 82:1 111:1 116:1 124:1 129:1 275:1 317:1 366:1 511:1 546:1 618:1 716:1 760:1 1295:1 1392:1 1587:1 1742:1 1938:1 2505:1 3025:1 3062:1 3064:1 4766:1 4849:1 8145:1 8146:1 8147:1 
1 5:1 6:1 13:1 51:1 52:1 54:1 106:1 111:1 116:1 132:1 151:1 256:1 313:1 321:1 366:1 392:1 399:1 413:1 472:1 513:1 627:1 730:1 745:1 857:1 879:1 1015:1 1081:1 1130:1 1307:1 1325:1 1365:1 1469:1 1474:1 1475:1 1482:1 1609:1 1894:1 2417:1 2598:1 2603:1 2656:1 2668:1 2702:1 2713:1 2715:1 2876:1 2896:1 2920:1 3133:1 3149:1 3461:1 4268:1 4406:1 4751:1 4837:1 5802:1 5806:1 5816:1 5829:1 5830:1 5832:1 5862:1 6777:1 7115:1 8050:1 8208:1 8209:1 8210:1 8211:1 8212:1 8213:1 8214:1 
1 0:1 1:1 5:1 6:1 8:1 21:1 39:1 52:1 54:1 57:1 69:1 80:1 82:1 83:1 84:1 106:1 111:1 124:1 126:1 135:1 204:1 233:1 312:1 321:1 346:1 377:1 400:1 532:1 562:1 573:1 610:1 644:1 929:1 1122:1 1340:1 1343:1 1411:1 1414:1 1444:1 1454:1 1495:1 1983:1 2026:1 2145:1 2909:1 3895:1 4159:1 4357:1 4781:1 5041:1 5072:1 5798:1 6617:1 6875:1 6895:1 8230:1 8231:1 8232:1 8233:1 8234:1 8235:1 8236:1 
1 0:1 4:1 5:1 8:1 10:1 11:1 16:1 19:1 21:1 22:1 28:1 39:1 51:1 52:1 54:1 57:1 67:1 73:1 80:1 84:1 86:1 109:1 110:1 111:1 116:1 124:1 126:1 131:1 151:1 157:1 188:1 191:1 201:1 204:1 214:1 227:1 288:1 299:1 307:1 312:1 321:1 343:1 357:1 392:1 407:1 425:1 444:1 465:1 513:1 514:1 516:1 550:1 555:1 557:1 562:1 565:1 575:1 610:1 618:1 681:1 695:1 750:1 935:1 941:1 948:1 966:1 1010:1 1031:1 1096:1 1118:1 1127:1 1177:1 1194:1 1295:1 1362:1 1397:1 1474:1 1482:1 1500:1 1637:1 2026:1 2057:1 2161:1 2252:1 2477:1 2500:1 2569:1 2572:1 2604:1 2605:1 2613:1 2626:1 2637:1 2712:1 2738:1 2745:1 2794:1 2874:1 2909:1 3000:1 3288:1 3295:1 3742:1 3792:1 3795:1 3859:1 3907:1 4466:1 4503:1 4504:1 4658:1 5360:1 5541:1 6314:1 6588:1 6852:1 7198:1 7230:1 7795:1 7797:1 7798:1 7799:1 7800:1 7801:1 7802:1 7803:1 7804:1 7805:1 7806:1 7807:1 7808:1 8237:1 8238:1 8239:1 8240:1 
1 0:1 5:1 10:1 28:1 39:1 51:1 52:1 54:1 61:1 80:1 84:1 110:1 111:1 116:1 124:1 131:1 135:1 199:1 201:1 245:1 300:1 376:1 392:1 469:1 499:1 533:1 557:1 652:1 723:1 880:1 889:1 1100:1 1255:1 1288:1 1376:1 1392:1 1480:1 1518:1 1588:1 1594:1 1646:1 1647:1 1658:1 1659:1 1664:1 1670:1 1678:1 1679:1 1681:1 1684:1 2019:1 2116:1 2252:1 2307:1 2364:1 2846:1 3177:1 3923:1 8083:1 8084:1 8087:1 8264:1 8265:1 8266:1 
1 0:1 5:1 6:1 8:1 11:1 16:1 21:1 28:1 39:1 45:1 52:1 54:1 56:1 57:1 73:1 80:1 82:1 84:1 85:1 87:1 109:1 110:1 111:1 116:1 126:1 127:1 147:1 188:1 192:1 205:1 222:1 245:1 264:1 278:1 280:1 285:1 286:1 300:1 321:1 335:1 367:1 386:1 388:1 400:1 406:1 437:1 475:1 499:1 513:1 516:1 532:1 558:1 561:1 606:1 625:1 650:1 681:1 690:1 717:1 764:1 776:1 822:1 823:1 831:1 839:1 901:1 929:1 941:1 963:1 969:1 994:1 1031:1 1096:1 1106:1 1118:1 1151:1 1154:1 1198:1 1204:1 1265:1 1295:1 1315:1 1341:1 1374:1 1392:1 1436:1 1445:1 1611:1 1612:1 1633:1 1635:1 1642:1 1767:1 1784:1 1802:1 1804:1 1824:1 1845:1 1852:1 1859:1 1939:1 1960:1 1970:1 1974:1 1982:1 2021:1 2026:1 2034:1 2045:1 2057:1 2066:1 2072:1 2082:1 2174:1 2225:1 2238:1 2350:1 2411:1 2457:1 2508:1 2595:1 2606:1 2622:1 2704:1 2907:1 2910:1 3055:1 3070:1 3175:1 3224:1 3430:1 3853:1 3940:1 3941:1 3954:1 3986:1 4066:1 4319:1 4485:1 4886:1 5044:1 5105:1 5237:1 5301:1 5317:1 5320:1 5369:1 5495:1 5702:1 5707:1 5728:1 5751:1 5813:1 6288:1 6362:1 6412:1 6767:1 6860:1 6961:1 7293:1 7582:1 7767:1 7875:1 8281:1 8282:1 8283:1 8284:1 8285:1 8286:1 8287:1 8288:1 8289:1 8290:1 8291:1 8292:1 8293:1 8294:1 8295:1 8296:1 8297:1 8298:1 8299:1 8300:1 8301:1 8302:1 8303:1 8304:1 8305:1 8306:1 8307:1 8308:1 8309:1 8310:1 8311:1 8312:1 8313:1 8314:1 8315:1 8316:1 8317:1 8318:1 8319:1 8320:1 8321:1 8322:1 
1 0:1 4:1 5:1 8:1 10:1 11:1 16:1 17:1 39:1 40:1 45:1 50:1 51:1 54:1 56:1 61:1 63:1 69:1 80:1 83:1 87:1 106:1 110:1 111:1 116:1 129:1 131:1 135:1 154:1 159:1 190:1 193:1 199:1 201:1 222:1 229:1 232:1 266:1 267:1 286:1 312:1 321:1 342:1 343:1 366:1 372:1 376:1 386:1 410:1 412:1 481:1 486:1 494:1 499:1 512:1 513:1 514:1 530:1 547:1 550:1 557:1 562:1 595:1 606:1 642:1 656:1 879:1 941:1 1023:1 1048:1 1091:1 1118:1 1155:1 1255:1 1278:1 1329:1 1330:1 1347:1 1374:1 1407:1 1436:1 1464:1 1469:1 1471:1 1517:1 1588:1 1594:1 1681:1 1713:1 1726:1 1735:1 1762:1 1802:1 1901:1 1952:1 2005:1 2132:1 2231:1 2319:1 2367:1 2450:1 2466:1 2500:1 2597:1 2664:1 2776:1 2968:1 3070:1 3101:1 3149:1 3206:1 3241:1 3380:1 3529:1 3608:1 3617:1 3821:1 3834:1 3871:1 4079:1 4498:1 4574:1 4590:1 4653:1 4656:1 4698:1 4706:1 5085:1 5517:1 5614:1 5856:1 5881:1 6082:1 6250:1 6804:1 7014:1 8060:1 8367:1 8368:1 8369:1 8370:1 8371:1 8372:1 8373:1 8374:1 8375:1 8376:1 8377:1 8378:1 8379:1 8380:1 8381:1 8382:1 8383:1 8384:1 8385:1 8386:1 8387:1 8388:1 8389:1 8390:1 8391:1 8392:1 8393:1 8394:1 8395:1 
1 0:1 5:1 10:1 16:1 22:1 28:1 39:1 51:1 52:1 54:1 56:1 61:1 80:1 84:1 106:1 110:1 111:1 113:1 116:1 124:1 131:1 135:1 136:1 154:1 199:1 201:1 245:1 256:1 300:1 376:1 392:1 469:1 499:1 514:1 533:1 557:1 595:1 652:1 723:1 728:1 880:1 889:1 890:1 917:1 1100:1 1118:1 1254:1 1255:1 1288:1 1330:1 1376:1 1392:1 1469:1 1480:1 1485:1 1486:1 1488:1 1490:1 1518:1 1588:1 1594:1 1612:1 1646:1 1647:1 1658:1 1659:1 1664:1 1670:1 1678:1 1679:1 1681:1 1684:1 1932:1 1985:1 1990:1 2019:1 2026:1 2057:1 2116:1 2252:1 2307:1 2364:1 2712:1 2846:1 3177:1 3575:1 3851:1 3882:1 3923:1 4640:1 4866:1 6539:1 8083:1 8084:1 8087:1 8264:1 8265:1 8266:1 8576:1 8577:1 8578:1 8579:1 8580:1 
1 0:1 4:1 5:1 8:1 10:1 13:1 16:1 22:1 28:1 39:1 42:1 45:1 51:1 52:1 54:1 56:1 57:1 72:1 80:1 82:1 84:1 106:1 111:1 112:1 114:1 116:1 127:1 130:1 131:1 135:1 136:1 151:1 154:1 157:1 189:1 190:1 199:1 204:1 255:1 321:1 376:1 378:1 391:1 400:1 407:1 452:1 469:1 484:1 509:1 513:1 516:1 519:1 557:1 558:1 565:1 573:1 591:1 601:1 612:1 618:1 627:1 876:1 917:1 938:1 994:1 1015:1 1049:1 1092:1 1136:1 1163:1 1414:1 1428:1 1433:1 1489:1 1603:1 1640:1 1648:1 1692:1 1698:1 1870:1 2082:1 2231:1 2490:1 2773:1 2778:1 2982:1 3120:1 3349:1 3375:1 3404:1 3427:1 3500:1 3684:1 3710:1 3742:1 3851:1 3922:1 4160:1 4625:1 4782:1 5023:1 5466:1 5861:1 6067:1 6191:1 6199:1 6201:1 7374:1 7472:1 7978:1 8604:1 8605:1 8606:1 8607:1 
1 0:1 8:1 39:1 80:1 126:1 135:1 234:1 241:1 353:1 374:1 392:1 516:1 540:1 563:1 830:1 1031:1 1111:1 1122:1 1392:1 1574:1 1870:1 2324:1 2408:1 3025:1 3223:1 3638:1 
1 0:1 5:1 8:1 10:1 16:1 28:1 37:1 51:1 54:1 56:1 57:1 64:1 67:1 73:1 80:1 82:1 83:1 84:1 86:1 106:1 110:1 111:1 116:1 122:1 124:1 129:1 130:1 131:1 155:1 199:1 201:1 232:1 249:1 256:1 312:1 313:1 321:1 386:1 392:1 472:1 480:1 484:1 486:1 513:1 530:1 542:1 543:1 550:1 555:1 557:1 562:1 573:1 586:1 618:1 874:1 879:1 1244:1 1283:1 1453:1 1469:1 1584:1 1632:1 1698:1 1983:1 2237:1 2569:1 2668:1 2809:1 2947:1 3077:1 3266:1 4116:1 4322:1 4767:1 4897:1 6183:1 6963:1 6967:1 7124:1 7817:1 7923:1 8611:1 8612:1 8613:1 8614:1 8615:1 8616:1 8617:1 8618:1 8619:1 8620:1 8621:1 8622:1 8623:1 
1 0:1 5:1 10:1 11:1 17:1 28:1 41:1 51:1 52:1 54:1 56:1 57:1 69:1 80:1 84:1 86:1 87:1 90:1 96:1 106:1 110:1 111:1 116:1 124:1 127:1 131:1 136:1 199:1 201:1 218:1 245:1 249:1 256:1 279:1 285:1 299:1 313:1 365:1 465:1 469:1 472:1 506:1 513:1 523:1 533:1 534:1 535:1 550:1 555:1 557:1 581:1 618:1 808:1 938:1 1035:1 1093:1 1095:1 1122:1 1154:1 1244:1 1259:1 1278:1 1330:1 1469:1 1518:1 1698:1 1782:1 1983:1 2237:1 2259:1 2501:1 2569:1 2668:1 2692:1 2901:1 3000:1 3167:1 3578:1 4356:1 5162:1 5166:1 5168:1 5182:1 5665:1 8611:1 8612:1 8618:1 8623:1 8624:1 
1 0:1 1:1 5:1 6:1 11:1 13:1 39:1 42:1 44:1 45:1 51:1 54:1 56:1 57:1 71:1 80:1 82:1 83:1 106:1 107:1 110:1 111:1 113:1 115:1 116:1 124:1 126:1 127:1 129:1 151:1 199:1 232:1 235:1 256:1 264:1 275:1 312:1 321:1 374:1 400:1 412:1 480:1 486:1 509:1 511:1 512:1 547:1 557:1 561:1 569:1 618:1 686:1 994:1 1031:1 1046:1 1083:1 1293:1 1319:1 1482:1 1591:1 1681:1 2290:1 2327:1 2595:1 2596:1 2598:1 2670:1 2752:1 2972:1 2974:1 3092:1 3147:1 3149:1 3295:1 3356:1 3457:1 3582:1 3591:1 3644:1 4199:1 4294:1 4457:1 4935:1 5576:1 5802:1 5817:1 5830:1 5833:1 5871:1 6274:1 6289:1 6562:1 6776:1 7087:1 7755:1 7964:1 8625:1 8626:1 8627:1 8628:1 8629:1 8630:1 8631:1 8632:1 8633:1 
1 0:1 4:1 5:1 6:1 11:1 28:1 30:1 39:1 42:1 52:1 56:1 61:1 80:1 82:1 84:1 110:1 111:1 116:1 129:1 146:1 147:1 189:1 190:1 255:1 268:1 307:1 314:1 329:1 335:1 353:1 399:1 400:1 465:1 511:1 516:1 533:1 551:1 552:1 650:1 868:1 940:1 1045:1 1174:1 1402:1 1428:1 1502:1 1637:1 1702:1 1735:1 1746:1 1801:1 2156:1 2259:1 2282:1 2508:1 2546:1 2569:1 2574:1 2585:1 2596:1 2855:1 2888:1 3005:1 3360:1 3420:1 3425:1 3445:1 3641:1 3659:1 3843:1 3962:1 4393:1 4792:1 4980:1 5117:1 5466:1 6199:1 7034:1 7110:1 7268:1 7270:1 7300:1 7308:1 7327:1 7341:1 7364:1 7408:1 7419:1 7436:1 7484:1 7518:1 7582:1 8424:1 8718:1 8719:1 8720:1 8721:1 8722:1 8723:1 
1 4:1 5:1 28:1 39:1 54:1 67:1 80:1 106:1 111:1 116:1 129:1 189:1 314:1 321:1 353:1 399:1 421:1 513:1 516:1 837:1 1284:1 1368:1 1514:1 1693:1 1746:1 1868:1 1936:1 2001:1 2091:1 2282:1 2290:1 2546:1 2569:1 2574:1 2596:1 2614:1 2901:1 3420:1 3425:1 3445:1 3861:1 3890:1 3962:1 4689:1 6162:1 6579:1 7327:1 7426:1 7518:1 7964:1 8724:1 8725:1 8726:1 8727:1 8728:1 8729:1 8730:1 8731:1 8732:1 8733:1 8734:1 8735:1 8736:1 8737:1 8738:1 8739:1 8740:1 8741:1 
1 16:1 39:1 54:1 80:1 82:1 86:1 110:1 111:1 116:1 126:1 305:1 343:1 484:1 530:1 532:1 547:1 557:1 610:1 653:1 948:1 1012:1 1357:1 1413:1 1437:1 1632:1 1698:1 1959:1 1971:1 2888:1 3080:1 3111:1 6529:1 8742:1 8743:1 8744:1 8745:1 8746:1 8747:1 
1 0:1 5:1 8:1 10:1 16:1 21:1 31:1 41:1 44:1 50:1 51:1 54:1 56:1 57:1 69:1 71:1 76:1 80:1 87:1 88:1 106:1 110:1 111:1 116:1 129:1 131:1 135:1 136:1 140:1 151:1 160:1 199:1 208:1 241:1 255:1 256:1 290:1 300:1 312:1 362:1 376:1 445:1 464:1 469:1 484:1 511:1 514:1 549:1 555:1 561:1 566:1 569:1 591:1 601:1 618:1 646:1 673:1 776:1 853:1 862:1 981:1 1007:1 1015:1 1035:1 1079:1 1089:1 1176:1 1258:1 1298:1 1329:1 1404:1 1415:1 1469:1 1518:1 1584:1 1698:1 1717:1 2057:1 2512:1 2660:1 2686:1 2791:1 2822:1 2903:1 3035:1 3147:1 3264:1 3380:1 3825:1 3895:1 3950:1 4233:1 4268:1 4336:1 4337:1 4338:1 4339:1 4344:1 4345:1 4346:1 4347:1 4348:1 5142:1 5143:1 5147:1 5153:1 5156:1 5157:1 5999:1 6065:1 6390:1 7782:1 7783:1 7792:1 8634:1 
1 10:1 11:1 13:1 28:1 39:1 54:1 56:1 58:1 80:1 106:1 111:1 131:1 340:1 399:1 540:1 547:1 562:1 601:1 734:1 922:1 973:1 1254:1 1368:1 1419:1 1453:1 1509:1 1518:1 1931:1 2282:1 2482:1 2569:1 2572:1 2573:1 2574:1 2589:1 3316:1 3968:1 3984:1 4527:1 5961:1 6183:1 6920:1 8875:1 8876:1 8877:1 8878:1 
1 0:1 5:1 8:1 11:1 16:1 39:1 51:1 52:1 54:1 56:1 57:1 69:1 71:1 74:1 75:1 76:1 77:1 80:1 82:1 83:1 84:1 85:1 86:1 106:1 110:1 111:1 116:1 122:1 126:1 129:1 130:1 134:1 135:1 136:1 154:1 156:1 189:1 191:1 193:1 199:1 206:1 212:1 232:1 251:1 289:1 307:1 312:1 313:1 315:1 321:1 349:1 356:1 366:1 367:1 378:1 400:1 407:1 466:1 474:1 478:1 487:1 511:1 512:1 513:1 516:1 527:1 533:1 534:1 560:1 562:1 569:1 629:1 644:1 652:1 736:1 933:1 1070:1 1108:1 1121:1 1124:1 1125:1 1177:1 1189:1 1212:1 1270:1 1286:1 1315:1 1326:1 1327:1 1393:1 1402:1 1404:1 1435:1 1457:1 1502:1 1524:1 1591:1 1659:1 1730:1 1793:1 1870:1 1882:1 1919:1 1981:1 2078:1 2389:1 2602:1 2653:1 3000:1 3071:1 3165:1 3295:1 3303:1 3701:1 3746:1 3929:1 4194:1 4231:1 4342:1 4453:1 5148:1 5158:1 5248:1 5455:1 5476:1 5535:1 5596:1 6158:1 6235:1 6354:1 6409:1 6415:1 6416:1 6424:1 6534:1 6535:1 6537:1 6538:1 6539:1 6540:1 6541:1 6543:1 6974:1 8317:1 8918:1 
1 51:1 56:1 80:1 111:1 131:1 136:1 415:1 516:1 555:1 874:1 1176:1 1469:1 1479:1 1528:1 1574:1 1592:1 1605:1 2069:1 2105:1 2213:1 2307:1 2934:1 2940:1 4483:1 4489:1 5179:1 8919:1 8920:1 8921:1 8922:1 
1 0:1 1:1 5:1 8:1 47:1 54:1 56:1 57:1 67:1 71:1 74:1 82:1 84:1 87:1 107:1 111:1 116:1 129:1 135:1 151:1 199:1 307:1 313:1 399:1 400:1 465:1 484:1 513:1 516:1 517:1 532:1 550:1 558:1 640:1 1244:1 1404:1 1407:1 1461:1 1509:1 1522:1 1568:1 1603:1 1661:1 1667:1 1680:1 1902:1 1933:1 2027:1 2116:1 2564:1 3000:1 3223:1 3365:1 3459:1 3792:1 3850:1 4334:1 4824:1 5487:1 5509:1 5533:1 5536:1 6194:1 6274:1 6635:1 6804:1 6846:1 8152:1 8156:1 8173:1 
1 0:1 4:1 5:1 11:1 13:1 39:1 45:1 51:1 52:1 54:1 56:1 57:1 58:1 61:1 80:1 84:1 85:1 110:1 111:1 116:1 147:1 199:1 205:1 249:1 278:1 326:1 343:1 399:1 400:1 410:1 499:1 511:1 523:1 532:1 547:1 551:1 556:1 565:1 696:1 701:1 823:1 897:1 929:1 938:1 941:1 989:1 1015:1 1102:1 1194:1 1244:1 1374:1 1382:1 1589:1 1671:1 1767:1 1870:1 2263:1 2280:1 2477:1 2480:1 2506:1 2698:1 2770:1 2946:1 3383:1 3493:1 3699:1 4025:1 4107:1 4271:1 4453:1 5174:1 5351:1 5640:1 6341:1 7211:1 7582:1 8413:1 8696:1 8719:1 8982:1 8983:1 8984:1 
1 0:1 1:1 4:1 5:1 8:1 11:1 13:1 16:1 21:1 32:1 39:1 41:1 42:1 51:1 52:1 54:1 56:1 57:1 64:1 67:1 73:1 74:1 80:1 82:1 84:1 87:1 90:1 106:1 109:1 110:1 111:1 116:1 124:1 151:1 155:1 189:1 190:1 199:1 241:1 258:1 262:1 278:1 296:1 313:1 321:1 386:1 409:1 425:1 484:1 486:1 492:1 509:1 514:1 516:1 549:1 550:1 555:1 562:1 565:1 573:1 831:1 917:1 941:1 989:1 1104:1 1106:1 1195:1 1255:1 1265:1 1377:1 1394:1 1396:1 1414:1 1589:1 1600:1 1609:1 1709:1 1781:1 2024:1 2034:1 2057:1 2105:1 2132:1 2457:1 2501:1 2708:1 2726:1 2834:1 2900:1 2947:1 2962:1 2972:1 3163:1 3170:1 3266:1 3573:1 3762:1 4049:1 4328:1 4342:1 4581:1 4671:1 5231:1 5562:1 5762:1 6055:1 6390:1 6402:1 6819:1 7728:1 7947:1 8038:1 9000:1 9001:1 9002:1 9003:1 9004:1 9005:1 
1 6:1 10:1 21:1 22:1 54:1 56:1 80:1 110:1 111:1 131:1 136:1 294:1 321:1 399:1 465:1 480:1 516:1 527:1 547:1 550:1 562:1 770:1 941:1 1042:1 1081:1 1082:1 1164:1 1398:1 1411:1 1469:1 1527:1 1671:1 1697:1 1726:1 1894:1 1931:1 1999:1 2024:1 2116:1 2398:1 2480:1 2532:1 2597:1 3174:1 3290:1 4202:1 5697:1 5876:1 7027:1 7732:1 7745:1 7750:1 8114:1 8738:1 9006:1 9007:1 9008:1 9009:1 9010:1 9011:1 9012:1 
1 0:1 5:1 8:1 10:1 16:1 19:1 22:1 28:1 42:1 54:1 73:1 85:1 109:1 110:1 111:1 116:1 126:1 127:1 131:1 135:1 144:1 199:1 214:1 232:1 255:1 296:1 321:1 366:1 374:1 399:1 413:1 425:1 499:1 511:1 514:1 532:1 540:1 550:1 556:1 591:1 595:1 601:1 612:1 736:1 815:1 937:1 938:1 946:1 973:1 1048:1 1308:1 1327:1 1329:1 1402:1 1549:1 1588:1 1589:1 1681:1 1952:1 1981:1 2013:1 2083:1 2116:1 2664:1 2773:1 2778:1 3565:1 3667:1 4696:1 4703:1 4704:1 4749:1 6187:1 6279:1 9013:1 9014:1 9015:1 9016:1 9017:1 9018:1 
1 0:1 5:1 8:1 10:1 11:1 17:1 19:1 21:1 22:1 28:1 39:1 51:1 54:1 56:1 57:1 80:1 82:1 83:1 86:1 87:1 106:1 110:1 111:1 131:1 136:1 155:1 158:1 368:1 386:1 392:1 399:1 407:1 412:1 415:1 465:1 509:1 513:1 534:1 547:1 549:1 550:1 555:1 556:1 562:1 595:1 695:1 860:1 941:1 996:1 1083:1 1111:1 1244:1 1377:1 1428:1 1480:1 1693:1 1735:1 1768:1 1999:1 2105:1 2240:1 2432:1 2631:1 2917:1 3007:1 3029:1 3495:1 3552:1 3591:1 3593:1 3856:1 3968:1 4407:1 4610:1 4684:1 4726:1 5452:1 5852:1 5963:1 5964:1 5968:1 5971:1 5977:1 5978:1 5979:1 5983:1 5985:1 5987:1 5988:1 5990:1 5993:1 5997:1 5999:1 6000:1 7697:1 8993:1 9054:1 9055:1 9056:1 9057:1 9058:1 9059:1 9060:1 9061:1 9062:1 9063:1 9064:1 9065:1 9066:1 9067:1 9068:1 9069:1 9070:1 9071:1 9072:1 9073:1 
1 0:1 1:1 5:1 8:1 10:1 25:1 28:1 39:1 42:1 50:1 51:1 52:1 54:1 56:1 83:1 84:1 110:1 111:1 112:1 116:1 129:1 131:1 135:1 170:1 191:1 199:1 221:1 240:1 242:1 249:1 258:1 278:1 288:1 294:1 318:1 321:1 340:1 399:1 400:1 513:1 547:1 556:1 562:1 624:1 653:1 874:1 938:1 941:1 1027:1 1042:1 1091:1 1194:1 1293:1 1312:1 1318:1 1411:1 1413:1 1527:1 1724:1 2307:1 2377:1 2553:1 2564:1 2888:1 3044:1 3360:1 3792:1 3857:1 4284:1 4629:1 4727:1 5960:1 6362:1 6556:1 6628:1 7745:1 9108:1 9109:1 9110:1 9111:1 9112:1 9113:1 9114:1 9115:1 9116:1 9117:1 9118:1 9119:1 9120:1 9121:1 9122:1 9123:1 9124:1 9125:1 9126:1 9127:1 9128:1 9129:1 
1 0:1 5:1 8:1 10:1 13:1 16:1 25:1 39:1 48:1 51:1 54:1 67:1 80:1 82:1 84:1 85:1 86:1 109:1 110:1 111:1 116:1 124:1 126:1 129:1 131:1 135:1 144:1 146:1 151:1 199:1 243:1 249:1 255:1 321:1 358:1 376:1 382:1 400:1 484:1 490:1 499:1 502:1 509:1 510:1 511:1 512:1 513:1 514:1 527:1 532:1 547:1 553:1 556:1 557:1 582:1 591:1 601:1 768:1 788:1 869:1 899:1 1079:1 1089:1 1132:1 1329:1 1343:1 1370:1 1386:1 1390:1 1469:1 1518:1 2056:1 2262:1 2364:1 2425:1 2486:1 2508:1 2721:1 2773:1 2778:1 2805:1 2871:1 2963:1 3143:1 3173:1 3320:1 3430:1 3686:1 3851:1 3970:1 4429:1 4442:1 4466:1 4517:1 4746:1 4810:1 5580:1 6341:1 6447:1 8068:1 8810:1 8992:1 8993:1 8995:1 8999:1 9130:1 9131:1 9132:1 9133:1 9134:1 9135:1 9136:1 9137:1 9138:1 9139:1 9140:1 9141:1 9142:1 
1 0:1 1:1 5:1 10:1 11:1 17:1 22:1 42:1 54:1 56:1 80:1 82:1 86:1 108:1 111:1 113:1 116:1 126:1 131:1 135:1 146:1 255:1 294:1 354:1 412:1 465:1 475:1 509:1 513:1 516:1 530:1 532:1 547:1 555:1 560:1 562:1 627:1 909:1 938:1 994:1 1023:1 1081:1 1254:1 1328:1 1396:1 1402:1 1411:1 1455:1 1469:1 1497:1 1502:1 1685:1 1719:1 1726:1 2024:1 2124:1 2262:1 2325:1 2398:1 2405:1 2909:1 3120:1 3153:1 3162:1 3213:1 3332:1 3698:1 3774:1 4477:1 4507:1 4602:1 5061:1 5089:1 5113:1 5960:1 7732:1 7745:1 7750:1 8819:1 9009:1 9010:1 9237:1 9238:1 9239:1 9240:1 9241:1 9242:1 9243:1 9244:1 9245:1 
1 28:1 54:1 57:1 80:1 84:1 106:1 111:1 131:1 135:1 205:1 400:1 465:1 595:1 2538:1 2543:1 2584:1 2874:1 3460:1 3674:1 4495:1 4513:1 4518:1 4519:1 4535:1 6337:1 7754:1 7758:1 7768:1 9337:1 
1 0:1 1:1 5:1 8:1 10:1 11:1 21:1 28:1 47:1 50:1 54:1 56:1 57:1 67:1 71:1 74:1 82:1 84:1 87:1 107:1 110:1 111:1 116:1 129:1 131:1 135:1 151:1 199:1 307:1 313:1 399:1 400:1 465:1 484:1 513:1 516:1 517:1 532:1 550:1 558:1 572:1 640:1 860:1 1187:1 1189:1 1244:1 1394:1 1404:1 1407:1 1415:1 1461:1 1509:1 1522:1 1568:1 1603:1 1661:1 1667:1 1680:1 1902:1 1933:1 1951:1 2023:1 2027:1 2116:1 2134:1 2564:1 3000:1 3223:1 3365:1 3388:1 3459:1 3792:1 3850:1 4334:1 4824:1 5487:1 5509:1 5533:1 5536:1 5784:1 5849:1 6194:1 6274:1 6635:1 6721:1 6804:1 6846:1 7757:1 8152:1 8156:1 8173:1 9376:1 9389:1 9390:1 9391:1 9392:1 9393:1 9394:1 9395:1 9396:1 9397:1 
1 0:1 10:1 17:1 21:1 32:1 39:1 42:1 45:1 51:1 54:1 56:1 58:1 75:1 80:1 81:1 82:1 83:1 84:1 86:1 109:1 110:1 111:1 116:1 124:1 126:1 131:1 155:1 255:1 321:1 340:1 342:1 376:1 391:1 400:1 437:1 484:1 491:1 509:1 510:1 513:1 550:1 558:1 560:1 561:1 562:1 723:1 730:1 941:1 1063:1 1079:1 1089:1 1095:1 1132:1 1298:1 1365:1 1461:1 1464:1 1469:1 1471:1 1518:1 1643:1 1718:1 1726:1 1753:1 1902:1 1967:1 1999:1 2069:1 2486:1 3345:1 3380:1 3561:1 3821:1 4345:1 4505:1 4698:1 4706:1 5440:1 5629:1 6250:1 6757:1 6903:1 7210:1 7360:1 7630:1 8060:1 8992:1 8993:1 9130:1 9132:1 9133:1 9134:1 9135:1 9138:1 9139:1 9140:1 9141:1 9142:1 9175:1 9177:1 9205:1 9206:1 9211:1 9222:1 9223:1 9226:1 9230:1 9398:1 
1 0:1 1:1 5:1 10:1 11:1 17:1 22:1 42:1 51:1 54:1 56:1 80:1 82:1 86:1 106:1 108:1 110:1 111:1 113:1 116:1 122:1 126:1 131:1 135:1 146:1 154:1 250:1 255:1 265:1 294:1 321:1 354:1 392:1 412:1 449:1 465:1 474:1 475:1 480:1 484:1 509:1 513:1 516:1 530:1 532:1 547:1 553:1 555:1 557:1 560:1 562:1 582:1 625:1 627:1 840:1 909:1 922:1 938:1 994:1 1023:1 1081:1 1243:1 1254:1 1328:1 1370:1 1390:1 1396:1 1402:1 1411:1 1455:1 1469:1 1489:1 1497:1 1502:1 1518:1 1591:1 1685:1 1709:1 1719:1 1726:1 1730:1 1951:1 2024:1 2124:1 2262:1 2318:1 2325:1 2398:1 2405:1 2565:1 2748:1 2760:1 2909:1 2999:1 3092:1 3120:1 3153:1 3162:1 3213:1 3332:1 3698:1 3774:1 4255:1 4441:1 4477:1 4507:1 4602:1 5061:1 5089:1 5113:1 5960:1 7097:1 7419:1 7732:1 7745:1 7750:1 8819:1 9009:1 9010:1 9237:1 9238:1 9239:1 9240:1 9241:1 9242:1 9243:1 9244:1 9245:1 9399:1 9400:1 9401:1 9402:1 9403:1 
1 0:1 1:1 8:1 52:1 57:1 71:1 73:1 80:1 82:1 86:1 106:1 110:1 111:1 113:1 116:1 120:1 151:1 250:1 296:1 366:1 392:1 400:1 437:1 465:1 486:1 547:1 578:1 610:1 640:1 732:1 789:1 948:1 987:1 1081:1 1111:1 1122:1 1396:1 1402:1 1685:1 1810:1 2057:1 2190:1 2387:1 2860:1 3363:1 3915:1 4671:1 6325:1 6599:1 7659:1 8118:1 9197:1 9404:1 9405:1 9406:1 9407:1 9408:1 9409:1 9410:1 9411:1 9412:1 
1 0:1 10:1 13:1 16:1 22:1 39:1 45:1 51:1 54:1 56:1 61:1 75:1 80:1 82:1 83:1 84:1 86:1 110:1 111:1 126:1 131:1 155:1 190:1 221:1 321:1 340:1 342:1 376:1 400:1 484:1 486:1 490:1 510:1 550:1 562:1 593:1 601:1 604:1 730:1 941:1 1015:1 1063:1 1079:1 1089:1 1095:1 1132:1 1312:1 1336:1 1461:1 1464:1 1469:1 1471:1 1676:1 1697:1 1718:1 1726:1 1753:1 1999:1 2396:1 2480:1 2486:1 2532:1 3383:1 3412:1 3821:1 4452:1 4517:1 4698:1 4706:1 5023:1 5396:1 5629:1 5733:1 6250:1 6547:1 6903:1 8060:1 8992:1 9130:1 9132:1 9133:1 9135:1 9138:1 9140:1 9141:1 9142:1 9175:1 9177:1 9413:1 9414:1 9415:1 9416:1 
0.1311416585787233 0:1 1:1 5:1 10:1 11:1 13:1 17:1 22:1 39:1 42:1 51:1 54:1 56:1 70:1 80:1 82:1 86:1 106:1 108:1 110:1 111:1 112:1 113:1 116:1 126:1 131:1 135:1 146:1 255:1 256:1 278:1 294:1 296:1 354:1 393:1 400:1 407:1 412:1 465:1 475:1 509:1 513:1 516:1 527:1 530:1 532:1 547:1 555:1 560:1 562:1 573:1 627:1 647:1 907:1 909:1 917:1 938:1 994:1 996:1 1023:1 1053:1 1081:1 1118:1 1164:1 1243:1 1254:1 1283:1 1293:1 1328:1 1329:1 1387:1 1390:1 1394:1 1396:1 1402:1 1411:1 1455:1 1469:1 1497:1 1502:1 1518:1 1594:1 1627:1 1681:1 1685:1 1719:1 1726:1 1756:1 1774:1 1778:1 1951:1 2005:1 2024:1 2030:1 2124:1 2262:1 2318:1 2325:1 2378:1 2398:1 2405:1 2482:1 2488:1 2909:1 3120:1 3153:1 3162:1 3176:1 3213:1 3303:1 3332:1 3494:1 3575:1 3615:1 3698:1 3774:1 4319:1 4449:1 4477:1 4507:1 4574:1 4602:1 4714:1 5061:1 5089:1 5113:1 5127:1 5239:1 5294:1 5296:1 5298:1 5309:1 5310:1 5452:1 5550:1 5960:1 6492:1 6928:1 7088:1 7732:1 7745:1 7750:1 8571:1 8819:1 9009:1 9010:1 9237:1 9238:1 9239:1 9240:1 9241:1 9242:1 9243:1 9244:1 9245:1 9401:1 9402:1 9417:1 9418:1 9419:1 9420:1 9421:1 9422:1 9423:1 9424:1 9425:1 9426:1 9427:1 9428:1 9429:1 9430:1 9431:1 9432:1 9433:1 9434:1 9435:1 
1 0:1 1:1 4:1 5:1 10:1 11:1 17:1 21:1 28:1 50:1 51:1 52:1 54:1 56:1 57:1 71:1 72:1 80:1 82:1 83:1 106:1 110:1 111:1 115:1 116:1 129:1 135:1 157:1 158:1 189:1 199:1 201:1 241:1 255:1 318:1 340:1 341:1 343:1 349:1 376:1 392:1 393:1 407:1 415:1 465:1 485:1 511:1 530:1 547:1 556:1 557:1 561:1 562:1 874:1 1069:1 1336:1 1392:1 1394:1 1404:1 1469:1 1544:1 1600:1 1660:1 1793:1 2105:1 2225:1 2477:1 2511:1 2584:1 2898:1 3295:1 3425:1 3446:1 3598:1 3641:1 3768:1 3792:1 3899:1 4626:1 4807:1 4813:1 5519:1 5569:1 5770:1 5772:1 5773:1 5774:1 5776:1 5777:1 5778:1 5780:1 7885:1 8013:1 9436:1 
1 0:1 1:1 4:1 5:1 8:1 10:1 11:1 16:1 21:1 22:1 54:1 56:1 61:1 74:1 80:1 82:1 84:1 110:1 111:1 114:1 116:1 124:1 131:1 135:1 136:1 199:1 201:1 227:1 255:1 342:1 356:1 366:1 399:1 400:1 407:1 486:1 490:1 499:1 513:1 516:1 547:1 556:1 595:1 596:1 673:1 728:1 860:1 907:1 935:1 938:1 940:1 962:1 1031:1 1078:1 1095:1 1322:1 1328:1 1404:1 1469:1 1527:1 1548:1 1577:1 1588:1 1589:1 1718:1 1735:1 1739:1 1746:1 1810:1 1842:1 1852:1 1876:1 1877:1 1901:1 1912:1 1941:1 1943:1 2072:1 2129:1 2472:1 2704:1 2737:1 2758:1 3057:1 3084:1 3124:1 3390:1 3575:1 3657:1 3978:1 4081:1 4369:1 4614:1 4734:1 5978:1 6156:1 6226:1 6233:1 6240:1 6242:1 6252:1 6270:1 6275:1 6276:1 6278:1 7582:1 8082:1 8299:1 8759:1 9405:1 9446:1 9447:1 9448:1 9449:1 9450:1 9451:1 9452:1 9453:1 9454:1 9455:1 9456:1 9457:1 9458:1 9459:1 9460:1 9461:1 
1 0:1 5:1 6:1 8:1 16:1 39:1 51:1 52:1 57:1 64:1 67:1 74:1 80:1 83:1 106:1 110:1 111:1 116:1 126:1 127:1 129:1 135:1 144:1 146:1 147:1 148:1 151:1 249:1 263:1 275:1 278:1 294:1 307:1 358:1 382:1 400:1 415:1 499:1 509:1 512:1 527:1 532:1 540:1 547:1 553:1 556:1 561:1 582:1 595:1 768:1 788:1 869:1 995:1 1031:1 1055:1 1244:1 1329:1 1343:1 1386:1 1390:1 1478:1 1589:1 1753:1 1767:1 1847:1 2056:1 2213:1 2262:1 2263:1 2321:1 2364:1 2456:1 2480:1 2508:1 2627:1 2721:1 2794:1 2805:1 2841:1 2871:1 2963:1 2996:1 3143:1 3173:1 3224:1 3272:1 3320:1 3430:1 3627:1 3686:1 3851:1 3970:1 4442:1 4466:1 4746:1 4810:1 5396:1 5410:1 5580:1 5856:1 6337:1 6341:1 6447:1 6559:1 6803:1 7104:1 7210:1 7332:1 7582:1 7761:1 7772:1 8068:1 9131:1 9136:1 9137:1 9139:1 9462:1 9463:1 9464:1 9465:1 9466:1 9467:1 9468:1 9469:1 9470:1 9471:1 9472:1 9473:1 9474:1 9475:1 9476:1 9477:1 9478:1 9479:1 
1 0:1 4:1 5:1 10:1 11:1 21:1 28:1 39:1 42:1 47:1 51:1 52:1 54:1 56:1 71:1 80:1 86:1 87:1 106:1 110:1 111:1 113:1 129:1 131:1 155:1 157:1 158:1 189:1 199:1 201:1 241:1 243:1 255:1 314:1 318:1 321:1 341:1 372:1 375:1 376:1 392:1 393:1 465:1 484:1 511:1 513:1 516:1 547:1 556:1 557:1 561:1 610:1 615:1 650:1 819:1 1034:1 1283:1 1342:1 1392:1 1394:1 1404:1 1469:1 1518:1 1527:1 1698:1 1793:1 2026:1 2105:1 2225:1 2231:1 2290:1 2477:1 2511:1 2564:1 2568:1 2584:1 2909:1 3181:1 3270:1 3295:1 3425:1 3514:1 3582:1 3768:1 3791:1 3857:1 4457:1 4708:1 4733:1 4956:1 5569:1 5584:1 5770:1 5772:1 5773:1 5774:1 5776:1 5777:1 5778:1 5780:1 5974:1 6318:1 6363:1 6814:1 7416:1 8135:1 8523:1 8944:1 8948:1 8958:1 8959:1 8960:1 8961:1 8962:1 8963:1 8964:1 8965:1 8967:1 8972:1 8980:1 9557:1 9558:1 9559:1 9560:1 9561:1 
1 0:1 5:1 11:1 39:1 51:1 70:1 79:1 80:1 82:1 85:1 111:1 116:1 139:1 154:1 155:1 201:1 321:1 376:1 392:1 433:1 465:1 466:1 484:1 516:1 550:1 565:1 601:1 860:1 963:1 1029:1 1096:1 1336:1 1428:1 1467:1 1574:1 1776:1 2057:1 2074:1 2091:1 2105:1 2350:1 2707:1 3231:1 3449:1 4625:1 5074:1 5720:1 5723:1 5971:1 6066:1 7396:1 7703:1 9563:1 9564:1 9565:1 9566:1 9567:1 9568:1 9569:1 9570:1 
1 82:1 111:1 190:1 205:1 312:1 2946:1 3062:1 4427:1 5745:1 6458:1 9571:1 9572:1 
1 0:1 10:1 16:1 22:1 33:1 51:1 54:1 57:1 67:1 80:1 81:1 87:1 106:1 111:1 115:1 116:1 122:1 124:1 126:1 127:1 129:1 131:1 199:1 256:1 321:1 357:1 374:1 399:1 400:1 465:1 509:1 512:1 518:1 527:1 547:1 552:1 556:1 1031:1 1327:1 1469:1 1588:1 1589:1 1670:1 1698:1 2026:1 2073:1 2132:1 2455:1 2477:1 2692:1 2738:1 2947:1 3177:1 3332:1 3360:1 3395:1 3548:1 3792:1 3895:1 4107:1 4268:1 4512:1 4762:1 5073:1 5659:1 5799:1 6004:1 6318:1 6325:1 7254:1 8969:1 9143:1 9165:1 9168:1 9171:1 9172:1 9178:1 9184:1 9189:1 9573:1 9574:1 9575:1 
1 0:1 5:1 8:1 13:1 16:1 19:1 39:1 42:1 52:1 54:1 56:1 57:1 58:1 61:1 73:1 80:1 82:1 87:1 110:1 111:1 112:1 113:1 116:1 124:1 126:1 129:1 135:1 138:1 151:1 174:1 189:1 199:1 232:1 235:1 243:1 255:1 279:1 296:1 304:1 319:1 321:1 330:1 372:1 391:1 400:1 409:1 511:1 513:1 516:1 530:1 532:1 533:1 550:1 552:1 557:1 606:1 980:1 1095:1 1136:1 1140:1 1398:1 1402:1 1411:1 1414:1 1436:1 1461:1 1554:1 1577:1 1588:1 1793:1 1870:1 1928:1 2026:1 2083:1 2116:1 2262:1 2356:1 2477:1 2480:1 2587:1 2863:1 2895:1 2909:1 3044:1 3157:1 3273:1 3412:1 3475:1 3656:1 3773:1 3795:1 3803:1 3872:1 4511:1 4675:1 4792:1 5494:1 5538:1 6056:1 6846:1 7306:1 7989:1 9398:1 9433:1 9576:1 9577:1 9578:1 9579:1 
1 10:1 28:1 51:1 54:1 58:1 80:1 110:1 111:1 122:1 131:1 135:1 136:1 307:1 321:1 335:1 407:1 465:1 557:1 565:1 595:1 650:1 891:1 931:1 1189:1 1394:1 1469:1 1583:1 1589:1 1756:1 2311:1 2313:1 2564:1 3488:1 4156:1 5293:1 5294:1 5296:1 5297:1 5298:1 5299:1 5302:1 5303:1 5304:1 5305:1 5307:1 5308:1 5309:1 5310:1 5311:1 5312:1 5315:1 5316:1 5318:1 5319:1 5577:1 5997:1 9298:1 9598:1 9599:1 9600:1 9601:1 9602:1 
1 0:1 5:1 10:1 13:1 28:1 42:1 47:1 50:1 51:1 54:1 57:1 80:1 82:1 83:1 106:1 109:1 110:1 111:1 112:1 116:1 131:1 135:1 199:1 201:1 241:1 249:1 259:1 284:1 307:1 342:1 447:1 486:1 487:1 509:1 511:1 534:1 547:1 549:1 550:1 558:1 561:1 562:1 576:1 593:1 635:1 881:1 931:1 940:1 948:1 1020:1 1023:1 1037:1 1244:1 1255:1 1319:1 1378:1 1464:1 1469:1 1471:1 1544:1 1588:1 1589:1 1676:1 1726:1 1784:1 1793:1 2168:1 2292:1 2325:1 2477:1 2531:1 2867:1 2939:1 3092:1 3821:1 4004:1 4106:1 4517:1 4698:1 4706:1 5088:1 5979:1 6250:1 7327:1 8060:1 9175:1 9177:1 9188:1 9603:1 9604:1 9605:1 9606:1 9607:1 9608:1 9609:1 9610:1 9611:1 9612:1 9613:1 9614:1 9615:1 9616:1 9617:1 9618:1 9619:1 9620:1 9621:1 9622:1 
1 0:1 5:1 8:1 11:1 16:1 39:1 51:1 54:1 56:1 57:1 67:1 70:1 80:1 110:1 111:1 112:1 116:1 126:1 129:1 131:1 135:1 136:1 146:1 199:1 232:1 234:1 249:1 307:1 335:1 358:1 400:1 465:1 513:1 527:1 532:1 582:1 601:1 618:1 625:1 626:1 768:1 793:1 940:1 941:1 994:1 995:1 1109:1 1183:1 1329:1 1343:1 1390:1 1453:1 1467:1 1469:1 1518:1 1694:1 1936:1 1983:1 2056:1 2163:1 2364:1 2621:1 2653:1 2871:1 2942:1 2967:1 2972:1 3143:1 3320:1 3686:1 3851:1 3970:1 4258:1 4467:1 4746:1 4781:1 4810:1 5733:1 5764:1 5918:1 6743:1 6789:1 6851:1 7875:1 8453:1 9131:1 9134:1 9139:1 9141:1 9142:1 9414:1 9661:1 9662:1 9663:1 9664:1 
1 0:1 3:1 4:1 5:1 8:1 10:1 13:1 16:1 19:1 22:1 28:1 39:1 47:1 54:1 56:1 57:1 73:1 80:1 83:1 84:1 107:1 109:1 110:1 111:1 116:1 131:1 135:1 151:1 234:1 241:1 245:1 275:1 304:1 321:1 366:1 386:1 399:1 400:1 412:1 465:1 469:1 509:1 516:1 547:1 550:1 561:1 563:1 565:1 595:1 626:1 627:1 899:1 935:1 996:1 1105:1 1154:1 1428:1 1467:1 1480:1 1589:1 1735:1 1745:1 1862:1 1885:1 1917:1 1940:1 1999:1 2026:1 2389:1 2466:1 2518:1 2667:1 2676:1 2822:1 2894:1 2919:1 2946:1 2965:1 3145:1 3657:1 3725:1 3928:1 4480:1 4580:1 4704:1 4810:1 4976:1 5180:1 5713:1 5746:1 7098:1 8104:1 8244:1 8503:1 9047:1 9597:1 9708:1 9709:1 9710:1 9711:1 9712:1 9713:1 9714:1 9715:1 9716:1 9717:1 9718:1 9719:1 9720:1 9721:1 9722:1 9723:1 9724:1 9725:1 9726:1 9727:1 9728:1 9729:1 9730:1 9731:1 9732:1 9733:1 9734:1 9735:1 
1 0:1 5:1 8:1 10:1 13:1 16:1 19:1 39:1 42:1 52:1 54:1 56:1 57:1 58:1 61:1 73:1 80:1 82:1 87:1 110:1 111:1 112:1 113:1 116:1 124:1 126:1 129:1 131:1 135:1 138:1 151:1 174:1 189:1 199:1 232:1 235:1 243:1 249:1 255:1 279:1 296:1 304:1 319:1 321:1 330:1 353:1 372:1 391:1 400:1 409:1 490:1 511:1 513:1 516:1 530:1 532:1 533:1 550:1 552:1 557:1 606:1 673:1 980:1 1095:1 1136:1 1140:1 1398:1 1402:1 1411:1 1414:1 1436:1 1461:1 1469:1 1554:1 1577:1 1588:1 1793:1 1810:1 1870:1 1928:1 1983:1 2026:1 2083:1 2116:1 2262:1 2356:1 2477:1 2480:1 2564:1 2587:1 2852:1 2863:1 2895:1 2909:1 3044:1 3157:1 3273:1 3412:1 3475:1 3615:1 3656:1 3773:1 3795:1 3803:1 3821:1 3872:1 4511:1 4675:1 4792:1 5494:1 5538:1 6056:1 6250:1 6312:1 6846:1 7306:1 7989:1 8060:1 9034:1 9398:1 9433:1 9576:1 9577:1 9578:1 9579:1 9623:1 9624:1 9626:1 
1 0:1 1:1 4:1 5:1 6:1 11:1 16:1 21:1 39:1 42:1 45:1 51:1 52:1 54:1 56:1 57:1 61:1 73:1 80:1 82:1 84:1 87:1 106:1 108:1 111:1 116:1 124:1 127:1 128:1 129:1 136:1 155:1 189:1 214:1 241:1 258:1 263:1 278:1 296:1 321:1 368:1 374:1 391:1 400:1 407:1 410:1 494:1 499:1 509:1 511:1 513:1 533:1 550:1 560:1 565:1 573:1 609:1 610:1 637:1 658:1 770:1 837:1 855:1 938:1 948:1 1089:1 1095:1 1104:1 1122:1 1154:1 1164:1 1177:1 1244:1 1265:1 1284:1 1327:1 1370:1 1387:1 1388:1 1392:1 1394:1 1480:1 1550:1 1584:1 1588:1 1589:1 1654:1 1670:1 1685:1 1694:1 1697:1 1868:1 1871:1 1910:1 2026:1 2057:1 2082:1 2116:1 2447:1 2670:1 2692:1 2733:1 2888:1 3026:1 3097:1 3224:1 3395:1 3407:1 3443:1 3654:1 3756:1 3968:1 4220:1 4505:1 4597:1 4751:1 4846:1 4976:1 5048:1 5053:1 5142:1 6337:1 6851:1 7103:1 7433:1 7582:1 7760:1 8485:1 8909:1 8996:1 9748:1 9749:1 9750:1 9751:1 9752:1 9753:1 
1 0:1 5:1 6:1 21:1 39:1 45:1 51:1 54:1 80:1 84:1 89:1 90:1 106:1 110:1 111:1 116:1 135:1 147:1 181:1 221:1 294:1 297:1 319:1 321:1 339:1 343:1 400:1 407:1 465:1 478:1 513:1 516:1 527:1 547:1 552:1 556:1 557:1 563:1 652:1 673:1 734:1 750:1 768:1 922:1 941:1 1062:1 1209:1 1258:1 1273:1 1312:1 1325:1 1390:1 1401:1 1415:1 1440:1 1453:1 1469:1 1480:1 1502:1 1653:1 1838:1 2026:1 2105:1 2414:1 2822:1 2996:1 3073:1 3149:1 3194:1 3295:1 3584:1 3825:1 3860:1 3929:1 3952:1 4086:1 4107:1 4263:1 4467:1 4675:1 4822:1 4996:1 5298:1 6002:1 6018:1 6021:1 6025:1 6169:1 6362:1 6379:1 6627:1 6657:1 6661:1 6763:1 7118:1 7774:1 8993:1 9066:1 9148:1 9375:1 9383:1 9754:1 9755:1 9756:1 9757:1 9758:1 9759:1 9760:1 9761:1 
1 0:1 5:1 11:1 39:1 51:1 54:1 57:1 71:1 82:1 111:1 116:1 131:1 136:1 155:1 190:1 193:1 365:1 392:1 399:1 465:1 509:1 513:1 530:1 560:1 572:1 640:1 683:1 917:1 989:1 1244:1 1284:1 1359:1 1404:1 1443:1 1469:1 1479:1 1571:1 1589:1 1653:1 1685:1 1767:1 2069:1 2134:1 2355:1 2377:1 2501:1 2564:1 2588:1 2603:1 2668:1 2953:1 3436:1 3459:1 3734:1 4244:1 4471:1 4483:1 4489:1 4629:1 4640:1 6196:1 6433:1 6533:1 6669:1 6874:1 7159:1 7484:1 9034:1 9505:1 9762:1 9763:1 9764:1 9765:1 9766:1 9767:1 9768:1 9769:1 9770:1 9771:1 9772:1 9773:1 
1 0:1 4:1 5:1 10:1 16:1 22:1 28:1 33:1 39:1 52:1 54:1 55:1 56:1 57:1 80:1 84:1 106:1 110:1 111:1 113:1 116:1 126:1 129:1 131:1 133:1 151:1 158:1 183:1 202:1 214:1 255:1 256:1 307:1 312:1 313:1 321:1 339:1 392:1 487:1 509:1 513:1 514:1 516:1 530:1 556:1 562:1 593:1 595:1 610:1 633:1 647:1 652:1 695:1 745:1 749:1 941:1 1008:1 1023:1 1081:1 1095:1 1277:1 1278:1 1341:1 1404:1 1469:1 1477:1 1482:1 1588:1 1598:1 1653:1 1698:1 1735:1 1745:1 1804:1 1851:1 1859:1 1901:1 1918:1 2378:1 2411:1 2417:1 2443:1 2654:1 3231:1 3266:1 3364:1 3439:1 3512:1 3565:1 3759:1 4166:1 4171:1 4181:1 4233:1 4346:1 4347:1 4348:1 4478:1 4589:1 4877:1 4988:1 4993:1 4994:1 5006:1 5008:1 5037:1 5597:1 5833:1 6018:1 6021:1 6022:1 6025:1 6231:1 6402:1 6609:1 7137:1 7750:1 7757:1 7863:1 8068:1 8195:1 8398:1 8470:1 9776:1 9777:1 9779:1 9780:1 9781:1 9782:1 9784:1 9785:1 9786:1 9787:1 9788:1 9789:1 9790:1 9791:1 9792:1 9793:1 9794:1 9795:1 9796:1 9797:1 9798:1 
1 1:1 4:1 8:1 10:1 22:1 28:1 33:1 39:1 54:1 55:1 71:1 80:1 84:1 108:1 111:1 116:1 131:1 135:1 183:1 261:1 262:1 312:1 399:1 514:1 516:1 530:1 557:1 562:1 565:1 587:1 595:1 615:1 633:1 634:1 745:1 872:1 1005:1 1081:1 1091:1 1095:1 1272:1 1278:1 1469:1 1482:1 1735:1 1859:1 1901:1 1918:1 2132:1 2417:1 2443:1 3127:1 3512:1 3549:1 3759:1 4166:1 4371:1 4406:1 4563:1 4604:1 4877:1 4988:1 4993:1 4994:1 5003:1 5006:1 5008:1 5833:1 6231:1 7750:1 7757:1 9776:1 9777:1 9779:1 9780:1 9781:1 9782:1 9784:1 9785:1 
1 0:1 1:1 5:1 8:1 16:1 17:1 21:1 39:1 51:1 52:1 54:1 56:1 57:1 80:1 84:1 86:1 87:1 90:1 106:1 109:1 110:1 111:1 113:1 116:1 117:1 129:1 132:1 135:1 151:1 155:1 182:1 253:1 256:1 278:1 312:1 313:1 321:1 333:1 358:1 366:1 392:1 399:1 400:1 407:1 437:1 465:1 466:1 480:1 509:1 512:1 513:1 516:1 534:1 547:1 549:1 552:1 557:1 559:1 562:1 565:1 618:1 700:1 760:1 793:1 922:1 1096:1 1111:1 1136:1 1194:1 1212:1 1254:1 1255:1 1259:1 1370:1 1424:1 1574:1 1600:1 1612:1 1613:1 1689:1 1870:1 1981:1 2009:1 2026:1 2312:1 2456:1 2502:1 2506:1 2576:1 2656:1 2948:1 3189:1 3474:1 3542:1 3662:1 3671:1 3815:1 4062:1 4231:1 4259:1 4295:1 4309:1 4738:1 5423:1 5426:1 5432:1 5433:1 5568:1 6132:1 6181:1 6182:1 6183:1 6184:1 6185:1 6186:1 6187:1 6188:1 6189:1 6190:1 7709:1 9889:1 9890:1 
1 0:1 5:1 10:1 11:1 13:1 15:1 16:1 22:1 51:1 54:1 56:1 57:1 71:1 80:1 82:1 86:1 110:1 111:1 112:1 116:1 124:1 127:1 131:1 135:1 144:1 146:1 234:1 241:1 249:1 253:1 255:1 307:1 343:1 376:1 392:1 399:1 400:1 465:1 502:1 509:1 512:1 513:1 547:1 552:1 555:1 556:1 557:1 618:1 625:1 629:1 637:1 645:1 695:1 760:1 917:1 922:1 1031:1 1042:1 1052:1 1105:1 1254:1 1370:1 1396:1 1402:1 1469:1 1527:1 1706:1 1919:1 2073:1 2404:1 2455:1 2668:1 2721:1 3173:1 3445:1 3542:1 4154:1 5174:1 5799:1 5911:1 6474:1 6484:1 6842:1 6950:1 8063:1 8205:1 8240:1 9143:1 9147:1 9156:1 9158:1 9166:1 9168:1 9172:1 9183:1 9189:1 9891:1 9892:1 9893:1 9894:1 9895:1 9896:1 9897:1 9898:1 9899:1 9900:1 9901:1 9902:1 9903:1 9904:1 9905:1 9906:1 
1 0:1 4:1 5:1 10:1 28:1 39:1 51:1 52:1 54:1 57:1 80:1 83:1 85:1 110:1 111:1 116:1 124:1 131:1 199:1 256:1 278:1 307:1 326:1 343:1 399:1 400:1 465:1 511:1 547:1 556:1 562:1 618:1 696:1 723:1 756:1 897:1 938:1 1018:1 1102:1 1374:1 1671:1 2477:1 2480:1 2506:1 2538:1 2564:1 2770:1 2947:1 3493:1 3674:1 4025:1 4271:1 4282:1 4453:1 4578:1 5174:1 6179:1 6341:1 6410:1 8696:1 9907:1 9908:1 9909:1 
1 4:1 5:1 8:1 10:1 16:1 39:1 51:1 52:1 54:1 75:1 80:1 84:1 106:1 110:1 111:1 116:1 131:1 135:1 151:1 154:1 256:1 258:1 279:1 321:1 326:1 337:1 388:1 516:1 562:1 565:1 650:1 683:1 684:1 936:1 941:1 989:1 1111:1 1118:1 1266:1 1342:1 1437:1 1461:1 1479:1 1489:1 1564:1 1753:1 1893:1 2069:1 2080:1 2105:1 2307:1 2541:1 2544:1 2822:1 3365:1 3380:1 3388:1 3943:1 3988:1 4483:1 4489:1 6332:1 6478:1 7797:1 8127:1 8151:1 8402:1 8692:1 9505:1 9910:1 9911:1 9912:1 9913:1 9914:1 
1 0:1 4:1 5:1 19:1 51:1 54:1 56:1 57:1 58:1 72:1 73:1 80:1 82:1 87:1 101:1 110:1 111:1 112:1 113:1 116:1 126:1 129:1 132:1 151:1 189:1 199:1 232:1 243:1 255:1 296:1 354:1 358:1 400:1 509:1 511:1 513:1 516:1 530:1 532:1 534:1 549:1 552:1 616:1 1370:1 1390:1 1398:1 1402:1 1411:1 1436:1 1461:1 1469:1 1506:1 1706:1 2083:1 2477:1 2480:1 2498:1 2506:1 2587:1 2752:1 2948:1 2963:1 3273:1 3412:1 3475:1 3575:1 3735:1 3803:1 3872:1 4154:1 4511:1 4675:1 5174:1 5494:1 5666:1 6312:1 6341:1 6846:1 7306:1 7854:1 8060:1 8663:1 8692:1 9577:1 9579:1 9623:1 9626:1 9947:1 
1 0:1 5:1 10:1 11:1 21:1 28:1 39:1 41:1 45:1 51:1 54:1 56:1 57:1 60:1 64:1 73:1 80:1 82:1 83:1 85:1 91:1 109:1 110:1 111:1 112:1 116:1 126:1 129:1 131:1 147:1 153:1 160:1 189:1 305:1 321:1 374:1 386:1 480:1 484:1 510:1 513:1 540:1 545:1 547:1 552:1 560:1 562:1 573:1 605:1 625:1 822:1 883:1 917:1 936:1 941:1 1027:1 1185:1 1359:1 1382:1 1425:1 1450:1 1469:1 1661:1 1697:1 1931:1 2092:1 2231:1 2254:1 2311:1 2364:1 2562:1 2564:1 2588:1 2642:1 2721:1 2834:1 2894:1 2903:1 2909:1 2989:1 3186:1 3420:1 3490:1 3552:1 3558:1 3599:1 4132:1 4505:1 5088:1 5659:1 6179:1 6318:1 6382:1 8665:1 8691:1 8985:1 8990:1 8991:1 8992:1 8993:1 8996:1 9235:1 9988:1 9989:1 9990:1 9991:1 9992:1 9993:1 9994:1 9995:1 9996:1 9997:1 
1 0:1 1:1 5:1 21:1 47:1 50:1 51:1 54:1 57:1 67:1 71:1 74:1 80:1 84:1 89:1 106:1 107:1 111:1 116:1 124:1 131:1 135:1 151:1 249:1 307:1 313:1 399:1 465:1 513:1 514:1 516:1 517:1 532:1 549:1 558:1 618:1 634:1 855:1 948:1 1225:1 1328:1 1461:1 1469:1 1509:1 1568:1 1653:1 1667:1 1680:1 1868:1 2116:1 2564:1 2576:1 2859:1 3149:1 3365:1 3792:1 3968:1 4455:1 4708:1 5487:1 5503:1 5509:1 5533:1 5536:1 5784:1 6804:1 6846:1 6874:1 7755:1 8173:1 9224:1 9376:1 9764:1 9765:1 9766:1 9998:1 9999:1 10000:1 10001:1 10002:1 10003:1 10004:1 10005:1 
1 0:1 5:1 6:1 10:1 11:1 13:1 16:1 28:1 39:1 51:1 52:1 54:1 57:1 80:1 82:1 84:1 85:1 110:1 111:1 116:1 126:1 129:1 131:1 135:1 138:1 146:1 194:1 249:1 286:1 294:1 296:1 316:1 335:1 366:1 376:1 392:1 400:1 465:1 513:1 516:1 547:1 694:1 723:1 745:1 855:1 870:1 941:1 996:1 1164:1 1286:1 1288:1 1293:1 1376:1 1390:1 1411:1 1518:1 1527:1 1594:1 1646:1 1647:1 1658:1 1664:1 1670:1 1678:1 1679:1 1681:1 1684:1 1778:1 1862:1 2531:1 2651:1 2874:1 2940:1 2980:1 2988:1 3120:1 3173:1 3445:1 3456:1 3593:1 3774:1 4100:1 4282:1 4602:1 4671:1 4693:1 4812:1 5558:1 5831:1 6362:1 6437:1 8190:1 8193:1 8701:1 8970:1 9155:1 9508:1 9519:1 9580:1 9693:1 9706:1 10006:1 10007:1 10008:1 10009:1 10010:1 10011:1 
0.5937336612383899 0:1 5:1 8:1 10:1 11:1 21:1 22:1 28:1 39:1 42:1 47:1 50:1 51:1 52:1 54:1 57:1 69:1 71:1 82:1 84:1 87:1 106:1 107:1 110:1 111:1 112:1 116:1 126:1 131:1 135:1 199:1 201:1 243:1 256:1 265:1 278:1 294:1 312:1 316:1 343:1 354:1 392:1 400:1 412:1 486:1 509:1 511:1 512:1 513:1 516:1 547:1 561:1 610:1 652:1 723:1 769:1 938:1 948:1 996:1 1255:1 1288:1 1312:1 1370:1 1376:1 1377:1 1382:1 1396:1 1469:1 1495:1 1594:1 1627:1 1646:1 1647:1 1658:1 1664:1 1670:1 1671:1 1678:1 1679:1 1681:1 1684:1 1719:1 1766:1 2083:1 2325:1 2367:1 2418:1 2591:1 2618:1 2650:1 2668:1 2736:1 2962:1 3027:1 3092:1 3206:1 3363:1 3383:1 3495:1 3821:1 3871:1 3884:1 3960:1 3966:1 4092:1 4734:1 5106:1 5372:1 5733:1 5781:1 6325:1 7095:1 7352:1 7416:1 7929:1 8571:1 8928:1 9431:1 9432:1 9434:1 10012:1 10013:1 10014:1 10015:1 10016:1 10017:1 10018:1 10019:1 10020:1 10021:1 10022:1 10023:1 10024:1 
1 1:1 5:1 8:1 16:1 42:1 47:1 51:1 52:1 54:1 57:1 61:1 71:1 80:1 84:1 110:1 111:1 116:1 126:1 131:1 135:1 136:1 199:1 307:1 313:1 321:1 357:1 377:1 400:1 438:1 465:1 486:1 511:1 516:1 530:1 547:1 550:1 561:1 565:1 572:1 595:1 734:1 1031:1 1118:1 1255:1 1298:1 1407:1 1469:1 1531:1 1574:1 1589:1 1609:1 1653:1 1767:1 2057:1 2419:1 2500:1 2564:1 2752:1 2901:1 3194:1 3341:1 3363:1 3575:1 3777:1 3862:1 4319:1 4556:1 4774:1 4807:1 4980:1 5093:1 6874:1 6911:1 7063:1 7075:1 7081:1 7630:1 7672:1 7674:1 8163:1 8955:1 8956:1 8968:1 8973:1 8974:1 9281:1 9372:1 9764:1 9765:1 9766:1 10025:1 10026:1 10027:1 10028:1 10029:1 
1 5:1 10:1 15:1 54:1 97:1 131:1 353:1 1469:1 2564:1 2755:1 3791:1 3821:1 6250:1 6312:1 8060:1 9623:1 9624:1 9626:1 
1 0:1 28:1 39:1 52:1 56:1 71:1 80:1 111:1 135:1 201:1 573:1 612:1 1404:1 1660:1 1730:1 1776:1 1983:1 2057:1 2290:1 4905:1 5728:1 6191:1 9813:1 10040:1 10041:1 
