svm_type c_svc
kernel_type polynomial
degree 2
gamma 0.1
coef0 0.5
nr_class 2
total_sv 775
rho 0.21070899532046333
label 0 1
nr_sv 380 395
SV
0.002289374349176275 0:1.0 1:1.0 2:1.0 3:1.0 4:1.0 5:1.0 6:1.0 7:1.0 8:1.0 9:1.0 10:1.0 11:1.0 12:1.0 13:1.0 14:1.0 15:1.0 16:1.0 17:1.0 18:1.0 19:1.0 20:1.0 21:1.0 22:1.0 23:1.0 24:1.0 25:1.0 26:1.0 27:1.0 28:1.0 29:1.0 30:1.0 31:1.0 32:1.0 33:1.0 34:1.0 35:1.0 36:1.0 37:1.0 38:1.0 39:1.0 40:1.0 41:1.0 42:1.0 43:1.0 44:1.0 45:1.0 46:1.0 47:1.0 48:1.0 49:1.0 50:1.0 51:1.0 52:1.0 53:1.0 54:1.0 55:1.0 56:1.0 57:1.0 58:1.0 59:1.0 60:1.0 61:1.0 62:1.0 63:1.0 64:1.0 65:1.0 66:1.0 67:1.0 68:1.0 69:1.0 70:1.0 71:1.0 72:1.0 73:1.0 74:1.0 75:1.0 76:1.0 77:1.0 78:1.0 79:1.0 80:1.0 81:1.0 82:1.0 83:1.0 84:1.0 85:1.0 86:1.0 87:1.0 88:1.0 89:1.0 90:1.0 91:1.0 92:1.0 93:1.0 94:1.0 95:1.0 96:1.0 97:1.0 98:1.0 99:1.0 100:1.0 101:1.0 102:1.0 103:1.0 104:1.0 105:1.0 106:1.0 107:1.0 108:1.0 109:1.0 110:1.0 111:1.0 112:1.0 113:1.0 114:1.0 115:1.0 116:1.0 117:1.0 118:1.0 119:1.0 120:1.0 121:1.0 122:1.0 123:1.0 124:1.0 125:1.0 126:1.0 127:1.0 128:1.0 129:1.0 130:1.0 131:1.0 132:1.0 133:1.0 134:1.0 135:1.0 136:1.0 
0.026278274244310073 0:1.0 8:1.0 11:1.0 21:1.0 54:1.0 87:1.0 110:1.0 111:1.0 112:1.0 126:1.0 131:1.0 157:1.0 206:1.0 275:1.0 279:1.0 312:1.0 342:1.0 400:1.0 484:1.0 499:1.0 512:1.0 565:1.0 569:1.0 609:1.0 672:1.0 936:1.0 1081:1.0 1108:1.0 1189:1.0 1460:1.0 1463:1.0 1464:1.0 1465:1.0 1466:1.0 1467:1.0 1468:1.0 1469:1.0 1470:1.0 1471:1.0 1472:1.0 1473:1.0 1474:1.0 1475:1.0 1476:1.0 1477:1.0 1478:1.0 1479:1.0 1480:1.0 1481:1.0 1482:1.0 1483:1.0 1484:1.0 
0.19185963551641042 0:1.0 5:1.0 16:1.0 54:1.0 111:1.0 116:1.0 126:1.0 129:1.0 342:1.0 1283:1.0 1455:1.0 1476:1.0 1507:1.0 1508:1.0 1509:1.0 1510:1.0 1511:1.0 1512:1.0 1513:1.0 
0.002677622995814188 0:1.0 1:1.0 5:1.0 6:1.0 8:1.0 10:1.0 11:1.0 13:1.0 21:1.0 22:1.0 28:1.0 37:1.0 39:1.0 50:1.0 51:1.0 52:1.0 54:1.0 56:1.0 57:1.0 70:1.0 78:1.0 80:1.0 82:1.0 83:1.0 84:1.0 87:1.0 106:1.0 107:1.0 110:1.0 111:1.0 112:1.0 116:1.0 122:1.0 124:1.0 127:1.0 131:1.0 135:1.0 136:1.0 150:1.0 151:1.0 174:1.0 193:1.0 199:1.0 201:1.0 255:1.0 256:1.0 278:1.0 307:1.0 312:1.0 321:1.0 343:1.0 358:1.0 366:1.0 374:1.0 386:1.0 400:1.0 413:1.0 465:1.0 466:1.0 509:1.0 510:1.0 511:1.0 512:1.0 513:1.0 514:1.0 516:1.0 523:1.0 525:1.0 540:1.0 549:1.0 555:1.0 557:1.0 560:1.0 561:1.0 562:1.0 563:1.0 565:1.0 586:1.0 624:1.0 625:1.0 629:1.0 634:1.0 652:1.0 807:1.0 899:1.0 935:1.0 937:1.0 946:1.0 994:1.0 1042:1.0 1043:1.0 1081:1.0 1111:1.0 1194:1.0 1200:1.0 1226:1.0 1228:1.0 1244:1.0 1306:1.0 1329:1.0 1370:1.0 1415:1.0 1469:1.0 1478:1.0 1514:1.0 1515:1.0 1516:1.0 1517:1.0 1518:1.0 1519:1.0 1520:1.0 1521:1.0 1522:1.0 1523:1.0 1524:1.0 1525:1.0 1526:1.0 1527:1.0 1528:1.0 1529:1.0 1530:1.0 1531:1.0 1532:1.0 1533:1.0 1534:1.0 1535:1.0 1536:1.0 1537:1.0 1538:1.0 1539:1.0 1540:1.0 1541:1.0 1542:1.0 1543:1.0 1544:1.0 1545:1.0 1546:1.0 1547:1.0 1548:1.0 1549:1.0 1550:1.0 1551:1.0 1552:1.0 1553:1.0 1554:1.0 1555:1.0 1556:1.0 1557:1.0 1558:1.0 1559:1.0 1560:1.0 1561:1.0 1562:1.0 1563:1.0 1564:1.0 1565:1.0 1566:1.0 1567:1.0 1568:1.0 1569:1.0 1570:1.0 1571:1.0 1572:1.0 1573:1.0 1574:1.0 1575:1.0 1576:1.0 1577:1.0 1578:1.0 1579:1.0 1580:1.0 1581:1.0 1582:1.0 1583:1.0 1584:1.0 1585:1.0 1586:1.0 1587:1.0 1588:1.0 1589:1.0 1590:1.0 1591:1.0 1592:1.0 1593:1.0 1594:1.0 1595:1.0 1596:1.0 1597:1.0 1598:1.0 1599:1.0 1600:1.0 1601:1.0 1602:1.0 1603:1.0 1604:1.0 1605:1.0 1606:1.0 1607:1.0 1608:1.0 1609:1.0 1610:1.0 
0.0020085728548080565 0:1.0 1:1.0 5:1.0 10:1.0 17:1.0 22:1.0 28:1.0 33:1.0 39:1.0 51:1.0 52:1.0 54:1.0 56:1.0 57:1.0 67:1.0 73:1.0 80:1.0 82:1.0 84:1.0 86:1.0 90:1.0 106:1.0 109:1.0 110:1.0 111:1.0 116:1.0 121:1.0 129:1.0 131:1.0 135:1.0 136:1.0 151:1.0 155:1.0 279:1.0 283:1.0 307:1.0 313:1.0 326:1.0 377:1.0 392:1.0 399:1.0 400:1.0 412:1.0 413:1.0 465:1.0 484:1.0 486:1.0 502:1.0 509:1.0 511:1.0 514:1.0 530:1.0 533:1.0 549:1.0 561:1.0 562:1.0 565:1.0 593:1.0 645:1.0 676:1.0 723:1.0 768:1.0 855:1.0 860:1.0 923:1.0 925:1.0 935:1.0 1023:1.0 1189:1.0 1255:1.0 1288:1.0 1336:1.0 1376:1.0 1465:1.0 1469:1.0 1568:1.0 1574:1.0 1575:1.0 1580:1.0 1583:1.0 1594:1.0 1602:1.0 1643:1.0 1644:1.0 1645:1.0 1646:1.0 1647:1.0 1648:1.0 1649:1.0 1650:1.0 1651:1.0 1652:1.0 1653:1.0 1654:1.0 1655:1.0 1656:1.0 1657:1.0 1658:1.0 1659:1.0 1660:1.0 1661:1.0 1662:1.0 1663:1.0 1664:1.0 1665:1.0 1666:1.0 1667:1.0 1668:1.0 1669:1.0 1670:1.0 1671:1.0 1672:1.0 1673:1.0 1674:1.0 1675:1.0 1676:1.0 1677:1.0 1678:1.0 1679:1.0 1680:1.0 1681:1.0 1682:1.0 1683:1.0 1684:1.0 1685:1.0 1686:1.0 
0.004588976513231966 0:1.0 5:1.0 10:1.0 16:1.0 17:1.0 39:1.0 42:1.0 54:1.0 67:1.0 80:1.0 82:1.0 83:1.0 85:1.0 110:1.0 111:1.0 116:1.0 131:1.0 135:1.0 261:1.0 300:1.0 312:1.0 316:1.0 372:1.0 376:1.0 399:1.0 451:1.0 465:1.0 513:1.0 618:1.0 624:1.0 629:1.0 674:1.0 880:1.0 897:1.0 931:1.0 948:1.0 985:1.0 989:1.0 1081:1.0 1095:1.0 1154:1.0 1164:1.0 1184:1.0 1258:1.0 1320:1.0 1336:1.0 1387:1.0 1469:1.0 1527:1.0 1542:1.0 1550:1.0 1565:1.0 1570:1.0 1582:1.0 1615:1.0 1629:1.0 1671:1.0 1687:1.0 1688:1.0 1689:1.0 1690:1.0 1691:1.0 1692:1.0 1693:1.0 1694:1.0 1695:1.0 1696:1.0 1697:1.0 1698:1.0 1699:1.0 1700:1.0 1701:1.0 1702:1.0 1703:1.0 1704:1.0 1705:1.0 1706:1.0 1707:1.0 1708:1.0 1709:1.0 1710:1.0 1711:1.0 1712:1.0 1713:1.0 1714:1.0 1715:1.0 1716:1.0 1717:1.0 1718:1.0 1719:1.0 1720:1.0 1721:1.0 1722:1.0 1723:1.0 1724:1.0 1725:1.0 1726:1.0 1727:1.0 1728:1.0 1729:1.0 
1.0 0:1.0 1:1.0 4:1.0 5:1.0 6:1.0 8:1.0 10:1.0 11:1.0 13:1.0 16:1.0 21:1.0 22:1.0 27:1.0 28:1.0 36:1.0 39:1.0 51:1.0 52:1.0 54:1.0 56:1.0 61:1.0 70:1.0 71:1.0 74:1.0 79:1.0 80:1.0 82:1.0 84:1.0 85:1.0 87:1.0 106:1.0 107:1.0 109:1.0 110:1.0 111:1.0 114:1.0 116:1.0 126:1.0 127:1.0 139:1.0 147:1.0 151:1.0 154:1.0 158:1.0 160:1.0 175:1.0 180:1.0 190:1.0 191:1.0 194:1.0 199:1.0 201:1.0 214:1.0 216:1.0 238:1.0 256:1.0 266:1.0 268:1.0 273:1.0 275:1.0 280:1.0 307:1.0 321:1.0 335:1.0 342:1.0 349:1.0 356:1.0 368:1.0 393:1.0 399:1.0 400:1.0 407:1.0 409:1.0 413:1.0 415:1.0 423:1.0 424:1.0 445:1.0 450:1.0 452:1.0 458:1.0 465:1.0 471:1.0 485:1.0 499:1.0 509:1.0 511:1.0 512:1.0 513:1.0 514:1.0 516:1.0 530:1.0 555:1.0 557:1.0 558:1.0 560:1.0 561:1.0 565:1.0 572:1.0 586:1.0 610:1.0 625:1.0 627:1.0 650:1.0 679:1.0 684:1.0 697:1.0 698:1.0 717:1.0 719:1.0 747:1.0 762:1.0 766:1.0 809:1.0 810:1.0 823:1.0 847:1.0 855:1.0 860:1.0 862:1.0 868:1.0 880:1.0 885:1.0 897:1.0 903:1.0 917:1.0 920:1.0 931:1.0 935:1.0 936:1.0 941:1.0 979:1.0 994:1.0 1003:1.0 1031:1.0 1043:1.0 1046:1.0 1052:1.0 1062:1.0 1063:1.0 1083:1.0 1104:1.0 1106:1.0 1107:1.0 1112:1.0 1123:1.0 1131:1.0 1154:1.0 1162:1.0 1173:1.0 1183:1.0 1187:1.0 1188:1.0 1189:1.0 1194:1.0 1195:1.0 1212:1.0 1214:1.0 1216:1.0 1219:1.0 1236:1.0 1263:1.0 1291:1.0 1295:1.0 1296:1.0 1297:1.0 1306:1.0 1322:1.0 1328:1.0 1329:1.0 1330:1.0 1341:1.0 1365:1.0 1403:1.0 1408:1.0 1428:1.0 1435:1.0 1442:1.0 1453:1.0 1457:1.0 1458:1.0 1459:1.0 1514:1.0 1544:1.0 1587:1.0 1588:1.0 1589:1.0 1594:1.0 1627:1.0 1637:1.0 1643:1.0 1656:1.0 1661:1.0 1685:1.0 1687:1.0 1713:1.0 1718:1.0 1730:1.0 1731:1.0 1732:1.0 1733:1.0 1734:1.0 1735:1.0 1736:1.0 1737:1.0 1738:1.0 1739:1.0 1740:1.0 1741:1.0 1742:1.0 1743:1.0 1744:1.0 1745:1.0 1746:1.0 1747:1.0 1748:1.0 1749:1.0 1750:1.0 1751:1.0 1752:1.0 1753:1.0 1754:1.0 1755:1.0 1756:1.0 1757:1.0 1758:1.0 1759:1.0 1760:1.0 1761:1.0 1762:1.0 1763:1.0 1764:1.0 1765:1.0 1766:1.0 1767:1.0 1768:1.0 1769:1.0 1770:1.0 1771:1.0 1772:1.0 1773:1.0 1774:1.0 1775:1.0 1776:1.0 1777:1.0 1778:1.0 1779:1.0 1780:1.0 1781:1.0 1782:1.0 1783:1.0 1784:1.0 1785:1.0 1786:1.0 1787:1.0 1788:1.0 1789:1.0 1790:1.0 1791:1.0 1792:1.0 1793:1.0 1794:1.0 1795:1.0 1796:1.0 1797:1.0 1798:1.0 1799:1.0 1800:1.0 1801:1.0 1802:1.0 1803:1.0 1804:1.0 1805:1.0 1806:1.0 1807:1.0 1808:1.0 1809:1.0 1810:1.0 1811:1.0 1812:1.0 1813:1.0 1814:1.0 1815:1.0 1816:1.0 1817:1.0 1818:1.0 1819:1.0 1820:1.0 1821:1.0 1822:1.0 1823:1.0 1824:1.0 1825:1.0 1826:1.0 1827:1.0 1828:1.0 1829:1.0 1830:1.0 1831:1.0 1832:1.0 1833:1.0 1834:1.0 1835:1.0 1836:1.0 1837:1.0 1838:1.0 1839:1.0 1840:1.0 1841:1.0 1842:1.0 1843:1.0 1844:1.0 1845:1.0 1846:1.0 1847:1.0 1848:1.0 1849:1.0 1850:1.0 1851:1.0 1852:1.0 1853:1.0 1854:1.0 1855:1.0 1856:1.0 1857:1.0 1858:1.0 1859:1.0 1860:1.0 1861:1.0 1862:1.0 1863:1.0 1864:1.0 1865:1.0 1866:1.0 1867:1.0 1868:1.0 1869:1.0 1870:1.0 1871:1.0 1872:1.0 1873:1.0 1874:1.0 1875:1.0 1876:1.0 1877:1.0 1878:1.0 1879:1.0 1880:1.0 1881:1.0 1882:1.0 1883:1.0 1884:1.0 1885:1.0 1886:1.0 1887:1.0 1888:1.0 1889:1.0 1890:1.0 1891:1.0 1892:1.0 1893:1.0 1894:1.0 1895:1.0 1896:1.0 1897:1.0 1898:1.0 1899:1.0 1900:1.0 1901:1.0 1902:1.0 1903:1.0 1904:1.0 1905:1.0 1906:1.0 1907:1.0 1908:1.0 1909:1.0 1910:1.0 1911:1.0 1912:1.0 1913:1.0 1914:1.0 1915:1.0 1916:1.0 1917:1.0 1918:1.0 1919:1.0 1920:1.0 1921:1.0 1922:1.0 1923:1.0 1924:1.0 1925:1.0 1926:1.0 1927:1.0 1928:1.0 1929:1.0 1930:1.0 1931:1.0 1932:1.0 1933:1.0 1934:1.0 1935:1.0 1936:1.0 1937:1.0 1938:1.0 1939:1.0 1940:1.0 1941:1.0 1942:1.0 1943:1.0 1944:1.0 1945:1.0 1946:1.0 1947:1.0 1948:1.0 1949:1.0 1950:1.0 1951:1.0 1952:1.0 1953:1.0 1954:1.0 1955:1.0 1956:1.0 1957:1.0 1958:1.0 1959:1.0 1960:1.0 1961:1.0 1962:1.0 1963:1.0 1964:1.0 1965:1.0 1966:1.0 1967:1.0 1968:1.0 1969:1.0 1970:1.0 1971:1.0 1972:1.0 1973:1.0 1974:1.0 1975:1.0 1976:1.0 1977:1.0 1978:1.0 1979:1.0 1980:1.0 1981:1.0 1982:1.0 1983:1.0 1984:1.0 1985:1.0 1986:1.0 1987:1.0 1988:1.0 1989:1.0 1990:1.0 1991:1.0 1992:1.0 1993:1.0 1994:1.0 1995:1.0 1996:1.0 1997:1.0 1998:1.0 1999:1.0 2000:1.0 2001:1.0 2002:1.0 2003:1.0 2004:1.0 2005:1.0 2006:1.0 2007:1.0 2008:1.0 2009:1.0 2010:1.0 2011:1.0 2012:1.0 2013:1.0 2014:1.0 2015:1.0 2016:1.0 2017:1.0 2018:1.0 2019:1.0 2020:1.0 2021:1.0 2022:1.0 2023:1.0 2024:1.0 2025:1.0 2026:1.0 2027:1.0 2028:1.0 2029:1.0 2030:1.0 2031:1.0 2032:1.0 2033:1.0 2034:1.0 2035:1.0 2036:1.0 2037:1.0 2038:1.0 2039:1.0 2040:1.0 2041:1.0 2042:1.0 2043:1.0 2044:1.0 2045:1.0 2046:1.0 2047:1.0 2048:1.0 2049:1.0 2050:1.0 2051:1.0 2052:1.0 2053:1.0 2054:1.0 2055:1.0 2056:1.0 2057:1.0 2058:1.0 2059:1.0 2060:1.0 2061:1.0 2062:1.0 2063:1.0 2064:1.0 2065:1.0 2066:1.0 2067:1.0 2068:1.0 2069:1.0 2070:1.0 2071:1.0 2072:1.0 2073:1.0 2074:1.0 2075:1.0 2076:1.0 2077:1.0 2078:1.0 2079:1.0 2080:1.0 2081:1.0 2082:1.0 2083:1.0 2084:1.0 2085:1.0 2086:1.0 2087:1.0 
1.0 0:1.0 1:1.0 4:1.0 5:1.0 6:1.0 8:1.0 10:1.0 11:1.0 13:1.0 16:1.0 21:1.0 22:1.0 27:1.0 28:1.0 36:1.0 39:1.0 47:1.0 51:1.0 52:1.0 54:1.0 56:1.0 61:1.0 67:1.0 70:1.0 71:1.0 72:1.0 73:1.0 74:1.0 75:1.0 79:1.0 80:1.0 82:1.0 83:1.0 84:1.0 85:1.0 86:1.0 87:1.0 94:1.0 95:1.0 106:1.0 107:1.0 109:1.0 110:1.0 111:1.0 112:1.0 114:1.0 116:1.0 117:1.0 123:1.0 124:1.0 126:1.0 127:1.0 128:1.0 129:1.0 133:1.0 135:1.0 136:1.0 139:1.0 146:1.0 147:1.0 148:1.0 151:1.0 154:1.0 157:1.0 158:1.0 160:1.0 175:1.0 180:1.0 190:1.0 191:1.0 194:1.0 195:1.0 199:1.0 201:1.0 214:1.0 216:1.0 222:1.0 227:1.0 235:1.0 238:1.0 241:1.0 250:1.0 256:1.0 259:1.0 261:1.0 266:1.0 268:1.0 273:1.0 275:1.0 280:1.0 307:1.0 321:1.0 329:1.0 335:1.0 339:1.0 340:1.0 342:1.0 349:1.0 353:1.0 356:1.0 366:1.0 368:1.0 372:1.0 378:1.0 393:1.0 399:1.0 400:1.0 407:1.0 409:1.0 412:1.0 413:1.0 415:1.0 423:1.0 424:1.0 433:1.0 434:1.0 445:1.0 449:1.0 450:1.0 452:1.0 458:1.0 465:1.0 470:1.0 471:1.0 485:1.0 499:1.0 509:1.0 511:1.0 512:1.0 513:1.0 514:1.0 516:1.0 517:1.0 518:1.0 523:1.0 527:1.0 530:1.0 532:1.0 542:1.0 550:1.0 555:1.0 557:1.0 558:1.0 560:1.0 561:1.0 562:1.0 564:1.0 565:1.0 569:1.0 572:1.0 573:1.0 576:1.0 582:1.0 586:1.0 606:1.0 610:1.0 618:1.0 625:1.0 627:1.0 634:1.0 641:1.0 650:1.0 665:1.0 670:1.0 679:1.0 681:1.0 684:1.0 690:1.0 693:1.0 697:1.0 698:1.0 700:1.0 709:1.0 711:1.0 717:1.0 719:1.0 734:1.0 747:1.0 752:1.0 758:1.0 762:1.0 766:1.0 809:1.0 810:1.0 823:1.0 846:1.0 847:1.0 855:1.0 857:1.0 860:1.0 862:1.0 868:1.0 874:1.0 879:1.0 880:1.0 885:1.0 897:1.0 903:1.0 917:1.0 918:1.0 920:1.0 924:1.0 929:1.0 931:1.0 935:1.0 936:1.0 941:1.0 979:1.0 994:1.0 1001:1.0 1003:1.0 1007:1.0 1020:1.0 1031:1.0 1034:1.0 1035:1.0 1043:1.0 1046:1.0 1048:1.0 1052:1.0 1058:1.0 1062:1.0 1063:1.0 1083:1.0 1104:1.0 1105:1.0 1106:1.0 1107:1.0 1110:1.0 1112:1.0 1116:1.0 1123:1.0 1131:1.0 1149:1.0 1151:1.0 1154:1.0 1158:1.0 1162:1.0 1173:1.0 1183:1.0 1187:1.0 1188:1.0 1189:1.0 1194:1.0 1195:1.0 1212:1.0 1214:1.0 1216:1.0 1219:1.0 1222:1.0 1236:1.0 1238:1.0 1250:1.0 1254:1.0 1255:1.0 1263:1.0 1278:1.0 1284:1.0 1288:1.0 1291:1.0 1295:1.0 1296:1.0 1297:1.0 1306:1.0 1320:1.0 1322:1.0 1328:1.0 1329:1.0 1330:1.0 1336:1.0 1341:1.0 1342:1.0 1357:1.0 1365:1.0 1377:1.0 1378:1.0 1392:1.0 1402:1.0 1403:1.0 1405:1.0 1406:1.0 1408:1.0 1415:1.0 1417:1.0 1428:1.0 1435:1.0 1437:1.0 1442:1.0 1453:1.0 1457:1.0 1458:1.0 1459:1.0 1489:1.0 1496:1.0 1514:1.0 1533:1.0 1538:1.0 1544:1.0 1569:1.0 1585:1.0 1587:1.0 1588:1.0 1589:1.0 1594:1.0 1612:1.0 1627:1.0 1632:1.0 1637:1.0 1643:1.0 1656:1.0 1661:1.0 1664:1.0 1667:1.0 1680:1.0 1685:1.0 1687:1.0 1692:1.0 1696:1.0 1698:1.0 1700:1.0 1709:1.0 1713:1.0 1717:1.0 1718:1.0 1724:1.0 1730:1.0 1731:1.0 1732:1.0 1733:1.0 1734:1.0 1735:1.0 1736:1.0 1737:1.0 1738:1.0 1739:1.0 1740:1.0 1741:1.0 1742:1.0 1743:1.0 1744:1.0 1745:1.0 1746:1.0 1747:1.0 1748:1.0 1749:1.0 1750:1.0 1751:1.0 1752:1.0 1753:1.0 1754:1.0 1755:1.0 1756:1.0 1757:1.0 1758:1.0 1759:1.0 1760:1.0 1761:1.0 1762:1.0 1763:1.0 1764:1.0 1765:1.0 1766:1.0 1767:1.0 1768:1.0 1769:1.0 1770:1.0 1771:1.0 1772:1.0 1773:1.0 1774:1.0 1775:1.0 1776:1.0 1777:1.0 1778:1.0 1779:1.0 1780:1.0 1781:1.0 1782:1.0 1783:1.0 1784:1.0 1785:1.0 1786:1.0 1787:1.0 1788:1.0 1789:1.0 1790:1.0 1791:1.0 1792:1.0 1793:1.0 1794:1.0 1795:1.0 1796:1.0 1797:1.0 1798:1.0 1799:1.0 1800:1.0 1801:1.0 1802:1.0 1803:1.0 1804:1.0 1805:1.0 1806:1.0 1807:1.0 1808:1.0 1809:1.0 1810:1.0 1811:1.0 1812:1.0 1813:1.0 1814:1.0 1815:1.0 1816:1.0 1817:1.0 1818:1.0 1819:1.0 1820:1.0 1821:1.0 1822:1.0 1823:1.0 1824:1.0 1825:1.0 1826:1.0 1827:1.0 1828:1.0 1829:1.0 1830:1.0 1831:1.0 1832:1.0 1833:1.0 1834:1.0 1835:1.0 1836:1.0 1837:1.0 1838:1.0 1839:1.0 1840:1.0 1841:1.0 1842:1.0 1843:1.0 1844:1.0 1845:1.0 1846:1.0 1847:1.0 1848:1.0 1849:1.0 1850:1.0 1851:1.0 1852:1.0 1853:1.0 1854:1.0 1855:1.0 1856:1.0 1857:1.0 1858:1.0 1859:1.0 1860:1.0 1861:1.0 1862:1.0 1863:1.0 1864:1.0 1865:1.0 1866:1.0 1867:1.0 1868:1.0 1869:1.0 1870:1.0 1871:1.0 1872:1.0 1873:1.0 1874:1.0 1875:1.0 1876:1.0 1877:1.0 1878:1.0 1879:1.0 1880:1.0 1881:1.0 1882:1.0 1883:1.0 1884:1.0 1885:1.0 1886:1.0 1887:1.0 1888:1.0 1889:1.0 1890:1.0 1891:1.0 1892:1.0 1893:1.0 1894:1.0 1895:1.0 1896:1.0 1897:1.0 1898:1.0 1899:1.0 1900:1.0 1901:1.0 1902:1.0 1903:1.0 1904:1.0 1905:1.0 1906:1.0 1907:1.0 1908:1.0 1909:1.0 1910:1.0 1911:1.0 1912:1.0 1913:1.0 1914:1.0 1915:1.0 1916:1.0 1917:1.0 1918:1.0 1919:1.0 1920:1.0 1921:1.0 1922:1.0 1923:1.0 1924:1.0 1925:1.0 1926:1.0 1927:1.0 1928:1.0 1929:1.0 1930:1.0 1931:1.0 1932:1.0 1933:1.0 1934:1.0 1935:1.0 1936:1.0 1937:1.0 1938:1.0 1939:1.0 1940:1.0 1941:1.0 1942:1.0 1943:1.0 1944:1.0 1945:1.0 1946:1.0 1947:1.0 1948:1.0 1949:1.0 1950:1.0 1951:1.0 1952:1.0 1953:1.0 1954:1.0 1955:1.0 1956:1.0 1957:1.0 1958:1.0 1959:1.0 1960:1.0 1961:1.0 1962:1.0 1963:1.0 1964:1.0 1965:1.0 1966:1.0 1967:1.0 1968:1.0 1969:1.0 1970:1.0 1971:1.0 1972:1.0 1973:1.0 1974:1.0 1975:1.0 1976:1.0 1977:1.0 1978:1.0 1979:1.0 1980:1.0 1981:1.0 1982:1.0 1983:1.0 1984:1.0 1985:1.0 1986:1.0 1987:1.0 1988:1.0 1989:1.0 1990:1.0 1991:1.0 1992:1.0 1993:1.0 1994:1.0 1995:1.0 1996:1.0 1997:1.0 1998:1.0 1999:1.0 2000:1.0 2001:1.0 2002:1.0 2003:1.0 2004:1.0 2005:1.0 2006:1.0 2007:1.0 2008:1.0 2009:1.0 2010:1.0 2011:1.0 2012:1.0 2013:1.0 2014:1.0 2015:1.0 2016:1.0 2017:1.0 2018:1.0 2019:1.0 2020:1.0 2021:1.0 2022:1.0 2023:1.0 2024:1.0 2025:1.0 2026:1.0 2027:1.0 2028:1.0 2029:1.0 2030:1.0 2031:1.0 2032:1.0 2033:1.0 2034:1.0 2035:1.0 2036:1.0 2037:1.0 2038:1.0 2039:1.0 2040:1.0 2041:1.0 2042:1.0 2043:1.0 2044:1.0 2045:1.0 2046:1.0 2047:1.0 2048:1.0 2049:1.0 2050:1.0 2051:1.0 2052:1.0 2053:1.0 2054:1.0 2055:1.0 2056:1.0 2057:1.0 2058:1.0 2059:1.0 2060:1.0 2061:1.0 2062:1.0 2063:1.0 2064:1.0 2065:1.0 2066:1.0 2067:1.0 2068:1.0 2069:1.0 2070:1.0 2071:1.0 2072:1.0 2073:1.0 2074:1.0 2075:1.0 2076:1.0 2077:1.0 2078:1.0 2079:1.0 2080:1.0 2081:1.0 2082:1.0 2083:1.0 2084:1.0 2085:1.0 2086:1.0 2087:1.0 2088:1.0 2089:1.0 2090:1.0 2091:1.0 2092:1.0 2093:1.0 2094:1.0 2095:1.0 2096:1.0 2097:1.0 2098:1.0 2099:1.0 2100:1.0 2101:1.0 2102:1.0 2103:1.0 2104:1.0 2105:1.0 2106:1.0 2107:1.0 2108:1.0 2109:1.0 2110:1.0 2111:1.0 2112:1.0 2113:1.0 2114:1.0 2115:1.0 2116:1.0 2117:1.0 2118:1.0 2119:1.0 2120:1.0 2121:1.0 2122:1.0 2123:1.0 2124:1.0 2125:1.0 2126:1.0 2127:1.0 2128:1.0 2129:1.0 2130:1.0 2131:1.0 2132:1.0 2133:1.0 2134:1.0 2135:1.0 2136:1.0 2137:1.0 2138:1.0 2139:1.0 2140:1.0 2141:1.0 2142:1.0 2143:1.0 2144:1.0 2145:1.0 2146:1.0 2147:1.0 2148:1.0 2149:1.0 2150:1.0 2151:1.0 2152:1.0 2153:1.0 2154:1.0 2155:1.0 2156:1.0 2157:1.0 2158:1.0 2159:1.0 2160:1.0 2161:1.0 2162:1.0 2163:1.0 2164:1.0 2165:1.0 2166:1.0 2167:1.0 2168:1.0 2169:1.0 2170:1.0 2171:1.0 2172:1.0 2173:1.0 2174:1.0 2175:1.0 2176:1.0 2177:1.0 2178:1.0 2179:1.0 2180:1.0 2181:1.0 2182:1.0 2183:1.0 2184:1.0 2185:1.0 2186:1.0 2187:1.0 2188:1.0 2189:1.0 2190:1.0 2191:1.0 2192:1.0 2193:1.0 2194:1.0 2195:1.0 2196:1.0 2197:1.0 2198:1.0 2199:1.0 2200:1.0 2201:1.0 2202:1.0 2203:1.0 2204:1.0 2205:1.0 2206:1.0 2207:1.0 2208:1.0 2209:1.0 2210:1.0 2211:1.0 2212:1.0 2213:1.0 2214:1.0 2215:1.0 2216:1.0 2217:1.0 2218:1.0 2219:1.0 2220:1.0 2221:1.0 2222:1.0 2223:1.0 2224:1.0 2225:1.0 2226:1.0 2227:1.0 2228:1.0 2229:1.0 2230:1.0 2231:1.0 2232:1.0 2233:1.0 2234:1.0 2235:1.0 2236:1.0 2237:1.0 2238:1.0 2239:1.0 2240:1.0 2241:1.0 2242:1.0 2243:1.0 2244:1.0 2245:1.0 2246:1.0 2247:1.0 2248:1.0 2249:1.0 2250:1.0 2251:1.0 2252:1.0 2253:1.0 2254:1.0 2255:1.0 2256:1.0 2257:1.0 2258:1.0 2259:1.0 2260:1.0 2261:1.0 2262:1.0 2263:1.0 2264:1.0 2265:1.0 2266:1.0 2267:1.0 2268:1.0 2269:1.0 2270:1.0 2271:1.0 2272:1.0 2273:1.0 2274:1.0 2275:1.0 2276:1.0 2277:1.0 2278:1.0 2279:1.0 2280:1.0 2281:1.0 2282:1.0 2283:1.0 2284:1.0 2285:1.0 2286:1.0 2287:1.0 2288:1.0 2289:1.0 2290:1.0 2291:1.0 2292:1.0 2293:1.0 2294:1.0 2295:1.0 2296:1.0 2297:1.0 2298:1.0 2299:1.0 2300:1.0 2301:1.0 2302:1.0 2303:1.0 2304:1.0 2305:1.0 2306:1.0 2307:1.0 2308:1.0 2309:1.0 2310:1.0 2311:1.0 2312:1.0 2313:1.0 2314:1.0 2315:1.0 2316:1.0 2317:1.0 2318:1.0 2319:1.0 2320:1.0 2321:1.0 2322:1.0 2323:1.0 2324:1.0 2325:1.0 2326:1.0 2327:1.0 2328:1.0 2329:1.0 2330:1.0 2331:1.0 2332:1.0 2333:1.0 2334:1.0 2335:1.0 2336:1.0 2337:1.0 2338:1.0 2339:1.0 2340:1.0 2341:1.0 2342:1.0 2343:1.0 2344:1.0 2345:1.0 2346:1.0 2347:1.0 2348:1.0 2349:1.0 2350:1.0 2351:1.0 2352:1.0 2353:1.0 2354:1.0 2355:1.0 2356:1.0 2357:1.0 2358:1.0 2359:1.0 2360:1.0 2361:1.0 2362:1.0 2363:1.0 2364:1.0 2365:1.0 2366:1.0 2367:1.0 2368:1.0 2369:1.0 2370:1.0 2371:1.0 2372:1.0 2373:1.0 2374:1.0 2375:1.0 2376:1.0 2377:1.0 2378:1.0 2379:1.0 2380:1.0 2381:1.0 2382:1.0 2383:1.0 2384:1.0 2385:1.0 2386:1.0 2387:1.0 2388:1.0 2389:1.0 2390:1.0 2391:1.0 2392:1.0 2393:1.0 2394:1.0 2395:1.0 2396:1.0 2397:1.0 2398:1.0 2399:1.0 2400:1.0 2401:1.0 2402:1.0 2403:1.0 2404:1.0 2405:1.0 2406:1.0 2407:1.0 2408:1.0 2409:1.0 2410:1.0 2411:1.0 2412:1.0 2413:1.0 2414:1.0 2415:1.0 2416:1.0 2417:1.0 2418:1.0 2419:1.0 2420:1.0 2421:1.0 2422:1.0 2423:1.0 2424:1.0 2425:1.0 2426:1.0 2427:1.0 2428:1.0 2429:1.0 2430:1.0 2431:1.0 2432:1.0 2433:1.0 2434:1.0 2435:1.0 2436:1.0 2437:1.0 2438:1.0 2439:1.0 2440:1.0 2441:1.0 2442:1.0 2443:1.0 2444:1.0 2445:1.0 2446:1.0 2447:1.0 2448:1.0 2449:1.0 2450:1.0 2451:1.0 2452:1.0 2453:1.0 2454:1.0 2455:1.0 2456:1.0 2457:1.0 2458:1.0 2459:1.0 2460:1.0 2461:1.0 2462:1.0 2463:1.0 2464:1.0 2465:1.0 2466:1.0 2467:1.0 2468:1.0 2469:1.0 
0.9999434174977611 0:1.0 1:1.0 5:1.0 6:1.0 8:1.0 11:1.0 13:1.0 16:1.0 21:1.0 28:1.0 39:1.0 47:1.0 51:1.0 52:1.0 54:1.0 56:1.0 67:1.0 70:1.0 71:1.0 72:1.0 73:1.0 74:1.0 75:1.0 79:1.0 80:1.0 82:1.0 83:1.0 84:1.0 85:1.0 86:1.0 87:1.0 94:1.0 95:1.0 106:1.0 109:1.0 111:1.0 112:1.0 116:1.0 117:1.0 123:1.0 124:1.0 126:1.0 128:1.0 129:1.0 135:1.0 136:1.0 139:1.0 146:1.0 148:1.0 151:1.0 157:1.0 180:1.0 191:1.0 194:1.0 195:1.0 199:1.0 201:1.0 222:1.0 227:1.0 235:1.0 241:1.0 250:1.0 256:1.0 259:1.0 261:1.0 307:1.0 321:1.0 329:1.0 339:1.0 340:1.0 342:1.0 353:1.0 366:1.0 372:1.0 378:1.0 393:1.0 399:1.0 407:1.0 409:1.0 412:1.0 413:1.0 423:1.0 433:1.0 434:1.0 449:1.0 465:1.0 470:1.0 485:1.0 509:1.0 511:1.0 512:1.0 516:1.0 517:1.0 518:1.0 527:1.0 532:1.0 542:1.0 550:1.0 558:1.0 560:1.0 562:1.0 564:1.0 565:1.0 569:1.0 573:1.0 576:1.0 582:1.0 586:1.0 606:1.0 610:1.0 618:1.0 627:1.0 634:1.0 641:1.0 665:1.0 670:1.0 679:1.0 681:1.0 690:1.0 693:1.0 700:1.0 709:1.0 711:1.0 734:1.0 747:1.0 752:1.0 758:1.0 766:1.0 809:1.0 846:1.0 857:1.0 860:1.0 862:1.0 874:1.0 879:1.0 903:1.0 918:1.0 924:1.0 929:1.0 931:1.0 979:1.0 1001:1.0 1007:1.0 1020:1.0 1034:1.0 1035:1.0 1048:1.0 1058:1.0 1083:1.0 1105:1.0 1107:1.0 1110:1.0 1112:1.0 1116:1.0 1149:1.0 1151:1.0 1154:1.0 1158:1.0 1189:1.0 1195:1.0 1222:1.0 1236:1.0 1238:1.0 1250:1.0 1254:1.0 1255:1.0 1263:1.0 1284:1.0 1288:1.0 1320:1.0 1329:1.0 1330:1.0 1336:1.0 1342:1.0 1357:1.0 1377:1.0 1378:1.0 1392:1.0 1402:1.0 1405:1.0 1406:1.0 1415:1.0 1417:1.0 1428:1.0 1435:1.0 1437:1.0 1442:1.0 1457:1.0 1458:1.0 1489:1.0 1496:1.0 1533:1.0 1538:1.0 1585:1.0 1588:1.0 1594:1.0 1612:1.0 1632:1.0 1656:1.0 1661:1.0 1664:1.0 1667:1.0 1680:1.0 1687:1.0 1692:1.0 1696:1.0 1698:1.0 1700:1.0 1709:1.0 1717:1.0 1724:1.0 1747:1.0 1753:1.0 1754:1.0 1757:1.0 1760:1.0 1761:1.0 1781:1.0 1786:1.0 1790:1.0 1799:1.0 1810:1.0 1816:1.0 1818:1.0 1819:1.0 1820:1.0 1821:1.0 1822:1.0 1834:1.0 1838:1.0 1843:1.0 1846:1.0 1848:1.0 1859:1.0 1862:1.0 1870:1.0 1873:1.0 1882:1.0 1884:1.0 1893:1.0 1899:1.0 1902:1.0 1906:1.0 1908:1.0 1909:1.0 1911:1.0 1917:1.0 1918:1.0 1919:1.0 1925:1.0 1928:1.0 1929:1.0 1931:1.0 1940:1.0 1949:1.0 1951:1.0 1953:1.0 1955:1.0 1957:1.0 1959:1.0 1966:1.0 1977:1.0 1996:1.0 1999:1.0 2012:1.0 2015:1.0 2023:1.0 2024:1.0 2034:1.0 2052:1.0 2057:1.0 2066:1.0 2067:1.0 2068:1.0 2069:1.0 2070:1.0 2079:1.0 2082:1.0 2087:1.0 2088:1.0 2089:1.0 2090:1.0 2091:1.0 2092:1.0 2093:1.0 2094:1.0 2095:1.0 2096:1.0 2098:1.0 2099:1.0 2100:1.0 2101:1.0 2102:1.0 2103:1.0 2105:1.0 2106:1.0 2107:1.0 2108:1.0 2109:1.0 2110:1.0 2111:1.0 2112:1.0 2113:1.0 2114:1.0 2115:1.0 2116:1.0 2117:1.0 2118:1.0 2119:1.0 2120:1.0 2121:1.0 2122:1.0 2123:1.0 2124:1.0 2125:1.0 2126:1.0 2127:1.0 2128:1.0 2129:1.0 2130:1.0 2131:1.0 2132:1.0 2133:1.0 2134:1.0 2135:1.0 2136:1.0 2137:1.0 2138:1.0 2139:1.0 2140:1.0 2141:1.0 2142:1.0 2143:1.0 2144:1.0 2145:1.0 2146:1.0 2147:1.0 2148:1.0 2149:1.0 2150:1.0 2151:1.0 2152:1.0 2153:1.0 2154:1.0 2155:1.0 2156:1.0 2157:1.0 2158:1.0 2159:1.0 2160:1.0 2161:1.0 2162:1.0 2163:1.0 2164:1.0 2165:1.0 2166:1.0 2167:1.0 2168:1.0 2169:1.0 2170:1.0 2171:1.0 2172:1.0 2173:1.0 2174:1.0 2175:1.0 2176:1.0 2177:1.0 2178:1.0 2179:1.0 2180:1.0 2181:1.0 2182:1.0 2183:1.0 2184:1.0 2185:1.0 2186:1.0 2187:1.0 2188:1.0 2189:1.0 2190:1.0 2192:1.0 2193:1.0 2194:1.0 2195:1.0 2196:1.0 2197:1.0 2198:1.0 2199:1.0 2200:1.0 2201:1.0 2202:1.0 2203:1.0 2204:1.0 2205:1.0 2206:1.0 2207:1.0 2208:1.0 2209:1.0 2210:1.0 2211:1.0 2212:1.0 2213:1.0 2214:1.0 2215:1.0 2216:1.0 2217:1.0 2218:1.0 2219:1.0 2220:1.0 2221:1.0 2224:1.0 2225:1.0 2226:1.0 2227:1.0 2228:1.0 2229:1.0 2230:1.0 2231:1.0 2233:1.0 2234:1.0 2235:1.0 2236:1.0 2237:1.0 2238:1.0 2239:1.0 2240:1.0 2241:1.0 2242:1.0 2243:1.0 2244:1.0 2245:1.0 2246:1.0 2247:1.0 2248:1.0 2249:1.0 2250:1.0 2251:1.0 2252:1.0 2253:1.0 2254:1.0 2255:1.0 2256:1.0 2257:1.0 2258:1.0 2259:1.0 2260:1.0 2261:1.0 2262:1.0 2263:1.0 2264:1.0 2265:1.0 2266:1.0 2267:1.0 2268:1.0 2269:1.0 2270:1.0 2271:1.0 2272:1.0 2273:1.0 2274:1.0 2275:1.0 2276:1.0 2277:1.0 2278:1.0 2280:1.0 2281:1.0 2282:1.0 2283:1.0 2284:1.0 2285:1.0 2286:1.0 2287:1.0 2288:1.0 2289:1.0 2290:1.0 2291:1.0 2292:1.0 2293:1.0 2294:1.0 2295:1.0 2296:1.0 2297:1.0 2298:1.0 2299:1.0 2300:1.0 2301:1.0 2302:1.0 2303:1.0 2304:1.0 2305:1.0 2306:1.0 2307:1.0 2308:1.0 2309:1.0 2310:1.0 2311:1.0 2312:1.0 2313:1.0 2314:1.0 2316:1.0 2317:1.0 2318:1.0 2319:1.0 2320:1.0 2321:1.0 2322:1.0 2323:1.0 2324:1.0 2325:1.0 2326:1.0 2327:1.0 2328:1.0 2329:1.0 2330:1.0 2331:1.0 2332:1.0 2333:1.0 2334:1.0 2335:1.0 2336:1.0 2337:1.0 2338:1.0 2339:1.0 2340:1.0 2341:1.0 2342:1.0 2343:1.0 2344:1.0 2345:1.0 2346:1.0 2347:1.0 2348:1.0 2349:1.0 2350:1.0 2351:1.0 2352:1.0 2353:1.0 2354:1.0 2355:1.0 2356:1.0 2357:1.0 2358:1.0 2359:1.0 2360:1.0 2361:1.0 2362:1.0 2363:1.0 2364:1.0 2365:1.0 2366:1.0 2367:1.0 2368:1.0 2369:1.0 2370:1.0 2371:1.0 2373:1.0 2374:1.0 2375:1.0 2376:1.0 2377:1.0 2379:1.0 2380:1.0 2381:1.0 2382:1.0 2383:1.0 2384:1.0 2385:1.0 2386:1.0 2387:1.0 2388:1.0 2389:1.0 2390:1.0 2391:1.0 2392:1.0 2393:1.0 2394:1.0 2395:1.0 2396:1.0 2397:1.0 2398:1.0 2400:1.0 2401:1.0 2402:1.0 2403:1.0 2404:1.0 2405:1.0 2406:1.0 2408:1.0 2409:1.0 2410:1.0 2411:1.0 2412:1.0 2414:1.0 2415:1.0 2416:1.0 2417:1.0 2418:1.0 2419:1.0 2420:1.0 2421:1.0 2422:1.0 2423:1.0 2424:1.0 2425:1.0 2427:1.0 2429:1.0 2431:1.0 2432:1.0 2433:1.0 2434:1.0 2435:1.0 2436:1.0 2438:1.0 2439:1.0 2440:1.0 2441:1.0 2442:1.0 2443:1.0 2444:1.0 2445:1.0 2446:1.0 2447:1.0 2448:1.0 2449:1.0 2450:1.0 2451:1.0 2452:1.0 2453:1.0 2454:1.0 2455:1.0 2456:1.0 2457:1.0 2458:1.0 2460:1.0 2461:1.0 2462:1.0 2463:1.0 2464:1.0 2465:1.0 2467:1.0 2468:1.0 2469:1.0 
0.028146502963407632 0:1.0 10:1.0 16:1.0 52:1.0 54:1.0 82:1.0 84:1.0 110:1.0 116:1.0 129:1.0 135:1.0 253:1.0 321:1.0 366:1.0 399:1.0 471:1.0 512:1.0 556:1.0 595:1.0 681:1.0 860:1.0 872:1.0 994:1.0 1111:1.0 1189:1.0 1396:1.0 1453:1.0 1469:1.0 1509:1.0 1521:1.0 1528:1.0 1556:1.0 1568:1.0 1574:1.0 1605:1.0 1606:1.0 1661:1.0 2104:1.0 2525:1.0 2526:1.0 2527:1.0 2528:1.0 2529:1.0 2530:1.0 2531:1.0 2532:1.0 2533:1.0 2534:1.0 2535:1.0 
0.019350642273625734 0:1.0 1:1.0 5:1.0 16:1.0 21:1.0 39:1.0 51:1.0 80:1.0 82:1.0 110:1.0 111:1.0 116:1.0 126:1.0 129:1.0 135:1.0 180:1.0 249:1.0 321:1.0 343:1.0 399:1.0 400:1.0 407:1.0 465:1.0 547:1.0 610:1.0 1016:1.0 1324:1.0 1329:1.0 1354:1.0 1392:1.0 1457:1.0 1596:1.0 1636:1.0 1671:1.0 1754:1.0 1804:1.0 1900:1.0 2134:1.0 2159:1.0 2483:1.0 2536:1.0 2537:1.0 2538:1.0 2539:1.0 2540:1.0 2541:1.0 2542:1.0 2543:1.0 2544:1.0 2545:1.0 2546:1.0 2547:1.0 2548:1.0 2549:1.0 2550:1.0 2551:1.0 2552:1.0 2553:1.0 
0.003013828381882081 0:1.0 5:1.0 8:1.0 10:1.0 28:1.0 39:1.0 44:1.0 47:1.0 51:1.0 52:1.0 54:1.0 56:1.0 57:1.0 80:1.0 84:1.0 110:1.0 129:1.0 131:1.0 135:1.0 199:1.0 229:1.0 307:1.0 312:1.0 340:1.0 392:1.0 400:1.0 407:1.0 465:1.0 484:1.0 511:1.0 516:1.0 542:1.0 547:1.0 558:1.0 572:1.0 645:1.0 723:1.0 1019:1.0 1164:1.0 1288:1.0 1376:1.0 1518:1.0 1594:1.0 1646:1.0 1647:1.0 1658:1.0 1664:1.0 1670:1.0 1671:1.0 1678:1.0 1679:1.0 1681:1.0 1684:1.0 1781:1.0 1793:1.0 1951:1.0 2258:1.0 2298:1.0 2483:1.0 2554:1.0 2555:1.0 2556:1.0 2557:1.0 2558:1.0 2559:1.0 2560:1.0 2561:1.0 2562:1.0 2563:1.0 2564:1.0 2565:1.0 2566:1.0 2567:1.0 2568:1.0 
0.006488326761863511 0:1.0 5:1.0 8:1.0 10:1.0 13:1.0 16:1.0 21:1.0 28:1.0 39:1.0 45:1.0 51:1.0 52:1.0 54:1.0 56:1.0 57:1.0 61:1.0 70:1.0 71:1.0 80:1.0 84:1.0 106:1.0 110:1.0 111:1.0 112:1.0 113:1.0 116:1.0 124:1.0 131:1.0 135:1.0 136:1.0 146:1.0 189:1.0 201:1.0 227:1.0 256:1.0 258:1.0 321:1.0 353:1.0 377:1.0 399:1.0 420:1.0 465:1.0 486:1.0 513:1.0 514:1.0 516:1.0 540:1.0 543:1.0 546:1.0 565:1.0 618:1.0 650:1.0 723:1.0 774:1.0 856:1.0 872:1.0 874:1.0 947:1.0 1015:1.0 1081:1.0 1194:1.0 1205:1.0 1295:1.0 1298:1.0 1329:1.0 1469:1.0 1502:1.0 1518:1.0 1574:1.0 1583:1.0 1589:1.0 1613:1.0 1767:1.0 1870:1.0 2066:1.0 2167:1.0 2213:1.0 2282:1.0 2290:1.0 2532:1.0 2565:1.0 2569:1.0 2570:1.0 2571:1.0 2572:1.0 2573:1.0 2574:1.0 2575:1.0 2576:1.0 2577:1.0 2578:1.0 2579:1.0 2580:1.0 2581:1.0 2582:1.0 2583:1.0 2584:1.0 2585:1.0 2586:1.0 2587:1.0 2588:1.0 2589:1.0 2590:1.0 2591:1.0 2592:1.0 2593:1.0 2594:1.0 2595:1.0 2596:1.0 
8.077919748638916E-4 0:1.0 5:1.0 8:1.0 10:1.0 17:1.0 21:1.0 39:1.0 48:1.0 51:1.0 52:1.0 54:1.0 56:1.0 80:1.0 82:1.0 84:1.0 85:1.0 87:1.0 100:1.0 106:1.0 110:1.0 111:1.0 116:1.0 124:1.0 126:1.0 131:1.0 135:1.0 136:1.0 151:1.0 221:1.0 234:1.0 255:1.0 256:1.0 294:1.0 313:1.0 316:1.0 347:1.0 365:1.0 366:1.0 376:1.0 386:1.0 392:1.0 407:1.0 412:1.0 491:1.0 511:1.0 512:1.0 518:1.0 542:1.0 569:1.0 591:1.0 601:1.0 625:1.0 640:1.0 646:1.0 721:1.0 776:1.0 823:1.0 824:1.0 879:1.0 938:1.0 1007:1.0 1052:1.0 1091:1.0 1096:1.0 1108:1.0 1174:1.0 1189:1.0 1284:1.0 1327:1.0 1407:1.0 1469:1.0 1501:1.0 1518:1.0 1544:1.0 1588:1.0 1600:1.0 1870:1.0 1937:1.0 2057:1.0 2145:1.0 2236:1.0 2390:1.0 2405:1.0 2603:1.0 2648:1.0 2649:1.0 2650:1.0 2651:1.0 2652:1.0 2653:1.0 2654:1.0 2655:1.0 2656:1.0 2657:1.0 2658:1.0 2659:1.0 2660:1.0 2661:1.0 2662:1.0 2663:1.0 2664:1.0 2665:1.0 2666:1.0 2667:1.0 2668:1.0 2669:1.0 2670:1.0 2671:1.0 2672:1.0 2673:1.0 2674:1.0 2675:1.0 2676:1.0 2677:1.0 2678:1.0 2679:1.0 2680:1.0 2681:1.0 2682:1.0 2683:1.0 2684:1.0 2685:1.0 2686:1.0 2687:1.0 2688:1.0 2689:1.0 2690:1.0 
0.0045044252669075155 0:1.0 5:1.0 6:1.0 10:1.0 13:1.0 16:1.0 28:1.0 51:1.0 54:1.0 56:1.0 57:1.0 73:1.0 80:1.0 109:1.0 111:1.0 112:1.0 116:1.0 121:1.0 126:1.0 131:1.0 136:1.0 144:1.0 188:1.0 191:1.0 194:1.0 242:1.0 283:1.0 288:1.0 342:1.0 374:1.0 376:1.0 392:1.0 399:1.0 465:1.0 516:1.0 573:1.0 576:1.0 595:1.0 684:1.0 732:1.0 745:1.0 853:1.0 860:1.0 922:1.0 948:1.0 1015:1.0 1031:1.0 1122:1.0 1377:1.0 1453:1.0 1489:1.0 1518:1.0 1588:1.0 1629:1.0 1746:1.0 1917:1.0 1959:1.0 2085:1.0 2342:1.0 2406:1.0 2509:1.0 2569:1.0 2572:1.0 2675:1.0 2717:1.0 2718:1.0 2719:1.0 2720:1.0 2721:1.0 2722:1.0 2723:1.0 2724:1.0 2725:1.0 2726:1.0 2727:1.0 2728:1.0 2729:1.0 2730:1.0 2731:1.0 2732:1.0 2733:1.0 2734:1.0 2735:1.0 2736:1.0 2737:1.0 2738:1.0 2739:1.0 2740:1.0 2741:1.0 2742:1.0 2743:1.0 2744:1.0 2745:1.0 2746:1.0 2747:1.0 2748:1.0 2749:1.0 2750:1.0 2751:1.0 2752:1.0 2753:1.0 2754:1.0 2755:1.0 2756:1.0 2757:1.0 2758:1.0 2759:1.0 2760:1.0 2761:1.0 2762:1.0 2763:1.0 
0.048295569038371525 0:1.0 5:1.0 16:1.0 50:1.0 51:1.0 71:1.0 89:1.0 116:1.0 129:1.0 138:1.0 151:1.0 296:1.0 297:1.0 321:1.0 342:1.0 366:1.0 465:1.0 558:1.0 595:1.0 700:1.0 830:1.0 922:1.0 938:1.0 1108:1.0 1254:1.0 1283:1.0 1690:1.0 1870:1.0 2367:1.0 2764:1.0 2765:1.0 2766:1.0 2767:1.0 2768:1.0 2769:1.0 2770:1.0 2771:1.0 
8.087488296435307E-5 0:1.0 4:1.0 5:1.0 6:1.0 8:1.0 10:1.0 11:1.0 13:1.0 16:1.0 17:1.0 21:1.0 22:1.0 28:1.0 39:1.0 45:1.0 49:1.0 51:1.0 52:1.0 54:1.0 55:1.0 56:1.0 57:1.0 58:1.0 62:1.0 65:1.0 66:1.0 67:1.0 68:1.0 69:1.0 73:1.0 80:1.0 82:1.0 83:1.0 84:1.0 85:1.0 88:1.0 91:1.0 94:1.0 95:1.0 101:1.0 106:1.0 109:1.0 110:1.0 111:1.0 116:1.0 126:1.0 129:1.0 131:1.0 135:1.0 143:1.0 144:1.0 145:1.0 146:1.0 148:1.0 151:1.0 152:1.0 154:1.0 155:1.0 160:1.0 167:1.0 178:1.0 189:1.0 193:1.0 195:1.0 199:1.0 201:1.0 202:1.0 203:1.0 205:1.0 206:1.0 213:1.0 215:1.0 219:1.0 221:1.0 224:1.0 227:1.0 229:1.0 235:1.0 239:1.0 243:1.0 244:1.0 245:1.0 251:1.0 252:1.0 253:1.0 255:1.0 256:1.0 258:1.0 259:1.0 264:1.0 266:1.0 267:1.0 272:1.0 275:1.0 280:1.0 282:1.0 286:1.0 288:1.0 305:1.0 307:1.0 309:1.0 312:1.0 316:1.0 321:1.0 324:1.0 326:1.0 336:1.0 344:1.0 347:1.0 356:1.0 360:1.0 361:1.0 376:1.0 386:1.0 394:1.0 398:1.0 400:1.0 403:1.0 405:1.0 407:1.0 412:1.0 416:1.0 425:1.0 426:1.0 445:1.0 447:1.0 449:1.0 455:1.0 461:1.0 464:1.0 465:1.0 466:1.0 468:1.0 469:1.0 470:1.0 471:1.0 478:1.0 480:1.0 484:1.0 497:1.0 499:1.0 509:1.0 511:1.0 512:1.0 513:1.0 514:1.0 516:1.0 518:1.0 519:1.0 530:1.0 531:1.0 538:1.0 541:1.0 543:1.0 545:1.0 547:1.0 548:1.0 549:1.0 550:1.0 555:1.0 556:1.0 558:1.0 560:1.0 561:1.0 562:1.0 569:1.0 587:1.0 591:1.0 601:1.0 606:1.0 627:1.0 662:1.0 663:1.0 691:1.0 695:1.0 717:1.0 749:1.0 765:1.0 771:1.0 773:1.0 774:1.0 788:1.0 822:1.0 842:1.0 855:1.0 862:1.0 893:1.0 913:1.0 919:1.0 944:1.0 1043:1.0 1058:1.0 1062:1.0 1154:1.0 1155:1.0 1158:1.0 1195:1.0 1259:1.0 1270:1.0 1295:1.0 1304:1.0 1306:1.0 1322:1.0 1329:1.0 1341:1.0 1369:1.0 1587:1.0 1589:1.0 1983:1.0 1995:1.0 2022:1.0 2772:1.0 2773:1.0 2774:1.0 2775:1.0 2776:1.0 2777:1.0 2778:1.0 2779:1.0 2780:1.0 2781:1.0 2782:1.0 2783:1.0 2784:1.0 2785:1.0 2786:1.0 2787:1.0 2788:1.0 2789:1.0 2790:1.0 2791:1.0 2792:1.0 2793:1.0 2794:1.0 2795:1.0 2796:1.0 2797:1.0 2798:1.0 2799:1.0 2800:1.0 2801:1.0 2802:1.0 2803:1.0 2804:1.0 
5.04110007534913E-4 0:1.0 4:1.0 5:1.0 8:1.0 9:1.0 11:1.0 13:1.0 16:1.0 39:1.0 50:1.0 51:1.0 52:1.0 54:1.0 56:1.0 57:1.0 67:1.0 74:1.0 75:1.0 76:1.0 80:1.0 82:1.0 83:1.0 84:1.0 87:1.0 97:1.0 106:1.0 107:1.0 110:1.0 111:1.0 113:1.0 116:1.0 126:1.0 129:1.0 130:1.0 131:1.0 135:1.0 151:1.0 152:1.0 183:1.0 188:1.0 201:1.0 205:1.0 256:1.0 261:1.0 279:1.0 280:1.0 307:1.0 312:1.0 313:1.0 321:1.0 333:1.0 343:1.0 366:1.0 391:1.0 392:1.0 399:1.0 465:1.0 466:1.0 474:1.0 484:1.0 509:1.0 511:1.0 512:1.0 513:1.0 516:1.0 527:1.0 530:1.0 540:1.0 547:1.0 550:1.0 551:1.0 555:1.0 556:1.0 562:1.0 565:1.0 595:1.0 643:1.0 656:1.0 855:1.0 870:1.0 874:1.0 879:1.0 938:1.0 942:1.0 948:1.0 1031:1.0 1034:1.0 1042:1.0 1095:1.0 1118:1.0 1122:1.0 1136:1.0 1206:1.0 1250:1.0 1329:1.0 1370:1.0 1376:1.0 1424:1.0 1469:1.0 1503:1.0 1574:1.0 1584:1.0 1591:1.0 1628:1.0 1724:1.0 1919:1.0 2154:1.0 2161:1.0 2172:1.0 2194:1.0 2252:1.0 2326:1.0 2359:1.0 2576:1.0 2591:1.0 2723:1.0 2765:1.0 2805:1.0 2806:1.0 2807:1.0 2808:1.0 2809:1.0 2810:1.0 2811:1.0 2812:1.0 2813:1.0 2814:1.0 2815:1.0 2816:1.0 2817:1.0 2818:1.0 2819:1.0 2820:1.0 2821:1.0 2822:1.0 2823:1.0 2824:1.0 2825:1.0 2826:1.0 2827:1.0 2828:1.0 2829:1.0 2830:1.0 2831:1.0 2832:1.0 2833:1.0 2834:1.0 2835:1.0 2836:1.0 2837:1.0 2838:1.0 2839:1.0 2840:1.0 2841:1.0 2842:1.0 2843:1.0 2844:1.0 2845:1.0 2846:1.0 2847:1.0 2848:1.0 2849:1.0 2850:1.0 2851:1.0 2852:1.0 2853:1.0 2854:1.0 2855:1.0 2856:1.0 2857:1.0 2858:1.0 2859:1.0 2860:1.0 2861:1.0 2862:1.0 2863:1.0 2864:1.0 2865:1.0 2866:1.0 2867:1.0 2868:1.0 2869:1.0 2870:1.0 2871:1.0 2872:1.0 2873:1.0 2874:1.0 
0.008111432252683976 0:1.0 4:1.0 5:1.0 6:1.0 8:1.0 11:1.0 13:1.0 39:1.0 42:1.0 54:1.0 56:1.0 57:1.0 58:1.0 61:1.0 80:1.0 82:1.0 87:1.0 110:1.0 111:1.0 116:1.0 163:1.0 188:1.0 190:1.0 258:1.0 262:1.0 305:1.0 354:1.0 373:1.0 388:1.0 392:1.0 400:1.0 407:1.0 465:1.0 512:1.0 516:1.0 547:1.0 556:1.0 560:1.0 562:1.0 582:1.0 610:1.0 837:1.0 880:1.0 941:1.0 1015:1.0 1111:1.0 1122:1.0 1155:1.0 1291:1.0 1440:1.0 1453:1.0 1671:1.0 1793:1.0 1981:1.0 1984:1.0 2025:1.0 2456:1.0 2457:1.0 2508:1.0 2575:1.0 2671:1.0 3057:1.0 3165:1.0 3169:1.0 3170:1.0 3171:1.0 3172:1.0 3173:1.0 3174:1.0 3175:1.0 3176:1.0 3177:1.0 3178:1.0 3179:1.0 3180:1.0 3181:1.0 3182:1.0 3183:1.0 3184:1.0 3185:1.0 3186:1.0 3187:1.0 3188:1.0 3189:1.0 3190:1.0 3191:1.0 3192:1.0 3193:1.0 3194:1.0 3195:1.0 3196:1.0 
0.005575089324089392 1:1.0 5:1.0 8:1.0 11:1.0 12:1.0 13:1.0 21:1.0 28:1.0 31:1.0 39:1.0 44:1.0 45:1.0 52:1.0 54:1.0 56:1.0 57:1.0 65:1.0 66:1.0 67:1.0 68:1.0 69:1.0 72:1.0 73:1.0 74:1.0 78:1.0 79:1.0 80:1.0 84:1.0 87:1.0 91:1.0 100:1.0 101:1.0 106:1.0 107:1.0 110:1.0 111:1.0 116:1.0 119:1.0 121:1.0 126:1.0 131:1.0 132:1.0 133:1.0 134:1.0 135:1.0 140:1.0 152:1.0 153:1.0 170:1.0 184:1.0 185:1.0 196:1.0 237:1.0 242:1.0 243:1.0 255:1.0 256:1.0 294:1.0 296:1.0 317:1.0 318:1.0 340:1.0 341:1.0 354:1.0 372:1.0 376:1.0 390:1.0 399:1.0 445:1.0 466:1.0 467:1.0 491:1.0 499:1.0 500:1.0 513:1.0 516:1.0 530:1.0 532:1.0 540:1.0 554:1.0 567:1.0 568:1.0 569:1.0 580:1.0 606:1.0 646:1.0 774:1.0 900:1.0 919:1.0 926:1.0 996:1.0 1255:1.0 2668:1.0 3018:1.0 3197:1.0 3198:1.0 3199:1.0 3200:1.0 3201:1.0 3202:1.0 3203:1.0 3204:1.0 3205:1.0 3206:1.0 
0.0012811104872494747 0:1.0 1:1.0 5:1.0 6:1.0 8:1.0 10:1.0 12:1.0 13:1.0 16:1.0 21:1.0 22:1.0 28:1.0 39:1.0 44:1.0 47:1.0 49:1.0 50:1.0 51:1.0 52:1.0 54:1.0 56:1.0 57:1.0 65:1.0 66:1.0 68:1.0 73:1.0 74:1.0 77:1.0 78:1.0 79:1.0 80:1.0 82:1.0 85:1.0 91:1.0 95:1.0 100:1.0 101:1.0 106:1.0 107:1.0 109:1.0 110:1.0 111:1.0 112:1.0 113:1.0 116:1.0 117:1.0 121:1.0 122:1.0 124:1.0 126:1.0 131:1.0 132:1.0 133:1.0 134:1.0 135:1.0 136:1.0 140:1.0 151:1.0 158:1.0 170:1.0 188:1.0 191:1.0 201:1.0 223:1.0 229:1.0 232:1.0 237:1.0 242:1.0 252:1.0 255:1.0 256:1.0 268:1.0 286:1.0 288:1.0 307:1.0 312:1.0 318:1.0 321:1.0 324:1.0 340:1.0 341:1.0 354:1.0 364:1.0 382:1.0 386:1.0 392:1.0 399:1.0 400:1.0 410:1.0 412:1.0 465:1.0 478:1.0 484:1.0 488:1.0 499:1.0 511:1.0 513:1.0 527:1.0 545:1.0 552:1.0 555:1.0 556:1.0 558:1.0 561:1.0 569:1.0 570:1.0 572:1.0 573:1.0 574:1.0 580:1.0 582:1.0 587:1.0 590:1.0 596:1.0 600:1.0 606:1.0 618:1.0 627:1.0 630:1.0 631:1.0 634:1.0 640:1.0 644:1.0 646:1.0 650:1.0 684:1.0 706:1.0 709:1.0 768:1.0 769:1.0 819:1.0 846:1.0 874:1.0 934:1.0 945:1.0 979:1.0 1031:1.0 1034:1.0 1112:1.0 1122:1.0 1176:1.0 1185:1.0 1209:1.0 1258:1.0 1283:1.0 1287:1.0 1329:1.0 1336:1.0 1564:1.0 1574:1.0 1603:1.0 2459:1.0 2703:1.0 3054:1.0 3153:1.0 3207:1.0 3208:1.0 3209:1.0 3210:1.0 3211:1.0 3212:1.0 3213:1.0 3214:1.0 3215:1.0 3216:1.0 3217:1.0 3218:1.0 3219:1.0 3220:1.0 3221:1.0 3222:1.0 3223:1.0 3224:1.0 3225:1.0 3226:1.0 3227:1.0 3228:1.0 3229:1.0 3230:1.0 3231:1.0 3232:1.0 3233:1.0 3234:1.0 3235:1.0 
0.004260446074234622 0:1.0 1:1.0 4:1.0 5:1.0 6:1.0 10:1.0 16:1.0 28:1.0 39:1.0 42:1.0 52:1.0 54:1.0 56:1.0 80:1.0 82:1.0 106:1.0 107:1.0 110:1.0 111:1.0 112:1.0 116:1.0 126:1.0 131:1.0 163:1.0 190:1.0 201:1.0 250:1.0 255:1.0 258:1.0 261:1.0 262:1.0 296:1.0 305:1.0 354:1.0 365:1.0 373:1.0 396:1.0 400:1.0 407:1.0 449:1.0 465:1.0 466:1.0 478:1.0 516:1.0 547:1.0 556:1.0 560:1.0 609:1.0 652:1.0 796:1.0 837:1.0 948:1.0 1037:1.0 1052:1.0 1091:1.0 1096:1.0 1104:1.0 1108:1.0 1174:1.0 1203:1.0 1218:1.0 1393:1.0 1407:1.0 1440:1.0 1455:1.0 1518:1.0 1600:1.0 1671:1.0 1794:1.0 1818:1.0 1870:1.0 1919:1.0 1937:1.0 1981:1.0 1984:1.0 2236:1.0 2456:1.0 2653:1.0 2655:1.0 2659:1.0 2663:1.0 2666:1.0 2680:1.0 2685:1.0 3057:1.0 3088:1.0 3171:1.0 3176:1.0 3177:1.0 3178:1.0 3183:1.0 3186:1.0 3190:1.0 3191:1.0 3192:1.0 3193:1.0 3196:1.0 3345:1.0 3346:1.0 3347:1.0 3348:1.0 3349:1.0 3350:1.0 3351:1.0 3352:1.0 3353:1.0 3354:1.0 3355:1.0 3356:1.0 3357:1.0 3358:1.0 3359:1.0 
0.008121427097722358 0:1.0 5:1.0 8:1.0 11:1.0 39:1.0 42:1.0 51:1.0 52:1.0 54:1.0 56:1.0 57:1.0 83:1.0 84:1.0 87:1.0 111:1.0 113:1.0 116:1.0 122:1.0 131:1.0 204:1.0 240:1.0 307:1.0 386:1.0 465:1.0 513:1.0 533:1.0 547:1.0 551:1.0 552:1.0 556:1.0 633:1.0 651:1.0 855:1.0 872:1.0 1031:1.0 1037:1.0 1043:1.0 1244:1.0 1469:1.0 1485:1.0 1486:1.0 1488:1.0 1490:1.0 1506:1.0 1527:1.0 1591:1.0 1612:1.0 1619:1.0 1624:1.0 1625:1.0 1627:1.0 1630:1.0 1633:1.0 1659:1.0 1670:1.0 1709:1.0 1759:1.0 1837:1.0 2203:1.0 2917:1.0 2932:1.0 2939:1.0 2974:1.0 3281:1.0 3316:1.0 3388:1.0 3389:1.0 3390:1.0 3391:1.0 3392:1.0 3393:1.0 3394:1.0 3395:1.0 3396:1.0 3397:1.0 3398:1.0 3399:1.0 3400:1.0 3401:1.0 3402:1.0 3403:1.0 3404:1.0 3405:1.0 
0.009599485125493423 0:1.0 5:1.0 10:1.0 11:1.0 13:1.0 21:1.0 28:1.0 45:1.0 47:1.0 51:1.0 52:1.0 54:1.0 56:1.0 57:1.0 58:1.0 61:1.0 80:1.0 87:1.0 106:1.0 110:1.0 111:1.0 116:1.0 124:1.0 126:1.0 131:1.0 151:1.0 188:1.0 249:1.0 255:1.0 256:1.0 337:1.0 388:1.0 392:1.0 399:1.0 465:1.0 502:1.0 513:1.0 516:1.0 530:1.0 547:1.0 550:1.0 556:1.0 562:1.0 610:1.0 640:1.0 730:1.0 880:1.0 1015:1.0 1091:1.0 1107:1.0 1255:1.0 1291:1.0 1329:1.0 1415:1.0 1417:1.0 1453:1.0 1470:1.0 1518:1.0 1632:1.0 1671:1.0 1685:1.0 1793:1.0 1893:1.0 2025:1.0 2045:1.0 2083:1.0 2447:1.0 2457:1.0 2508:1.0 2575:1.0 2587:1.0 2671:1.0 2858:1.0 3165:1.0 3169:1.0 3170:1.0 3172:1.0 3174:1.0 3175:1.0 3178:1.0 3181:1.0 3185:1.0 3187:1.0 3194:1.0 3195:1.0 3347:1.0 3351:1.0 3355:1.0 3406:1.0 3407:1.0 3408:1.0 3409:1.0 3410:1.0 3411:1.0 3412:1.0 3413:1.0 3414:1.0 3415:1.0 3416:1.0 3417:1.0 3418:1.0 3419:1.0 3420:1.0 
6.238597743557342E-4 0:1.0 5:1.0 6:1.0 8:1.0 11:1.0 13:1.0 16:1.0 21:1.0 28:1.0 41:1.0 45:1.0 51:1.0 52:1.0 54:1.0 56:1.0 57:1.0 67:1.0 73:1.0 80:1.0 82:1.0 83:1.0 84:1.0 86:1.0 107:1.0 109:1.0 110:1.0 111:1.0 112:1.0 116:1.0 124:1.0 126:1.0 129:1.0 131:1.0 133:1.0 135:1.0 136:1.0 144:1.0 180:1.0 199:1.0 201:1.0 214:1.0 224:1.0 232:1.0 234:1.0 235:1.0 271:1.0 286:1.0 289:1.0 296:1.0 307:1.0 321:1.0 322:1.0 326:1.0 343:1.0 354:1.0 356:1.0 366:1.0 368:1.0 376:1.0 382:1.0 386:1.0 399:1.0 400:1.0 407:1.0 415:1.0 421:1.0 425:1.0 443:1.0 452:1.0 465:1.0 486:1.0 488:1.0 499:1.0 530:1.0 547:1.0 550:1.0 552:1.0 553:1.0 562:1.0 581:1.0 700:1.0 738:1.0 745:1.0 779:1.0 860:1.0 872:1.0 917:1.0 938:1.0 968:1.0 979:1.0 1027:1.0 1029:1.0 1072:1.0 1100:1.0 1101:1.0 1122:1.0 1130:1.0 1242:1.0 1346:1.0 1370:1.0 1377:1.0 1452:1.0 1469:1.0 1485:1.0 1486:1.0 1488:1.0 1490:1.0 1584:1.0 1600:1.0 1628:1.0 1633:1.0 1699:1.0 1713:1.0 1764:1.0 1842:1.0 1983:1.0 2019:1.0 2057:1.0 2121:1.0 2147:1.0 2259:1.0 2419:1.0 2423:1.0 2456:1.0 2477:1.0 2482:1.0 2496:1.0 2504:1.0 2550:1.0 2675:1.0 2691:1.0 2844:1.0 2946:1.0 2960:1.0 2970:1.0 3008:1.0 3039:1.0 3043:1.0 3081:1.0 3092:1.0 3129:1.0 3155:1.0 3407:1.0 3451:1.0 3461:1.0 3472:1.0 3473:1.0 3474:1.0 3475:1.0 3476:1.0 3477:1.0 3478:1.0 3479:1.0 3480:1.0 3481:1.0 3482:1.0 3483:1.0 3484:1.0 3485:1.0 3486:1.0 3487:1.0 3488:1.0 3489:1.0 3490:1.0 3491:1.0 3492:1.0 3493:1.0 3494:1.0 3495:1.0 3496:1.0 3497:1.0 3498:1.0 3499:1.0 3500:1.0 3501:1.0 3502:1.0 3503:1.0 3504:1.0 3505:1.0 3506:1.0 3507:1.0 3508:1.0 3509:1.0 3510:1.0 3511:1.0 3512:1.0 3513:1.0 3514:1.0 3515:1.0 3516:1.0 3517:1.0 3518:1.0 3519:1.0 3520:1.0 3521:1.0 3522:1.0 3523:1.0 3524:1.0 3525:1.0 3526:1.0 3527:1.0 3528:1.0 3529:1.0 3530:1.0 3531:1.0 3532:1.0 3533:1.0 3534:1.0 3535:1.0 3536:1.0 
0.0023471388450624596 0:1.0 1:1.0 5:1.0 8:1.0 13:1.0 16:1.0 28:1.0 47:1.0 50:1.0 51:1.0 52:1.0 54:1.0 56:1.0 57:1.0 71:1.0 73:1.0 80:1.0 83:1.0 85:1.0 88:1.0 90:1.0 106:1.0 107:1.0 108:1.0 110:1.0 111:1.0 116:1.0 129:1.0 131:1.0 135:1.0 201:1.0 229:1.0 235:1.0 256:1.0 307:1.0 312:1.0 321:1.0 337:1.0 343:1.0 366:1.0 516:1.0 534:1.0 547:1.0 560:1.0 569:1.0 717:1.0 1037:1.0 1259:1.0 1346:1.0 1428:1.0 1469:1.0 1485:1.0 1486:1.0 1488:1.0 1490:1.0 1685:1.0 1698:1.0 1761:1.0 1782:1.0 1846:1.0 2466:1.0 2564:1.0 2707:1.0 2777:1.0 2781:1.0 2818:1.0 2917:1.0 2987:1.0 3025:1.0 3494:1.0 3495:1.0 3529:1.0 3537:1.0 3538:1.0 3539:1.0 3540:1.0 3541:1.0 3542:1.0 3543:1.0 3544:1.0 3545:1.0 3546:1.0 3547:1.0 3548:1.0 3549:1.0 3550:1.0 3551:1.0 3552:1.0 3553:1.0 3554:1.0 3555:1.0 3556:1.0 3557:1.0 3558:1.0 3559:1.0 3560:1.0 3561:1.0 3562:1.0 3563:1.0 3564:1.0 3565:1.0 3566:1.0 3567:1.0 
2.3158733302906985E-4 0:1.0 1:1.0 5:1.0 6:1.0 8:1.0 11:1.0 13:1.0 39:1.0 42:1.0 51:1.0 54:1.0 56:1.0 57:1.0 67:1.0 73:1.0 80:1.0 82:1.0 106:1.0 110:1.0 111:1.0 112:1.0 116:1.0 124:1.0 126:1.0 129:1.0 135:1.0 136:1.0 147:1.0 151:1.0 189:1.0 201:1.0 232:1.0 245:1.0 249:1.0 255:1.0 256:1.0 261:1.0 262:1.0 307:1.0 312:1.0 321:1.0 343:1.0 372:1.0 400:1.0 407:1.0 465:1.0 484:1.0 509:1.0 513:1.0 514:1.0 516:1.0 530:1.0 555:1.0 565:1.0 609:1.0 610:1.0 683:1.0 860:1.0 899:1.0 936:1.0 938:1.0 941:1.0 948:1.0 966:1.0 992:1.0 1048:1.0 1151:1.0 1189:1.0 1244:1.0 1368:1.0 1390:1.0 1394:1.0 1440:1.0 1461:1.0 1469:1.0 1584:1.0 1600:1.0 1756:1.0 1883:1.0 2237:1.0 2456:1.0 2457:1.0 2527:1.0 2653:1.0 2671:1.0 2707:1.0 2844:1.0 2863:1.0 3108:1.0 3177:1.0 3266:1.0 3380:1.0 3388:1.0 3445:1.0 3568:1.0 3569:1.0 3570:1.0 3571:1.0 3572:1.0 3573:1.0 3574:1.0 3575:1.0 3576:1.0 3577:1.0 3578:1.0 3579:1.0 3580:1.0 3581:1.0 3582:1.0 3583:1.0 3584:1.0 3585:1.0 3586:1.0 3587:1.0 3588:1.0 3589:1.0 3590:1.0 3591:1.0 3592:1.0 3593:1.0 3594:1.0 3595:1.0 3596:1.0 3597:1.0 3598:1.0 3599:1.0 3600:1.0 3601:1.0 3602:1.0 3603:1.0 
6.817177401883401E-5 0:1.0 1:1.0 5:1.0 39:1.0 42:1.0 45:1.0 51:1.0 54:1.0 73:1.0 80:1.0 82:1.0 86:1.0 103:1.0 104:1.0 105:1.0 110:1.0 111:1.0 112:1.0 116:1.0 126:1.0 135:1.0 188:1.0 199:1.0 201:1.0 232:1.0 255:1.0 280:1.0 296:1.0 312:1.0 321:1.0 376:1.0 399:1.0 412:1.0 465:1.0 502:1.0 509:1.0 516:1.0 526:1.0 550:1.0 555:1.0 573:1.0 576:1.0 595:1.0 606:1.0 627:1.0 633:1.0 723:1.0 734:1.0 855:1.0 938:1.0 1096:1.0 1125:1.0 1145:1.0 1377:1.0 1411:1.0 1584:1.0 1921:1.0 1960:1.0 2082:1.0 2419:1.0 2457:1.0 2466:1.0 2926:1.0 2946:1.0 3000:1.0 3147:1.0 3149:1.0 3264:1.0 3312:1.0 3381:1.0 3604:1.0 3605:1.0 3606:1.0 3607:1.0 3608:1.0 3609:1.0 3610:1.0 3611:1.0 3612:1.0 3613:1.0 3614:1.0 3615:1.0 3616:1.0 3617:1.0 3618:1.0 3619:1.0 3620:1.0 3621:1.0 3622:1.0 3623:1.0 3624:1.0 3625:1.0 3626:1.0 3627:1.0 3628:1.0 3629:1.0 3630:1.0 3631:1.0 3632:1.0 3633:1.0 3634:1.0 
2.4493485781002097E-4 0:1.0 4:1.0 5:1.0 10:1.0 11:1.0 16:1.0 28:1.0 42:1.0 45:1.0 51:1.0 54:1.0 56:1.0 57:1.0 64:1.0 73:1.0 80:1.0 82:1.0 84:1.0 86:1.0 91:1.0 98:1.0 104:1.0 105:1.0 109:1.0 110:1.0 111:1.0 116:1.0 126:1.0 129:1.0 131:1.0 135:1.0 136:1.0 188:1.0 199:1.0 201:1.0 232:1.0 255:1.0 267:1.0 278:1.0 280:1.0 289:1.0 296:1.0 312:1.0 321:1.0 367:1.0 376:1.0 377:1.0 399:1.0 400:1.0 407:1.0 412:1.0 502:1.0 509:1.0 514:1.0 516:1.0 526:1.0 547:1.0 555:1.0 556:1.0 558:1.0 573:1.0 591:1.0 597:1.0 601:1.0 606:1.0 612:1.0 695:1.0 700:1.0 723:1.0 839:1.0 855:1.0 948:1.0 1031:1.0 1125:1.0 1145:1.0 1185:1.0 1194:1.0 1199:1.0 1315:1.0 1377:1.0 1425:1.0 1453:1.0 1530:1.0 1584:1.0 1613:1.0 1681:1.0 1793:1.0 1835:1.0 1921:1.0 1960:1.0 2026:1.0 2082:1.0 2109:1.0 2313:1.0 2359:1.0 2447:1.0 2457:1.0 2466:1.0 2761:1.0 2773:1.0 2778:1.0 2894:1.0 2940:1.0 3005:1.0 3149:1.0 3163:1.0 3182:1.0 3264:1.0 3312:1.0 3381:1.0 3544:1.0 3604:1.0 3605:1.0 3608:1.0 3609:1.0 3614:1.0 3617:1.0 3619:1.0 3621:1.0 3622:1.0 3623:1.0 3624:1.0 3627:1.0 3629:1.0 3630:1.0 3633:1.0 3634:1.0 3682:1.0 3683:1.0 3684:1.0 3685:1.0 3686:1.0 3687:1.0 3688:1.0 3689:1.0 3690:1.0 3691:1.0 3692:1.0 3693:1.0 3694:1.0 3695:1.0 3696:1.0 3697:1.0 3698:1.0 3699:1.0 
1.0 0:1.0 5:1.0 10:1.0 21:1.0 28:1.0 52:1.0 54:1.0 80:1.0 82:1.0 110:1.0 111:1.0 116:1.0 131:1.0 400:1.0 484:1.0 516:1.0 547:1.0 573:1.0 577:1.0 609:1.0 679:1.0 941:1.0 1081:1.0 1189:1.0 1295:1.0 1341:1.0 1370:1.0 1415:1.0 1428:1.0 1435:1.0 1518:1.0 1589:1.0 1754:1.0 1767:1.0 1775:1.0 1796:1.0 1819:1.0 1834:1.0 1846:1.0 1848:1.0 1871:1.0 1881:1.0 1901:1.0 1945:1.0 1951:1.0 1991:1.0 2028:1.0 2079:1.0 2087:1.0 3223:1.0 3674:1.0 3700:1.0 3701:1.0 3702:1.0 3703:1.0 3704:1.0 3705:1.0 3706:1.0 3707:1.0 3708:1.0 3709:1.0 
3.9849977160150585E-4 0:1.0 1:1.0 5:1.0 8:1.0 9:1.0 10:1.0 11:1.0 16:1.0 21:1.0 39:1.0 42:1.0 48:1.0 51:1.0 52:1.0 54:1.0 56:1.0 57:1.0 67:1.0 71:1.0 72:1.0 80:1.0 82:1.0 85:1.0 86:1.0 87:1.0 101:1.0 106:1.0 110:1.0 111:1.0 116:1.0 126:1.0 129:1.0 131:1.0 135:1.0 147:1.0 151:1.0 153:1.0 160:1.0 199:1.0 201:1.0 214:1.0 296:1.0 312:1.0 313:1.0 322:1.0 343:1.0 349:1.0 372:1.0 377:1.0 378:1.0 393:1.0 399:1.0 407:1.0 419:1.0 465:1.0 484:1.0 486:1.0 487:1.0 488:1.0 509:1.0 511:1.0 513:1.0 514:1.0 516:1.0 525:1.0 540:1.0 547:1.0 557:1.0 560:1.0 562:1.0 573:1.0 595:1.0 610:1.0 860:1.0 946:1.0 1023:1.0 1081:1.0 1125:1.0 1177:1.0 1199:1.0 1244:1.0 1329:1.0 1417:1.0 1450:1.0 1469:1.0 1515:1.0 1568:1.0 1574:1.0 1612:1.0 1630:1.0 1640:1.0 1793:1.0 1859:1.0 1896:1.0 2026:1.0 2238:1.0 2461:1.0 2548:1.0 2760:1.0 2898:1.0 2929:1.0 2940:1.0 2984:1.0 3000:1.0 3176:1.0 3341:1.0 3383:1.0 3710:1.0 3711:1.0 3712:1.0 3713:1.0 3714:1.0 3715:1.0 3716:1.0 3717:1.0 3718:1.0 3719:1.0 3720:1.0 3721:1.0 3722:1.0 3723:1.0 3724:1.0 3725:1.0 3726:1.0 3727:1.0 3728:1.0 3729:1.0 3730:1.0 3731:1.0 3732:1.0 3733:1.0 3734:1.0 3735:1.0 3736:1.0 3737:1.0 3738:1.0 3739:1.0 3740:1.0 3741:1.0 3742:1.0 3743:1.0 3744:1.0 3745:1.0 3746:1.0 3747:1.0 3748:1.0 3749:1.0 3750:1.0 3751:1.0 3752:1.0 3753:1.0 3754:1.0 3755:1.0 3756:1.0 3757:1.0 3758:1.0 3759:1.0 3760:1.0 3761:1.0 3762:1.0 3763:1.0 3764:1.0 3765:1.0 3766:1.0 3767:1.0 3768:1.0 
1.7577894610150077E-4 0:1.0 1:1.0 4:1.0 5:1.0 8:1.0 11:1.0 13:1.0 16:1.0 17:1.0 19:1.0 21:1.0 30:1.0 39:1.0 45:1.0 47:1.0 51:1.0 52:1.0 54:1.0 56:1.0 57:1.0 64:1.0 67:1.0 69:1.0 72:1.0 73:1.0 75:1.0 80:1.0 82:1.0 83:1.0 84:1.0 86:1.0 87:1.0 91:1.0 106:1.0 109:1.0 110:1.0 111:1.0 112:1.0 116:1.0 124:1.0 126:1.0 129:1.0 131:1.0 135:1.0 136:1.0 199:1.0 201:1.0 213:1.0 245:1.0 253:1.0 255:1.0 256:1.0 280:1.0 283:1.0 307:1.0 312:1.0 321:1.0 343:1.0 346:1.0 358:1.0 372:1.0 375:1.0 392:1.0 393:1.0 399:1.0 400:1.0 407:1.0 439:1.0 453:1.0 465:1.0 469:1.0 486:1.0 487:1.0 506:1.0 509:1.0 510:1.0 512:1.0 513:1.0 514:1.0 516:1.0 530:1.0 533:1.0 534:1.0 539:1.0 551:1.0 552:1.0 555:1.0 557:1.0 558:1.0 596:1.0 652:1.0 653:1.0 693:1.0 695:1.0 716:1.0 732:1.0 750:1.0 755:1.0 808:1.0 855:1.0 872:1.0 938:1.0 941:1.0 973:1.0 994:1.0 1037:1.0 1053:1.0 1104:1.0 1149:1.0 1177:1.0 1244:1.0 1255:1.0 1294:1.0 1322:1.0 1327:1.0 1425:1.0 1436:1.0 1469:1.0 1485:1.0 1486:1.0 1488:1.0 1490:1.0 1494:1.0 1559:1.0 1562:1.0 1574:1.0 1583:1.0 1588:1.0 1593:1.0 1600:1.0 1609:1.0 1618:1.0 1622:1.0 1628:1.0 1631:1.0 1633:1.0 1638:1.0 1639:1.0 1654:1.0 1671:1.0 1685:1.0 1753:1.0 1762:1.0 1862:1.0 1870:1.0 1885:1.0 1928:1.0 1984:1.0 2087:1.0 2105:1.0 2174:1.0 2292:1.0 2405:1.0 2418:1.0 2501:1.0 2506:1.0 2572:1.0 2863:1.0 2888:1.0 2914:1.0 2938:1.0 2940:1.0 2944:1.0 2947:1.0 2949:1.0 2951:1.0 2952:1.0 2953:1.0 2957:1.0 2958:1.0 2959:1.0 2960:1.0 2961:1.0 2965:1.0 2967:1.0 2968:1.0 2969:1.0 2970:1.0 2971:1.0 2973:1.0 2974:1.0 2975:1.0 2980:1.0 3000:1.0 3112:1.0 3163:1.0 3263:1.0 3290:1.0 3295:1.0 3312:1.0 3389:1.0 3398:1.0 3454:1.0 3517:1.0 3615:1.0 3630:1.0 3742:1.0 3769:1.0 3770:1.0 3771:1.0 3772:1.0 3773:1.0 3774:1.0 3775:1.0 3776:1.0 3777:1.0 3778:1.0 3779:1.0 3780:1.0 3781:1.0 3782:1.0 3783:1.0 3784:1.0 3785:1.0 3786:1.0 3787:1.0 3788:1.0 3789:1.0 3790:1.0 3791:1.0 3792:1.0 3793:1.0 3794:1.0 3795:1.0 3796:1.0 3797:1.0 3798:1.0 3799:1.0 3800:1.0 3801:1.0 3802:1.0 3803:1.0 3804:1.0 3805:1.0 3806:1.0 3807:1.0 3808:1.0 3809:1.0 3810:1.0 3811:1.0 3812:1.0 3813:1.0 3814:1.0 3815:1.0 3816:1.0 3817:1.0 3818:1.0 3819:1.0 3820:1.0 3821:1.0 3822:1.0 3823:1.0 3824:1.0 3825:1.0 3826:1.0 3827:1.0 
0.0029464841891997545 0:1.0 5:1.0 6:1.0 8:1.0 10:1.0 11:1.0 22:1.0 28:1.0 45:1.0 52:1.0 54:1.0 56:1.0 73:1.0 80:1.0 83:1.0 101:1.0 106:1.0 110:1.0 111:1.0 116:1.0 126:1.0 131:1.0 135:1.0 136:1.0 153:1.0 154:1.0 201:1.0 278:1.0 286:1.0 312:1.0 321:1.0 335:1.0 343:1.0 377:1.0 399:1.0 400:1.0 465:1.0 484:1.0 516:1.0 541:1.0 562:1.0 576:1.0 581:1.0 595:1.0 606:1.0 640:1.0 645:1.0 948:1.0 1095:1.0 1140:1.0 1238:1.0 1245:1.0 1273:1.0 1370:1.0 1469:1.0 1495:1.0 1517:1.0 1518:1.0 1550:1.0 1588:1.0 1646:1.0 1655:1.0 1678:1.0 1679:1.0 1846:1.0 2069:1.0 2092:1.0 2129:1.0 2252:1.0 2404:1.0 2649:1.0 2909:1.0 3001:1.0 3149:1.0 3445:1.0 3535:1.0 3855:1.0 3856:1.0 3857:1.0 3858:1.0 3859:1.0 3860:1.0 3861:1.0 3862:1.0 3863:1.0 3864:1.0 3865:1.0 3866:1.0 3867:1.0 3868:1.0 3869:1.0 3870:1.0 3871:1.0 3872:1.0 3873:1.0 3874:1.0 3875:1.0 3876:1.0 3877:1.0 3878:1.0 3879:1.0 3880:1.0 3881:1.0 3882:1.0 3883:1.0 3884:1.0 
0.02721752923095652 0:1.0 4:1.0 10:1.0 20:1.0 28:1.0 39:1.0 43:1.0 51:1.0 54:1.0 56:1.0 71:1.0 80:1.0 84:1.0 116:1.0 124:1.0 131:1.0 204:1.0 205:1.0 225:1.0 278:1.0 300:1.0 421:1.0 513:1.0 548:1.0 551:1.0 644:1.0 650:1.0 700:1.0 718:1.0 750:1.0 1336:1.0 1469:1.0 1629:1.0 2262:1.0 3108:1.0 3598:1.0 3674:1.0 3885:1.0 3886:1.0 3887:1.0 3888:1.0 3889:1.0 3890:1.0 3891:1.0 3892:1.0 3893:1.0 3894:1.0 3895:1.0 3896:1.0 3897:1.0 3898:1.0 3899:1.0 
0.0031997283520912054 0:1.0 4:1.0 5:1.0 6:1.0 10:1.0 11:1.0 13:1.0 17:1.0 27:1.0 28:1.0 39:1.0 47:1.0 54:1.0 56:1.0 57:1.0 58:1.0 61:1.0 67:1.0 73:1.0 80:1.0 82:1.0 87:1.0 106:1.0 110:1.0 111:1.0 116:1.0 131:1.0 188:1.0 199:1.0 235:1.0 255:1.0 256:1.0 262:1.0 307:1.0 356:1.0 388:1.0 407:1.0 425:1.0 465:1.0 486:1.0 512:1.0 516:1.0 532:1.0 547:1.0 562:1.0 565:1.0 582:1.0 610:1.0 747:1.0 879:1.0 880:1.0 941:1.0 1015:1.0 1155:1.0 1291:1.0 1376:1.0 1402:1.0 1453:1.0 1518:1.0 1600:1.0 1756:1.0 1791:1.0 1793:1.0 1981:1.0 2009:1.0 2025:1.0 2457:1.0 2508:1.0 2575:1.0 2671:1.0 2825:1.0 2980:1.0 3165:1.0 3169:1.0 3170:1.0 3172:1.0 3173:1.0 3174:1.0 3175:1.0 3178:1.0 3180:1.0 3181:1.0 3182:1.0 3184:1.0 3185:1.0 3187:1.0 3188:1.0 3189:1.0 3190:1.0 3194:1.0 3195:1.0 3347:1.0 3351:1.0 3355:1.0 3591:1.0 3615:1.0 3757:1.0 3774:1.0 3850:1.0 3900:1.0 3901:1.0 3902:1.0 3903:1.0 3904:1.0 3905:1.0 3906:1.0 3907:1.0 3908:1.0 3909:1.0 3910:1.0 3911:1.0 
0.009874813190444707 0:1.0 1:1.0 10:1.0 17:1.0 39:1.0 51:1.0 54:1.0 57:1.0 78:1.0 80:1.0 84:1.0 87:1.0 106:1.0 110:1.0 111:1.0 116:1.0 129:1.0 151:1.0 189:1.0 199:1.0 205:1.0 256:1.0 278:1.0 312:1.0 321:1.0 393:1.0 400:1.0 509:1.0 512:1.0 519:1.0 550:1.0 556:1.0 559:1.0 561:1.0 562:1.0 595:1.0 635:1.0 681:1.0 839:1.0 866:1.0 1048:1.0 1095:1.0 1194:1.0 1329:1.0 1372:1.0 1382:1.0 1440:1.0 1680:1.0 1870:1.0 2480:1.0 2921:1.0 3795:1.0 3827:1.0 3891:1.0 3912:1.0 3913:1.0 3914:1.0 3915:1.0 3916:1.0 3917:1.0 3918:1.0 
0.0071239394344558594 0:1.0 1:1.0 5:1.0 6:1.0 8:1.0 11:1.0 13:1.0 17:1.0 19:1.0 21:1.0 22:1.0 28:1.0 42:1.0 45:1.0 50:1.0 51:1.0 52:1.0 54:1.0 56:1.0 57:1.0 71:1.0 73:1.0 74:1.0 80:1.0 82:1.0 84:1.0 85:1.0 87:1.0 106:1.0 108:1.0 109:1.0 110:1.0 111:1.0 112:1.0 116:1.0 124:1.0 135:1.0 144:1.0 146:1.0 151:1.0 155:1.0 188:1.0 190:1.0 199:1.0 201:1.0 255:1.0 256:1.0 335:1.0 343:1.0 368:1.0 400:1.0 412:1.0 439:1.0 465:1.0 466:1.0 474:1.0 480:1.0 484:1.0 486:1.0 499:1.0 512:1.0 513:1.0 514:1.0 525:1.0 530:1.0 547:1.0 549:1.0 555:1.0 557:1.0 562:1.0 595:1.0 609:1.0 610:1.0 618:1.0 747:1.0 775:1.0 860:1.0 922:1.0 938:1.0 943:1.0 948:1.0 993:1.0 996:1.0 1037:1.0 1108:1.0 1199:1.0 1244:1.0 1245:1.0 1254:1.0 1255:1.0 1265:1.0 1293:1.0 1298:1.0 1370:1.0 1374:1.0 1393:1.0 1414:1.0 1453:1.0 1495:1.0 1544:1.0 1584:1.0 1726:1.0 1868:1.0 1880:1.0 1896:1.0 1908:1.0 2220:1.0 2410:1.0 2456:1.0 2576:1.0 2591:1.0 2653:1.0 2661:1.0 2746:1.0 2898:1.0 2946:1.0 3140:1.0 3176:1.0 3341:1.0 3386:1.0 3919:1.0 3920:1.0 3921:1.0 3922:1.0 3923:1.0 3924:1.0 3925:1.0 3926:1.0 3927:1.0 3928:1.0 3929:1.0 3930:1.0 3931:1.0 3932:1.0 3933:1.0 3934:1.0 3935:1.0 3936:1.0 3937:1.0 3938:1.0 3939:1.0 3940:1.0 3941:1.0 3942:1.0 3943:1.0 3944:1.0 3945:1.0 3946:1.0 3947:1.0 3948:1.0 
0.0031893256341285355 0:1.0 1:1.0 11:1.0 13:1.0 17:1.0 39:1.0 51:1.0 54:1.0 56:1.0 70:1.0 71:1.0 80:1.0 83:1.0 86:1.0 87:1.0 101:1.0 106:1.0 107:1.0 110:1.0 111:1.0 113:1.0 116:1.0 126:1.0 131:1.0 154:1.0 189:1.0 199:1.0 201:1.0 249:1.0 255:1.0 278:1.0 283:1.0 296:1.0 321:1.0 366:1.0 378:1.0 392:1.0 400:1.0 465:1.0 484:1.0 513:1.0 514:1.0 515:1.0 516:1.0 527:1.0 595:1.0 610:1.0 645:1.0 793:1.0 996:1.0 1015:1.0 1035:1.0 1042:1.0 1081:1.0 1095:1.0 1108:1.0 1222:1.0 1324:1.0 1402:1.0 1428:1.0 1464:1.0 1469:1.0 1485:1.0 1486:1.0 1488:1.0 1490:1.0 1517:1.0 1655:1.0 1671:1.0 1735:1.0 1761:1.0 1791:1.0 1967:1.0 2003:1.0 2237:1.0 2336:1.0 2539:1.0 2693:1.0 2860:1.0 2863:1.0 2881:1.0 3443:1.0 3445:1.0 3591:1.0 3664:1.0 3778:1.0 3811:1.0 3949:1.0 3950:1.0 3951:1.0 3952:1.0 3953:1.0 3954:1.0 3955:1.0 3956:1.0 3957:1.0 3958:1.0 3959:1.0 3960:1.0 3961:1.0 3962:1.0 3963:1.0 3964:1.0 3965:1.0 3966:1.0 3967:1.0 3968:1.0 
0.006289323815869628 0:1.0 3:1.0 5:1.0 8:1.0 10:1.0 16:1.0 21:1.0 22:1.0 23:1.0 25:1.0 26:1.0 28:1.0 31:1.0 33:1.0 39:1.0 44:1.0 45:1.0 47:1.0 48:1.0 49:1.0 50:1.0 51:1.0 52:1.0 54:1.0 56:1.0 57:1.0 58:1.0 61:1.0 63:1.0 64:1.0 65:1.0 66:1.0 67:1.0 68:1.0 71:1.0 73:1.0 76:1.0 77:1.0 80:1.0 84:1.0 86:1.0 90:1.0 91:1.0 92:1.0 94:1.0 96:1.0 101:1.0 105:1.0 107:1.0 108:1.0 109:1.0 110:1.0 111:1.0 112:1.0 113:1.0 116:1.0 117:1.0 119:1.0 122:1.0 126:1.0 127:1.0 128:1.0 131:1.0 135:1.0 136:1.0 199:1.0 258:1.0 314:1.0 324:1.0 343:1.0 400:1.0 410:1.0 420:1.0 465:1.0 490:1.0 543:1.0 551:1.0 556:1.0 634:1.0 673:1.0 709:1.0 752:1.0 1136:1.0 1322:1.0 1494:1.0 1503:1.0 1810:1.0 2594:1.0 2974:1.0 3083:1.0 3088:1.0 3186:1.0 3310:1.0 4537:1.0 4538:1.0 
0.0025820327986297888 0:1.0 1:1.0 5:1.0 11:1.0 16:1.0 22:1.0 28:1.0 37:1.0 39:1.0 51:1.0 54:1.0 56:1.0 57:1.0 70:1.0 73:1.0 80:1.0 83:1.0 106:1.0 110:1.0 111:1.0 116:1.0 120:1.0 124:1.0 126:1.0 129:1.0 131:1.0 135:1.0 136:1.0 155:1.0 158:1.0 190:1.0 199:1.0 231:1.0 250:1.0 255:1.0 256:1.0 275:1.0 307:1.0 316:1.0 321:1.0 343:1.0 349:1.0 357:1.0 392:1.0 407:1.0 413:1.0 415:1.0 465:1.0 486:1.0 513:1.0 516:1.0 530:1.0 552:1.0 556:1.0 560:1.0 561:1.0 562:1.0 576:1.0 582:1.0 586:1.0 609:1.0 610:1.0 618:1.0 622:1.0 627:1.0 653:1.0 685:1.0 730:1.0 734:1.0 778:1.0 862:1.0 941:1.0 1007:1.0 1031:1.0 1037:1.0 1050:1.0 1123:1.0 1140:1.0 1298:1.0 1329:1.0 1336:1.0 1368:1.0 1377:1.0 1393:1.0 1404:1.0 1436:1.0 1440:1.0 1469:1.0 1489:1.0 1518:1.0 1580:1.0 1588:1.0 1628:1.0 1685:1.0 1859:1.0 1918:1.0 2140:1.0 2311:1.0 2457:1.0 2649:1.0 2653:1.0 2823:1.0 2874:1.0 2917:1.0 2962:1.0 3163:1.0 3529:1.0 3597:1.0 3617:1.0 3625:1.0 4478:1.0 4480:1.0 4545:1.0 4546:1.0 4547:1.0 4548:1.0 4549:1.0 4550:1.0 4551:1.0 4552:1.0 4553:1.0 4554:1.0 4555:1.0 4556:1.0 4557:1.0 4558:1.0 4559:1.0 4560:1.0 4561:1.0 4562:1.0 4563:1.0 4564:1.0 4565:1.0 4566:1.0 4567:1.0 4568:1.0 4569:1.0 4570:1.0 4571:1.0 4572:1.0 4573:1.0 4574:1.0 4575:1.0 4576:1.0 4577:1.0 4578:1.0 4579:1.0 4580:1.0 4581:1.0 4582:1.0 4583:1.0 4584:1.0 4585:1.0 4586:1.0 4587:1.0 4588:1.0 4589:1.0 4590:1.0 4591:1.0 4592:1.0 4593:1.0 4594:1.0 4595:1.0 4596:1.0 4597:1.0 
6.748217542756049E-4 0:1.0 1:1.0 3:1.0 4:1.0 5:1.0 10:1.0 11:1.0 16:1.0 17:1.0 19:1.0 21:1.0 22:1.0 28:1.0 37:1.0 39:1.0 51:1.0 54:1.0 56:1.0 57:1.0 70:1.0 73:1.0 76:1.0 80:1.0 82:1.0 83:1.0 85:1.0 106:1.0 110:1.0 111:1.0 112:1.0 116:1.0 124:1.0 126:1.0 129:1.0 131:1.0 146:1.0 155:1.0 158:1.0 190:1.0 193:1.0 201:1.0 231:1.0 250:1.0 255:1.0 256:1.0 275:1.0 285:1.0 305:1.0 307:1.0 313:1.0 316:1.0 321:1.0 343:1.0 349:1.0 365:1.0 378:1.0 392:1.0 407:1.0 413:1.0 416:1.0 465:1.0 486:1.0 513:1.0 516:1.0 530:1.0 532:1.0 533:1.0 552:1.0 556:1.0 560:1.0 561:1.0 562:1.0 576:1.0 586:1.0 618:1.0 622:1.0 627:1.0 653:1.0 677:1.0 685:1.0 734:1.0 778:1.0 862:1.0 1007:1.0 1031:1.0 1052:1.0 1091:1.0 1096:1.0 1108:1.0 1122:1.0 1123:1.0 1140:1.0 1298:1.0 1329:1.0 1368:1.0 1377:1.0 1393:1.0 1404:1.0 1407:1.0 1436:1.0 1440:1.0 1469:1.0 1495:1.0 1518:1.0 1580:1.0 1588:1.0 1600:1.0 1628:1.0 1632:1.0 1685:1.0 1779:1.0 1870:1.0 1937:1.0 2140:1.0 2236:1.0 2311:1.0 2501:1.0 2509:1.0 2552:1.0 2595:1.0 2649:1.0 2653:1.0 2655:1.0 2659:1.0 2663:1.0 2666:1.0 2680:1.0 2685:1.0 2855:1.0 2874:1.0 2917:1.0 2962:1.0 3042:1.0 3163:1.0 3177:1.0 3295:1.0 3312:1.0 3380:1.0 3529:1.0 3597:1.0 3617:1.0 3625:1.0 3682:1.0 4447:1.0 4545:1.0 4550:1.0 4553:1.0 4554:1.0 4556:1.0 4557:1.0 4558:1.0 4559:1.0 4560:1.0 4562:1.0 4564:1.0 4565:1.0 4567:1.0 4570:1.0 4571:1.0 4572:1.0 4573:1.0 4574:1.0 4576:1.0 4578:1.0 4579:1.0 4581:1.0 4582:1.0 4584:1.0 4586:1.0 4587:1.0 4588:1.0 4592:1.0 4593:1.0 4594:1.0 4598:1.0 4599:1.0 4600:1.0 4601:1.0 4602:1.0 4603:1.0 4604:1.0 4605:1.0 4606:1.0 4607:1.0 4608:1.0 4609:1.0 4610:1.0 4611:1.0 4612:1.0 4613:1.0 4614:1.0 4615:1.0 4616:1.0 4617:1.0 4618:1.0 4619:1.0 4620:1.0 
0.002571336406928893 0:1.0 1:1.0 4:1.0 5:1.0 6:1.0 11:1.0 13:1.0 16:1.0 21:1.0 39:1.0 51:1.0 54:1.0 56:1.0 57:1.0 71:1.0 77:1.0 80:1.0 86:1.0 106:1.0 110:1.0 111:1.0 116:1.0 124:1.0 126:1.0 129:1.0 152:1.0 175:1.0 191:1.0 199:1.0 233:1.0 235:1.0 245:1.0 251:1.0 299:1.0 307:1.0 312:1.0 321:1.0 343:1.0 376:1.0 382:1.0 400:1.0 407:1.0 450:1.0 465:1.0 469:1.0 477:1.0 499:1.0 511:1.0 516:1.0 530:1.0 534:1.0 549:1.0 551:1.0 555:1.0 561:1.0 576:1.0 625:1.0 627:1.0 642:1.0 683:1.0 685:1.0 752:1.0 869:1.0 900:1.0 922:1.0 1177:1.0 1199:1.0 1254:1.0 1327:1.0 1330:1.0 1343:1.0 1383:1.0 1414:1.0 1415:1.0 1453:1.0 1469:1.0 1495:1.0 1671:1.0 1698:1.0 1717:1.0 1726:1.0 1875:1.0 2000:1.0 2584:1.0 2746:1.0 2802:1.0 2874:1.0 3072:1.0 3103:1.0 3464:1.0 3510:1.0 3982:1.0 4200:1.0 4233:1.0 4334:1.0 4336:1.0 4337:1.0 4338:1.0 4339:1.0 4344:1.0 4345:1.0 4346:1.0 4347:1.0 4348:1.0 4507:1.0 4621:1.0 4622:1.0 4623:1.0 4624:1.0 4625:1.0 4626:1.0 4627:1.0 4628:1.0 4629:1.0 
0.0012559090568881842 0:1.0 4:1.0 5:1.0 10:1.0 11:1.0 16:1.0 21:1.0 28:1.0 39:1.0 51:1.0 52:1.0 54:1.0 56:1.0 57:1.0 64:1.0 73:1.0 80:1.0 82:1.0 84:1.0 85:1.0 91:1.0 98:1.0 104:1.0 105:1.0 109:1.0 110:1.0 111:1.0 116:1.0 129:1.0 131:1.0 132:1.0 136:1.0 138:1.0 155:1.0 199:1.0 229:1.0 232:1.0 233:1.0 245:1.0 289:1.0 307:1.0 321:1.0 349:1.0 367:1.0 377:1.0 392:1.0 399:1.0 400:1.0 407:1.0 412:1.0 469:1.0 486:1.0 509:1.0 511:1.0 513:1.0 514:1.0 516:1.0 527:1.0 530:1.0 547:1.0 552:1.0 555:1.0 556:1.0 558:1.0 560:1.0 591:1.0 597:1.0 601:1.0 612:1.0 653:1.0 695:1.0 700:1.0 718:1.0 776:1.0 815:1.0 862:1.0 938:1.0 948:1.0 1031:1.0 1034:1.0 1194:1.0 1199:1.0 1225:1.0 1315:1.0 1425:1.0 1469:1.0 1530:1.0 1613:1.0 1659:1.0 1793:1.0 1921:1.0 2026:1.0 2109:1.0 2116:1.0 2313:1.0 2359:1.0 2447:1.0 2660:1.0 2686:1.0 2761:1.0 2792:1.0 2894:1.0 2924:1.0 2940:1.0 3000:1.0 3005:1.0 3046:1.0 3163:1.0 3182:1.0 3264:1.0 3544:1.0 3617:1.0 3627:1.0 3630:1.0 3682:1.0 3684:1.0 3685:1.0 3686:1.0 3687:1.0 3688:1.0 3689:1.0 3691:1.0 3692:1.0 3693:1.0 3694:1.0 3695:1.0 3696:1.0 3698:1.0 3699:1.0 3890:1.0 4042:1.0 4284:1.0 4673:1.0 4674:1.0 4675:1.0 4676:1.0 4677:1.0 4678:1.0 4679:1.0 4680:1.0 4681:1.0 4682:1.0 4683:1.0 4684:1.0 4685:1.0 4686:1.0 4687:1.0 4688:1.0 4689:1.0 4690:1.0 4691:1.0 4692:1.0 4693:1.0 4694:1.0 4695:1.0 
0.007730726804585083 0:1.0 1:1.0 10:1.0 16:1.0 17:1.0 21:1.0 22:1.0 28:1.0 50:1.0 51:1.0 52:1.0 54:1.0 57:1.0 83:1.0 84:1.0 111:1.0 116:1.0 131:1.0 135:1.0 136:1.0 138:1.0 157:1.0 229:1.0 312:1.0 342:1.0 413:1.0 465:1.0 490:1.0 506:1.0 511:1.0 612:1.0 652:1.0 673:1.0 723:1.0 1023:1.0 1043:1.0 1464:1.0 1469:1.0 1471:1.0 1726:1.0 1810:1.0 1846:1.0 2650:1.0 2651:1.0 3273:1.0 4696:1.0 4697:1.0 4698:1.0 4699:1.0 4700:1.0 4701:1.0 4702:1.0 4703:1.0 4704:1.0 4705:1.0 4706:1.0 4707:1.0 4708:1.0 
5.107193464145944E-4 0:1.0 5:1.0 8:1.0 10:1.0 11:1.0 16:1.0 22:1.0 28:1.0 51:1.0 54:1.0 56:1.0 65:1.0 66:1.0 68:1.0 80:1.0 84:1.0 86:1.0 101:1.0 106:1.0 110:1.0 111:1.0 116:1.0 122:1.0 131:1.0 132:1.0 135:1.0 300:1.0 304:1.0 312:1.0 313:1.0 374:1.0 376:1.0 465:1.0 466:1.0 490:1.0 509:1.0 513:1.0 516:1.0 555:1.0 604:1.0 673:1.0 681:1.0 771:1.0 948:1.0 1031:1.0 1048:1.0 1081:1.0 1517:1.0 1810:1.0 1862:1.0 1952:1.0 2016:1.0 2048:1.0 2512:1.0 2569:1.0 2572:1.0 2601:1.0 2604:1.0 2605:1.0 2606:1.0 2607:1.0 2610:1.0 2612:1.0 2615:1.0 2623:1.0 2624:1.0 2625:1.0 2626:1.0 2627:1.0 2628:1.0 2634:1.0 2635:1.0 2637:1.0 2638:1.0 2645:1.0 2646:1.0 2996:1.0 3208:1.0 4709:1.0 
1.5978591583590686E-4 0:1.0 5:1.0 8:1.0 10:1.0 11:1.0 13:1.0 16:1.0 17:1.0 21:1.0 28:1.0 39:1.0 50:1.0 51:1.0 52:1.0 54:1.0 56:1.0 71:1.0 72:1.0 80:1.0 83:1.0 84:1.0 106:1.0 107:1.0 108:1.0 110:1.0 111:1.0 116:1.0 129:1.0 131:1.0 135:1.0 189:1.0 190:1.0 193:1.0 201:1.0 206:1.0 235:1.0 307:1.0 321:1.0 337:1.0 366:1.0 392:1.0 516:1.0 534:1.0 547:1.0 676:1.0 717:1.0 723:1.0 768:1.0 866:1.0 872:1.0 968:1.0 1037:1.0 1259:1.0 1288:1.0 1346:1.0 1376:1.0 1428:1.0 1469:1.0 1485:1.0 1486:1.0 1488:1.0 1490:1.0 1594:1.0 1646:1.0 1647:1.0 1658:1.0 1664:1.0 1670:1.0 1678:1.0 1679:1.0 1681:1.0 1684:1.0 1685:1.0 1761:1.0 1782:1.0 1846:1.0 2466:1.0 2482:1.0 2564:1.0 2707:1.0 2818:1.0 3025:1.0 3042:1.0 3494:1.0 3495:1.0 3529:1.0 3537:1.0 3539:1.0 3541:1.0 3544:1.0 3545:1.0 3546:1.0 3548:1.0 3550:1.0 3551:1.0 3554:1.0 3559:1.0 3560:1.0 3562:1.0 3563:1.0 3565:1.0 3567:1.0 3778:1.0 3811:1.0 4060:1.0 4688:1.0 4782:1.0 4783:1.0 4784:1.0 4785:1.0 4786:1.0 4787:1.0 4788:1.0 4789:1.0 4790:1.0 4791:1.0 4792:1.0 
0.005675340844239101 0:1.0 5:1.0 8:1.0 11:1.0 16:1.0 19:1.0 42:1.0 47:1.0 51:1.0 52:1.0 54:1.0 56:1.0 57:1.0 58:1.0 61:1.0 82:1.0 106:1.0 109:1.0 110:1.0 111:1.0 116:1.0 129:1.0 131:1.0 135:1.0 137:1.0 180:1.0 189:1.0 199:1.0 212:1.0 214:1.0 253:1.0 256:1.0 307:1.0 321:1.0 343:1.0 348:1.0 354:1.0 357:1.0 386:1.0 407:1.0 425:1.0 465:1.0 511:1.0 514:1.0 516:1.0 556:1.0 558:1.0 560:1.0 562:1.0 563:1.0 569:1.0 618:1.0 650:1.0 695:1.0 707:1.0 915:1.0 1081:1.0 1199:1.0 1255:1.0 1259:1.0 1273:1.0 1336:1.0 1342:1.0 1404:1.0 1434:1.0 1440:1.0 1469:1.0 1588:1.0 1698:1.0 1727:1.0 1793:1.0 1995:1.0 2026:1.0 2203:1.0 2213:1.0 2292:1.0 2480:1.0 2650:1.0 2700:1.0 3299:1.0 3446:1.0 3542:1.0 3598:1.0 3658:1.0 3899:1.0 4330:1.0 4503:1.0 4504:1.0 4511:1.0 4792:1.0 4806:1.0 4813:1.0 4817:1.0 4819:1.0 4831:1.0 4832:1.0 4844:1.0 5009:1.0 5074:1.0 5126:1.0 5136:1.0 5137:1.0 5138:1.0 5139:1.0 5140:1.0 5141:1.0 
8.841326519229585E-4 0:1.0 5:1.0 8:1.0 10:1.0 13:1.0 16:1.0 17:1.0 19:1.0 22:1.0 47:1.0 51:1.0 52:1.0 54:1.0 56:1.0 57:1.0 58:1.0 61:1.0 71:1.0 80:1.0 82:1.0 83:1.0 94:1.0 106:1.0 109:1.0 110:1.0 111:1.0 116:1.0 131:1.0 135:1.0 136:1.0 137:1.0 148:1.0 151:1.0 158:1.0 165:1.0 180:1.0 199:1.0 212:1.0 214:1.0 241:1.0 253:1.0 256:1.0 294:1.0 307:1.0 343:1.0 348:1.0 354:1.0 357:1.0 363:1.0 376:1.0 386:1.0 407:1.0 425:1.0 465:1.0 511:1.0 514:1.0 516:1.0 527:1.0 549:1.0 550:1.0 555:1.0 556:1.0 558:1.0 560:1.0 562:1.0 563:1.0 569:1.0 570:1.0 572:1.0 618:1.0 640:1.0 650:1.0 673:1.0 695:1.0 819:1.0 862:1.0 917:1.0 979:1.0 1081:1.0 1105:1.0 1199:1.0 1255:1.0 1259:1.0 1273:1.0 1298:1.0 1336:1.0 1342:1.0 1404:1.0 1414:1.0 1415:1.0 1469:1.0 1538:1.0 1588:1.0 1644:1.0 1645:1.0 1652:1.0 1653:1.0 1656:1.0 1681:1.0 1683:1.0 1698:1.0 1717:1.0 1727:1.0 1793:1.0 2026:1.0 2203:1.0 2225:1.0 2292:1.0 2650:1.0 2700:1.0 2903:1.0 3380:1.0 3446:1.0 3542:1.0 3598:1.0 3658:1.0 3899:1.0 3950:1.0 4233:1.0 4319:1.0 4336:1.0 4337:1.0 4338:1.0 4339:1.0 4344:1.0 4345:1.0 4346:1.0 4347:1.0 4348:1.0 4475:1.0 4503:1.0 4504:1.0 4792:1.0 4806:1.0 4813:1.0 4817:1.0 4819:1.0 4831:1.0 4832:1.0 4844:1.0 5009:1.0 5136:1.0 5137:1.0 5138:1.0 5139:1.0 5140:1.0 5141:1.0 5142:1.0 5143:1.0 5144:1.0 5145:1.0 5146:1.0 5147:1.0 5148:1.0 5149:1.0 5150:1.0 5151:1.0 5152:1.0 5153:1.0 5154:1.0 5155:1.0 5156:1.0 5157:1.0 
0.0038976795995385952 0:1.0 5:1.0 6:1.0 10:1.0 11:1.0 16:1.0 21:1.0 37:1.0 39:1.0 40:1.0 41:1.0 51:1.0 54:1.0 56:1.0 57:1.0 62:1.0 63:1.0 73:1.0 80:1.0 84:1.0 89:1.0 109:1.0 110:1.0 111:1.0 116:1.0 124:1.0 126:1.0 129:1.0 142:1.0 155:1.0 177:1.0 255:1.0 267:1.0 307:1.0 321:1.0 330:1.0 335:1.0 376:1.0 399:1.0 400:1.0 465:1.0 466:1.0 485:1.0 499:1.0 502:1.0 509:1.0 512:1.0 516:1.0 533:1.0 560:1.0 565:1.0 615:1.0 680:1.0 815:1.0 886:1.0 946:1.0 1045:1.0 1053:1.0 1091:1.0 1095:1.0 1175:1.0 1177:1.0 1205:1.0 1244:1.0 1257:1.0 1295:1.0 1354:1.0 1372:1.0 1407:1.0 1469:1.0 1497:1.0 1517:1.0 1589:1.0 1636:1.0 1644:1.0 1645:1.0 1652:1.0 1653:1.0 1683:1.0 1726:1.0 1807:1.0 1882:1.0 1896:1.0 1937:1.0 1981:1.0 2007:1.0 2009:1.0 2091:1.0 2105:1.0 2109:1.0 2194:1.0 2290:1.0 2532:1.0 2588:1.0 2625:1.0 2750:1.0 2836:1.0 2877:1.0 2901:1.0 2907:1.0 3008:1.0 3037:1.0 3055:1.0 3080:1.0 3276:1.0 3582:1.0 3762:1.0 3840:1.0 3871:1.0 3907:1.0 3980:1.0 4951:1.0 5185:1.0 5186:1.0 5187:1.0 5188:1.0 5189:1.0 5190:1.0 5191:1.0 5192:1.0 5193:1.0 5194:1.0 5195:1.0 5196:1.0 5197:1.0 5198:1.0 5199:1.0 5200:1.0 5201:1.0 5202:1.0 5203:1.0 5204:1.0 5205:1.0 5206:1.0 5207:1.0 5208:1.0 5209:1.0 5210:1.0 5211:1.0 5212:1.0 5213:1.0 5214:1.0 5215:1.0 5216:1.0 5217:1.0 5218:1.0 5219:1.0 5220:1.0 
0.0022697068550888585 0:1.0 1:1.0 4:1.0 39:1.0 51:1.0 54:1.0 80:1.0 84:1.0 124:1.0 126:1.0 128:1.0 129:1.0 131:1.0 136:1.0 313:1.0 354:1.0 362:1.0 366:1.0 512:1.0 532:1.0 540:1.0 547:1.0 550:1.0 555:1.0 643:1.0 698:1.0 706:1.0 732:1.0 962:1.0 1083:1.0 1122:1.0 1179:1.0 1327:1.0 1329:1.0 1469:1.0 1527:1.0 1654:1.0 1659:1.0 1803:1.0 1868:1.0 1917:1.0 2002:1.0 2668:1.0 2700:1.0 2964:1.0 3446:1.0 3542:1.0 3621:1.0 4127:1.0 4278:1.0 4803:1.0 4812:1.0 4830:1.0 4833:1.0 5248:1.0 5269:1.0 5361:1.0 5362:1.0 5363:1.0 5364:1.0 5365:1.0 5366:1.0 
0.00762661326901414 0:1.0 4:1.0 5:1.0 16:1.0 17:1.0 28:1.0 39:1.0 41:1.0 50:1.0 51:1.0 52:1.0 54:1.0 56:1.0 57:1.0 80:1.0 83:1.0 84:1.0 106:1.0 110:1.0 111:1.0 116:1.0 117:1.0 135:1.0 199:1.0 201:1.0 205:1.0 256:1.0 278:1.0 299:1.0 307:1.0 343:1.0 399:1.0 400:1.0 409:1.0 465:1.0 473:1.0 513:1.0 534:1.0 552:1.0 556:1.0 557:1.0 559:1.0 565:1.0 576:1.0 581:1.0 618:1.0 625:1.0 634:1.0 700:1.0 760:1.0 862:1.0 938:1.0 939:1.0 992:1.0 1010:1.0 1127:1.0 1194:1.0 1377:1.0 1613:1.0 1632:1.0 1689:1.0 2116:1.0 2441:1.0 2584:1.0 2614:1.0 2656:1.0 2746:1.0 2999:1.0 3473:1.0 3621:1.0 3662:1.0 3782:1.0 4259:1.0 4328:1.0 4361:1.0 5423:1.0 5424:1.0 5425:1.0 5426:1.0 5427:1.0 5428:1.0 5429:1.0 5430:1.0 5431:1.0 5432:1.0 5433:1.0 5434:1.0 5435:1.0 5436:1.0 
0.0030438934705043284 0:1.0 5:1.0 6:1.0 8:1.0 13:1.0 28:1.0 47:1.0 51:1.0 73:1.0 80:1.0 87:1.0 106:1.0 109:1.0 110:1.0 111:1.0 112:1.0 116:1.0 124:1.0 126:1.0 128:1.0 131:1.0 151:1.0 225:1.0 256:1.0 286:1.0 299:1.0 307:1.0 399:1.0 400:1.0 407:1.0 425:1.0 445:1.0 650:1.0 750:1.0 872:1.0 937:1.0 1082:1.0 1105:1.0 1244:1.0 1436:1.0 1443:1.0 1469:1.0 1494:1.0 1495:1.0 1574:1.0 1583:1.0 1610:1.0 1753:1.0 1928:1.0 2087:1.0 2174:1.0 2282:1.0 2569:1.0 2572:1.0 2573:1.0 2574:1.0 2589:1.0 2650:1.0 2909:1.0 3001:1.0 3290:1.0 3427:1.0 3640:1.0 3777:1.0 3785:1.0 3786:1.0 3787:1.0 3788:1.0 3789:1.0 3791:1.0 3793:1.0 3794:1.0 3800:1.0 3816:1.0 3819:1.0 3821:1.0 3822:1.0 4438:1.0 4506:1.0 5286:1.0 5541:1.0 5542:1.0 5543:1.0 5544:1.0 5545:1.0 5546:1.0 5547:1.0 
0.001366425324882913 0:1.0 1:1.0 4:1.0 5:1.0 6:1.0 8:1.0 10:1.0 11:1.0 13:1.0 21:1.0 32:1.0 38:1.0 39:1.0 51:1.0 52:1.0 54:1.0 56:1.0 57:1.0 74:1.0 80:1.0 82:1.0 83:1.0 84:1.0 85:1.0 86:1.0 87:1.0 106:1.0 109:1.0 110:1.0 111:1.0 113:1.0 116:1.0 122:1.0 124:1.0 126:1.0 131:1.0 135:1.0 144:1.0 151:1.0 199:1.0 201:1.0 234:1.0 249:1.0 255:1.0 256:1.0 264:1.0 289:1.0 300:1.0 304:1.0 307:1.0 315:1.0 321:1.0 343:1.0 382:1.0 399:1.0 400:1.0 407:1.0 410:1.0 413:1.0 416:1.0 425:1.0 451:1.0 465:1.0 472:1.0 480:1.0 484:1.0 486:1.0 497:1.0 509:1.0 511:1.0 513:1.0 533:1.0 542:1.0 547:1.0 550:1.0 555:1.0 556:1.0 561:1.0 618:1.0 627:1.0 661:1.0 723:1.0 730:1.0 788:1.0 802:1.0 839:1.0 868:1.0 886:1.0 944:1.0 987:1.0 1042:1.0 1083:1.0 1091:1.0 1219:1.0 1255:1.0 1287:1.0 1342:1.0 1370:1.0 1384:1.0 1397:1.0 1411:1.0 1417:1.0 1453:1.0 1469:1.0 1518:1.0 1643:1.0 1695:1.0 1741:1.0 1761:1.0 1767:1.0 1881:1.0 1892:1.0 2057:1.0 2159:1.0 2223:1.0 2404:1.0 2432:1.0 2457:1.0 2576:1.0 2587:1.0 2680:1.0 2707:1.0 2715:1.0 2769:1.0 2876:1.0 2896:1.0 2913:1.0 2920:1.0 2941:1.0 3042:1.0 3104:1.0 3106:1.0 3133:1.0 3192:1.0 3194:1.0 3210:1.0 3228:1.0 3295:1.0 3341:1.0 3535:1.0 3597:1.0 3632:1.0 3682:1.0 3684:1.0 3691:1.0 3698:1.0 3803:1.0 3847:1.0 3850:1.0 3895:1.0 3922:1.0 4168:1.0 4169:1.0 4278:1.0 4334:1.0 4470:1.0 4532:1.0 4625:1.0 4808:1.0 4952:1.0 5016:1.0 5017:1.0 5028:1.0 5035:1.0 5036:1.0 5038:1.0 5043:1.0 5045:1.0 5047:1.0 5049:1.0 5055:1.0 5056:1.0 5107:1.0 5548:1.0 5549:1.0 5550:1.0 5551:1.0 5552:1.0 5553:1.0 5554:1.0 5555:1.0 5556:1.0 5557:1.0 5558:1.0 5559:1.0 5560:1.0 5561:1.0 5562:1.0 5563:1.0 5564:1.0 5565:1.0 5566:1.0 5567:1.0 5568:1.0 5569:1.0 5570:1.0 5571:1.0 5572:1.0 5573:1.0 5574:1.0 5575:1.0 5576:1.0 5577:1.0 5578:1.0 5579:1.0 5580:1.0 5581:1.0 5582:1.0 5583:1.0 5584:1.0 5585:1.0 5586:1.0 5587:1.0 5588:1.0 5589:1.0 5590:1.0 5591:1.0 
0.018469898725074894 0:1.0 5:1.0 8:1.0 16:1.0 21:1.0 30:1.0 56:1.0 74:1.0 80:1.0 82:1.0 84:1.0 110:1.0 111:1.0 116:1.0 126:1.0 131:1.0 151:1.0 160:1.0 335:1.0 365:1.0 469:1.0 509:1.0 512:1.0 513:1.0 516:1.0 550:1.0 872:1.0 885:1.0 898:1.0 956:1.0 1001:1.0 1052:1.0 1189:1.0 1347:1.0 1435:1.0 1469:1.0 1485:1.0 1486:1.0 1488:1.0 1490:1.0 1589:1.0 1762:1.0 1797:1.0 1800:1.0 1891:1.0 1918:1.0 1948:1.0 2213:1.0 2738:1.0 3017:1.0 3938:1.0 4733:1.0 5162:1.0 5166:1.0 5168:1.0 5182:1.0 5608:1.0 5610:1.0 5611:1.0 5612:1.0 5651:1.0 5665:1.0 5668:1.0 5670:1.0 5671:1.0 5672:1.0 5673:1.0 5674:1.0 5675:1.0 5676:1.0 
0.0023184634003397767 0:1.0 1:1.0 5:1.0 8:1.0 11:1.0 14:1.0 16:1.0 21:1.0 39:1.0 51:1.0 54:1.0 56:1.0 57:1.0 69:1.0 74:1.0 80:1.0 82:1.0 86:1.0 87:1.0 106:1.0 110:1.0 111:1.0 112:1.0 116:1.0 126:1.0 129:1.0 134:1.0 135:1.0 136:1.0 151:1.0 193:1.0 199:1.0 201:1.0 232:1.0 233:1.0 235:1.0 255:1.0 256:1.0 266:1.0 297:1.0 300:1.0 307:1.0 312:1.0 321:1.0 335:1.0 343:1.0 366:1.0 375:1.0 400:1.0 412:1.0 435:1.0 499:1.0 511:1.0 516:1.0 552:1.0 556:1.0 562:1.0 618:1.0 625:1.0 640:1.0 683:1.0 717:1.0 919:1.0 938:1.0 940:1.0 1074:1.0 1083:1.0 1100:1.0 1136:1.0 1189:1.0 1330:1.0 1417:1.0 1448:1.0 1469:1.0 1502:1.0 1518:1.0 1598:1.0 1611:1.0 1743:1.0 1919:1.0 2016:1.0 2109:1.0 2121:1.0 2396:1.0 2466:1.0 2528:1.0 2534:1.0 3104:1.0 3132:1.0 3140:1.0 3183:1.0 3287:1.0 3364:1.0 3379:1.0 3386:1.0 3399:1.0 3419:1.0 3510:1.0 3774:1.0 3843:1.0 4062:1.0 4107:1.0 4167:1.0 4291:1.0 4425:1.0 4508:1.0 4509:1.0 4517:1.0 4529:1.0 4688:1.0 4725:1.0 4965:1.0 4974:1.0 4976:1.0 4983:1.0 4990:1.0 5000:1.0 5002:1.0 5003:1.0 5009:1.0 5013:1.0 5014:1.0 5162:1.0 5166:1.0 5168:1.0 5182:1.0 5594:1.0 5677:1.0 5678:1.0 5679:1.0 5680:1.0 5681:1.0 
7.199180695176431E-4 0:1.0 1:1.0 4:1.0 5:1.0 6:1.0 8:1.0 13:1.0 16:1.0 17:1.0 21:1.0 28:1.0 31:1.0 39:1.0 45:1.0 51:1.0 52:1.0 54:1.0 56:1.0 57:1.0 61:1.0 62:1.0 70:1.0 73:1.0 80:1.0 84:1.0 90:1.0 107:1.0 109:1.0 110:1.0 111:1.0 112:1.0 116:1.0 122:1.0 124:1.0 126:1.0 128:1.0 129:1.0 131:1.0 151:1.0 155:1.0 188:1.0 195:1.0 199:1.0 201:1.0 208:1.0 229:1.0 243:1.0 245:1.0 258:1.0 264:1.0 278:1.0 299:1.0 304:1.0 313:1.0 321:1.0 333:1.0 354:1.0 362:1.0 366:1.0 387:1.0 399:1.0 400:1.0 407:1.0 437:1.0 451:1.0 461:1.0 469:1.0 480:1.0 484:1.0 486:1.0 512:1.0 516:1.0 533:1.0 534:1.0 540:1.0 541:1.0 555:1.0 558:1.0 560:1.0 643:1.0 690:1.0 706:1.0 752:1.0 855:1.0 868:1.0 994:1.0 1015:1.0 1083:1.0 1111:1.0 1122:1.0 1157:1.0 1179:1.0 1298:1.0 1329:1.0 1419:1.0 1469:1.0 1527:1.0 1564:1.0 1591:1.0 1654:1.0 1781:1.0 1810:1.0 1957:1.0 2024:1.0 2172:1.0 2311:1.0 2595:1.0 2676:1.0 2774:1.0 2983:1.0 3010:1.0 3141:1.0 3250:1.0 3320:1.0 3701:1.0 3850:1.0 3997:1.0 4127:1.0 4278:1.0 4355:1.0 4439:1.0 4610:1.0 4792:1.0 5118:1.0 5225:1.0 5229:1.0 5231:1.0 5240:1.0 5248:1.0 5250:1.0 5254:1.0 5256:1.0 5257:1.0 5264:1.0 5268:1.0 5269:1.0 5288:1.0 5361:1.0 5362:1.0 5363:1.0 5491:1.0 5682:1.0 5683:1.0 5684:1.0 5685:1.0 5686:1.0 5687:1.0 5688:1.0 5689:1.0 5690:1.0 5691:1.0 5692:1.0 
0.0019173543016046003 0:1.0 5:1.0 11:1.0 16:1.0 28:1.0 39:1.0 47:1.0 51:1.0 54:1.0 56:1.0 80:1.0 84:1.0 106:1.0 110:1.0 111:1.0 116:1.0 124:1.0 130:1.0 138:1.0 201:1.0 234:1.0 312:1.0 325:1.0 343:1.0 399:1.0 412:1.0 465:1.0 511:1.0 513:1.0 527:1.0 530:1.0 532:1.0 549:1.0 550:1.0 581:1.0 610:1.0 673:1.0 758:1.0 892:1.0 938:1.0 1048:1.0 1095:1.0 1096:1.0 1118:1.0 1127:1.0 1324:1.0 1392:1.0 1404:1.0 1453:1.0 1583:1.0 1724:1.0 1728:1.0 2074:1.0 2104:1.0 2252:1.0 2307:1.0 2596:1.0 2914:1.0 2962:1.0 3081:1.0 3457:1.0 3535:1.0 3742:1.0 3920:1.0 4788:1.0 4849:1.0 5074:1.0 5320:1.0 5366:1.0 5714:1.0 5715:1.0 5716:1.0 5717:1.0 5718:1.0 5719:1.0 5720:1.0 5721:1.0 5722:1.0 5723:1.0 5724:1.0 5725:1.0 5726:1.0 5727:1.0 5728:1.0 5729:1.0 5730:1.0 5731:1.0 5732:1.0 5733:1.0 5734:1.0 5735:1.0 5736:1.0 5737:1.0 
0.002162179554700157 0:1.0 4:1.0 5:1.0 8:1.0 11:1.0 19:1.0 28:1.0 39:1.0 42:1.0 47:1.0 51:1.0 52:1.0 54:1.0 56:1.0 57:1.0 71:1.0 80:1.0 81:1.0 91:1.0 109:1.0 110:1.0 111:1.0 112:1.0 116:1.0 124:1.0 126:1.0 129:1.0 135:1.0 151:1.0 164:1.0 199:1.0 214:1.0 235:1.0 255:1.0 274:1.0 297:1.0 307:1.0 325:1.0 335:1.0 392:1.0 400:1.0 437:1.0 484:1.0 486:1.0 509:1.0 510:1.0 513:1.0 516:1.0 530:1.0 532:1.0 550:1.0 557:1.0 561:1.0 562:1.0 595:1.0 640:1.0 824:1.0 901:1.0 938:1.0 969:1.0 1003:1.0 1049:1.0 1094:1.0 1103:1.0 1118:1.0 1227:1.0 1324:1.0 1329:1.0 1396:1.0 1489:1.0 1728:1.0 1736:1.0 1793:1.0 1799:1.0 2066:1.0 2104:1.0 2174:1.0 2252:1.0 2292:1.0 2467:1.0 2596:1.0 2965:1.0 3000:1.0 3001:1.0 3449:1.0 3816:1.0 3851:1.0 4243:1.0 4849:1.0 5337:1.0 5595:1.0 5700:1.0 5714:1.0 5717:1.0 5721:1.0 5726:1.0 5727:1.0 5730:1.0 5737:1.0 5749:1.0 5750:1.0 5751:1.0 5752:1.0 5753:1.0 5754:1.0 5755:1.0 5756:1.0 5757:1.0 5758:1.0 5759:1.0 5760:1.0 5761:1.0 5762:1.0 5763:1.0 5764:1.0 5765:1.0 5766:1.0 5767:1.0 5768:1.0 
0.010148174777526676 0:1.0 10:1.0 13:1.0 21:1.0 28:1.0 39:1.0 51:1.0 52:1.0 54:1.0 56:1.0 57:1.0 74:1.0 80:1.0 82:1.0 84:1.0 86:1.0 106:1.0 110:1.0 111:1.0 131:1.0 135:1.0 136:1.0 199:1.0 201:1.0 241:1.0 307:1.0 392:1.0 465:1.0 511:1.0 723:1.0 745:1.0 938:1.0 1029:1.0 1288:1.0 1376:1.0 1419:1.0 1461:1.0 1478:1.0 1594:1.0 1646:1.0 1647:1.0 1658:1.0 1664:1.0 1670:1.0 1678:1.0 1679:1.0 1681:1.0 1684:1.0 1862:1.0 2898:1.0 3223:1.0 3365:1.0 3396:1.0 3533:1.0 3732:1.0 4568:1.0 5791:1.0 5792:1.0 5793:1.0 5794:1.0 5795:1.0 5796:1.0 5797:1.0 5798:1.0 5799:1.0 5800:1.0 
8.478406242510407E-4 0:1.0 1:1.0 5:1.0 8:1.0 11:1.0 13:1.0 16:1.0 19:1.0 21:1.0 39:1.0 44:1.0 47:1.0 51:1.0 52:1.0 54:1.0 56:1.0 57:1.0 67:1.0 73:1.0 74:1.0 80:1.0 82:1.0 86:1.0 90:1.0 106:1.0 109:1.0 110:1.0 111:1.0 116:1.0 122:1.0 124:1.0 126:1.0 134:1.0 135:1.0 136:1.0 139:1.0 144:1.0 147:1.0 151:1.0 157:1.0 188:1.0 189:1.0 199:1.0 201:1.0 204:1.0 212:1.0 233:1.0 234:1.0 241:1.0 253:1.0 255:1.0 256:1.0 278:1.0 280:1.0 307:1.0 312:1.0 313:1.0 317:1.0 319:1.0 321:1.0 326:1.0 343:1.0 366:1.0 376:1.0 386:1.0 392:1.0 400:1.0 409:1.0 410:1.0 425:1.0 431:1.0 465:1.0 466:1.0 472:1.0 486:1.0 490:1.0 499:1.0 506:1.0 509:1.0 511:1.0 513:1.0 514:1.0 516:1.0 530:1.0 533:1.0 545:1.0 547:1.0 551:1.0 556:1.0 557:1.0 558:1.0 560:1.0 562:1.0 569:1.0 610:1.0 615:1.0 618:1.0 640:1.0 650:1.0 652:1.0 681:1.0 684:1.0 695:1.0 750:1.0 766:1.0 872:1.0 903:1.0 940:1.0 992:1.0 1015:1.0 1035:1.0 1043:1.0 1081:1.0 1154:1.0 1255:1.0 1259:1.0 1273:1.0 1298:1.0 1319:1.0 1327:1.0 1342:1.0 1347:1.0 1396:1.0 1397:1.0 1414:1.0 1453:1.0 1454:1.0 1574:1.0 1591:1.0 1603:1.0 1632:1.0 1685:1.0 1693:1.0 1698:1.0 1759:1.0 1862:1.0 1930:1.0 1931:1.0 1932:1.0 2280:1.0 2292:1.0 2295:1.0 2445:1.0 2456:1.0 2509:1.0 2521:1.0 2576:1.0 2591:1.0 2650:1.0 2700:1.0 2752:1.0 2774:1.0 2786:1.0 2909:1.0 2946:1.0 3000:1.0 3131:1.0 3141:1.0 3167:1.0 3243:1.0 3306:1.0 3310:1.0 3313:1.0 3315:1.0 3341:1.0 3446:1.0 3482:1.0 3615:1.0 3684:1.0 3698:1.0 3792:1.0 3897:1.0 4107:1.0 4131:1.0 4310:1.0 4503:1.0 4504:1.0 4636:1.0 4720:1.0 4795:1.0 4796:1.0 4797:1.0 4799:1.0 4801:1.0 4802:1.0 4805:1.0 4806:1.0 4807:1.0 4809:1.0 4817:1.0 4819:1.0 4820:1.0 4821:1.0 4822:1.0 4824:1.0 4826:1.0 4831:1.0 4832:1.0 5009:1.0 5071:1.0 5339:1.0 5341:1.0 5355:1.0 5876:1.0 5877:1.0 5878:1.0 5879:1.0 5880:1.0 5881:1.0 5882:1.0 5883:1.0 5884:1.0 5885:1.0 5886:1.0 5887:1.0 5888:1.0 5889:1.0 5890:1.0 
6.55195488385168E-4 0:1.0 5:1.0 8:1.0 10:1.0 11:1.0 16:1.0 39:1.0 51:1.0 52:1.0 54:1.0 56:1.0 57:1.0 67:1.0 69:1.0 80:1.0 82:1.0 84:1.0 87:1.0 106:1.0 110:1.0 111:1.0 112:1.0 113:1.0 116:1.0 124:1.0 126:1.0 129:1.0 131:1.0 135:1.0 136:1.0 151:1.0 182:1.0 183:1.0 193:1.0 232:1.0 234:1.0 256:1.0 266:1.0 280:1.0 300:1.0 307:1.0 312:1.0 313:1.0 321:1.0 335:1.0 375:1.0 382:1.0 400:1.0 407:1.0 456:1.0 477:1.0 511:1.0 514:1.0 516:1.0 530:1.0 556:1.0 557:1.0 562:1.0 569:1.0 573:1.0 719:1.0 730:1.0 872:1.0 938:1.0 940:1.0 947:1.0 1074:1.0 1095:1.0 1370:1.0 1404:1.0 1453:1.0 1469:1.0 1518:1.0 1598:1.0 1919:1.0 1923:1.0 2071:1.0 2109:1.0 2395:1.0 2472:1.0 2668:1.0 3077:1.0 3112:1.0 3399:1.0 3621:1.0 3803:1.0 3949:1.0 4062:1.0 4406:1.0 4541:1.0 4688:1.0 4965:1.0 4974:1.0 4976:1.0 5000:1.0 5002:1.0 5003:1.0 5013:1.0 5162:1.0 5166:1.0 5168:1.0 5182:1.0 5360:1.0 5891:1.0 5892:1.0 5893:1.0 5894:1.0 5895:1.0 5896:1.0 5897:1.0 5898:1.0 5899:1.0 5900:1.0 5901:1.0 5902:1.0 5903:1.0 5904:1.0 5905:1.0 5906:1.0 5907:1.0 5908:1.0 
0.007765480931552554 0:1.0 5:1.0 6:1.0 10:1.0 11:1.0 17:1.0 21:1.0 27:1.0 28:1.0 42:1.0 45:1.0 47:1.0 51:1.0 54:1.0 56:1.0 57:1.0 58:1.0 69:1.0 73:1.0 77:1.0 80:1.0 83:1.0 85:1.0 106:1.0 109:1.0 110:1.0 111:1.0 116:1.0 127:1.0 131:1.0 172:1.0 199:1.0 201:1.0 206:1.0 235:1.0 256:1.0 299:1.0 313:1.0 321:1.0 399:1.0 407:1.0 451:1.0 475:1.0 484:1.0 486:1.0 511:1.0 512:1.0 516:1.0 547:1.0 556:1.0 558:1.0 560:1.0 585:1.0 646:1.0 695:1.0 925:1.0 992:1.0 1081:1.0 1131:1.0 1259:1.0 1467:1.0 1518:1.0 1562:1.0 1591:1.0 1632:1.0 1659:1.0 1667:1.0 1680:1.0 1940:1.0 2000:1.0 2105:1.0 2276:1.0 2380:1.0 2405:1.0 2509:1.0 2670:1.0 2954:1.0 2956:1.0 3101:1.0 3223:1.0 3228:1.0 3380:1.0 3674:1.0 4095:1.0 4144:1.0 4146:1.0 4168:1.0 4189:1.0 4192:1.0 4193:1.0 4241:1.0 4242:1.0 5351:1.0 5555:1.0 6005:1.0 6006:1.0 6007:1.0 6008:1.0 6009:1.0 6010:1.0 6011:1.0 6012:1.0 
0.003659149337213663 0:1.0 4:1.0 5:1.0 10:1.0 11:1.0 13:1.0 16:1.0 17:1.0 21:1.0 28:1.0 39:1.0 50:1.0 51:1.0 52:1.0 54:1.0 56:1.0 57:1.0 67:1.0 69:1.0 80:1.0 82:1.0 84:1.0 106:1.0 110:1.0 111:1.0 116:1.0 131:1.0 199:1.0 224:1.0 249:1.0 250:1.0 265:1.0 300:1.0 313:1.0 339:1.0 372:1.0 376:1.0 392:1.0 400:1.0 415:1.0 465:1.0 484:1.0 486:1.0 487:1.0 502:1.0 516:1.0 530:1.0 547:1.0 633:1.0 745:1.0 872:1.0 1469:1.0 1517:1.0 1518:1.0 1574:1.0 1591:1.0 1653:1.0 1667:1.0 1680:1.0 1851:1.0 2026:1.0 2105:1.0 2109:1.0 2125:1.0 2380:1.0 2506:1.0 2579:1.0 2708:1.0 2748:1.0 2789:1.0 2794:1.0 2859:1.0 3000:1.0 3223:1.0 3383:1.0 3684:1.0 3735:1.0 3843:1.0 4143:1.0 4625:1.0 4988:1.0 4993:1.0 4994:1.0 5006:1.0 5008:1.0 6008:1.0 6013:1.0 6014:1.0 6015:1.0 6016:1.0 6017:1.0 6018:1.0 6019:1.0 6020:1.0 6021:1.0 6022:1.0 6023:1.0 6024:1.0 6025:1.0 6026:1.0 6027:1.0 6028:1.0 6029:1.0 6030:1.0 
0.0027449451414828974 0:1.0 1:1.0 4:1.0 5:1.0 8:1.0 11:1.0 13:1.0 21:1.0 28:1.0 39:1.0 41:1.0 47:1.0 52:1.0 54:1.0 56:1.0 80:1.0 86:1.0 87:1.0 90:1.0 110:1.0 111:1.0 116:1.0 126:1.0 233:1.0 299:1.0 300:1.0 312:1.0 313:1.0 386:1.0 392:1.0 399:1.0 400:1.0 410:1.0 465:1.0 486:1.0 511:1.0 516:1.0 561:1.0 562:1.0 604:1.0 605:1.0 610:1.0 652:1.0 824:1.0 901:1.0 922:1.0 948:1.0 1015:1.0 1109:1.0 1122:1.0 1123:1.0 1217:1.0 1298:1.0 1377:1.0 1404:1.0 1415:1.0 1453:1.0 1518:1.0 1575:1.0 1588:1.0 1667:1.0 1680:1.0 1735:1.0 1767:1.0 1870:1.0 2009:1.0 2380:1.0 2419:1.0 2642:1.0 2650:1.0 2663:1.0 2666:1.0 2677:1.0 2691:1.0 2888:1.0 2914:1.0 3004:1.0 3223:1.0 3316:1.0 3381:1.0 3670:1.0 3953:1.0 4671:1.0 6008:1.0 6024:1.0 6126:1.0 6127:1.0 6128:1.0 6129:1.0 6130:1.0 6131:1.0 6132:1.0 
0.0038678820957239895 0:1.0 1:1.0 5:1.0 8:1.0 17:1.0 21:1.0 39:1.0 51:1.0 54:1.0 56:1.0 57:1.0 80:1.0 84:1.0 86:1.0 90:1.0 109:1.0 110:1.0 111:1.0 116:1.0 117:1.0 129:1.0 132:1.0 135:1.0 151:1.0 155:1.0 253:1.0 366:1.0 392:1.0 399:1.0 407:1.0 465:1.0 466:1.0 513:1.0 516:1.0 534:1.0 552:1.0 557:1.0 559:1.0 565:1.0 700:1.0 760:1.0 922:1.0 1096:1.0 1111:1.0 1194:1.0 1212:1.0 1254:1.0 1574:1.0 1600:1.0 1612:1.0 1613:1.0 1689:1.0 1870:1.0 1981:1.0 2009:1.0 2312:1.0 2576:1.0 3542:1.0 3662:1.0 3815:1.0 4062:1.0 4231:1.0 4259:1.0 4309:1.0 5423:1.0 5426:1.0 5432:1.0 5433:1.0 5568:1.0 6181:1.0 6182:1.0 6183:1.0 6184:1.0 6185:1.0 6186:1.0 6187:1.0 6188:1.0 6189:1.0 6190:1.0 
0.013546871962626822 0:1.0 5:1.0 16:1.0 28:1.0 39:1.0 51:1.0 54:1.0 56:1.0 57:1.0 80:1.0 82:1.0 84:1.0 111:1.0 116:1.0 135:1.0 157:1.0 199:1.0 255:1.0 314:1.0 321:1.0 322:1.0 343:1.0 372:1.0 376:1.0 378:1.0 407:1.0 452:1.0 465:1.0 469:1.0 513:1.0 557:1.0 612:1.0 618:1.0 683:1.0 738:1.0 994:1.0 1049:1.0 1163:1.0 1395:1.0 1402:1.0 1414:1.0 1433:1.0 1530:1.0 1603:1.0 1698:1.0 1761:1.0 1967:1.0 2587:1.0 3396:1.0 3500:1.0 3710:1.0 3831:1.0 3915:1.0 3922:1.0 3953:1.0 4084:1.0 4625:1.0 4782:1.0 5023:1.0 5302:1.0 6191:1.0 6192:1.0 6193:1.0 6194:1.0 6195:1.0 6196:1.0 6197:1.0 6198:1.0 6199:1.0 6200:1.0 6201:1.0 6202:1.0 6203:1.0 
1.0 1:1.0 4:1.0 5:1.0 6:1.0 10:1.0 16:1.0 21:1.0 39:1.0 50:1.0 54:1.0 56:1.0 57:1.0 80:1.0 82:1.0 84:1.0 103:1.0 111:1.0 116:1.0 131:1.0 135:1.0 136:1.0 153:1.0 155:1.0 191:1.0 201:1.0 261:1.0 391:1.0 465:1.0 478:1.0 517:1.0 560:1.0 626:1.0 633:1.0 634:1.0 638:1.0 641:1.0 686:1.0 941:1.0 979:1.0 992:1.0 994:1.0 995:1.0 999:1.0 1048:1.0 1155:1.0 1172:1.0 1315:1.0 1453:1.0 1469:1.0 1527:1.0 1624:1.0 1625:1.0 1627:1.0 1647:1.0 1699:1.0 1724:1.0 1972:1.0 2111:1.0 2132:1.0 2364:1.0 2477:1.0 2506:1.0 2518:1.0 2844:1.0 2863:1.0 3621:1.0 3641:1.0 3742:1.0 3872:1.0 4088:1.0 4902:1.0 4957:1.0 5294:1.0 5700:1.0 6204:1.0 6205:1.0 6206:1.0 6207:1.0 6208:1.0 6209:1.0 6210:1.0 6211:1.0 6212:1.0 6213:1.0 6214:1.0 6215:1.0 6216:1.0 6217:1.0 6218:1.0 6219:1.0 6220:1.0 
0.02262929524090436 0:1.0 5:1.0 8:1.0 45:1.0 57:1.0 61:1.0 69:1.0 70:1.0 80:1.0 84:1.0 86:1.0 110:1.0 111:1.0 116:1.0 122:1.0 326:1.0 342:1.0 346:1.0 363:1.0 386:1.0 400:1.0 451:1.0 484:1.0 513:1.0 530:1.0 546:1.0 573:1.0 880:1.0 917:1.0 993:1.0 1095:1.0 1266:1.0 1273:1.0 1394:1.0 1398:1.0 1461:1.0 1476:1.0 1482:1.0 1782:1.0 2006:1.0 2650:1.0 2670:1.0 3097:1.0 3161:1.0 3774:1.0 4244:1.0 5113:1.0 5489:1.0 5830:1.0 5833:1.0 6221:1.0 6222:1.0 6223:1.0 6224:1.0 
8.17094851994337E-4 0:1.0 3:1.0 4:1.0 5:1.0 8:1.0 10:1.0 11:1.0 16:1.0 21:1.0 22:1.0 28:1.0 37:1.0 39:1.0 45:1.0 47:1.0 50:1.0 51:1.0 52:1.0 54:1.0 56:1.0 57:1.0 74:1.0 76:1.0 80:1.0 82:1.0 83:1.0 84:1.0 87:1.0 97:1.0 110:1.0 111:1.0 113:1.0 116:1.0 118:1.0 124:1.0 126:1.0 129:1.0 131:1.0 135:1.0 146:1.0 151:1.0 154:1.0 155:1.0 189:1.0 191:1.0 199:1.0 201:1.0 206:1.0 240:1.0 255:1.0 278:1.0 280:1.0 284:1.0 297:1.0 304:1.0 307:1.0 321:1.0 335:1.0 342:1.0 343:1.0 353:1.0 356:1.0 368:1.0 376:1.0 386:1.0 392:1.0 399:1.0 400:1.0 407:1.0 443:1.0 452:1.0 453:1.0 465:1.0 466:1.0 480:1.0 484:1.0 486:1.0 499:1.0 509:1.0 511:1.0 512:1.0 513:1.0 516:1.0 519:1.0 525:1.0 530:1.0 547:1.0 549:1.0 555:1.0 556:1.0 562:1.0 569:1.0 573:1.0 576:1.0 595:1.0 623:1.0 624:1.0 625:1.0 635:1.0 650:1.0 652:1.0 694:1.0 704:1.0 719:1.0 732:1.0 769:1.0 773:1.0 788:1.0 837:1.0 855:1.0 901:1.0 917:1.0 938:1.0 941:1.0 974:1.0 1006:1.0 1007:1.0 1031:1.0 1035:1.0 1048:1.0 1089:1.0 1109:1.0 1116:1.0 1175:1.0 1177:1.0 1222:1.0 1250:1.0 1254:1.0 1286:1.0 1315:1.0 1330:1.0 1342:1.0 1346:1.0 1370:1.0 1374:1.0 1415:1.0 1424:1.0 1428:1.0 1436:1.0 1445:1.0 1454:1.0 1469:1.0 1510:1.0 1519:1.0 1527:1.0 1588:1.0 1610:1.0 1612:1.0 1621:1.0 1646:1.0 1678:1.0 1679:1.0 1687:1.0 1698:1.0 1765:1.0 1816:1.0 1839:1.0 1854:1.0 1871:1.0 1919:1.0 1952:1.0 2001:1.0 2026:1.0 2121:1.0 2125:1.0 2156:1.0 2161:1.0 2341:1.0 2364:1.0 2418:1.0 2445:1.0 2456:1.0 2466:1.0 2476:1.0 2576:1.0 2614:1.0 2668:1.0 2683:1.0 2704:1.0 2712:1.0 2863:1.0 2958:1.0 3062:1.0 3132:1.0 3295:1.0 3463:1.0 3579:1.0 3663:1.0 3882:1.0 4023:1.0 4172:1.0 4359:1.0 4596:1.0 4653:1.0 4738:1.0 4740:1.0 4817:1.0 5611:1.0 5806:1.0 5974:1.0 5978:1.0 6171:1.0 6179:1.0 6227:1.0 6229:1.0 6231:1.0 6232:1.0 6234:1.0 6237:1.0 6243:1.0 6244:1.0 6246:1.0 6247:1.0 6248:1.0 6250:1.0 6251:1.0 6252:1.0 6253:1.0 6254:1.0 6255:1.0 6261:1.0 6267:1.0 6270:1.0 6272:1.0 6273:1.0 6274:1.0 6276:1.0 6277:1.0 6278:1.0 6279:1.0 6285:1.0 6286:1.0 6287:1.0 6288:1.0 6289:1.0 6290:1.0 6291:1.0 6292:1.0 6293:1.0 6294:1.0 6295:1.0 6296:1.0 6297:1.0 6298:1.0 6299:1.0 6300:1.0 6301:1.0 6302:1.0 6303:1.0 6304:1.0 6305:1.0 6306:1.0 
0.001995576991574705 0:1.0 1:1.0 4:1.0 5:1.0 6:1.0 8:1.0 11:1.0 13:1.0 16:1.0 19:1.0 21:1.0 28:1.0 39:1.0 51:1.0 52:1.0 54:1.0 56:1.0 57:1.0 69:1.0 70:1.0 80:1.0 82:1.0 83:1.0 84:1.0 96:1.0 106:1.0 111:1.0 112:1.0 116:1.0 124:1.0 126:1.0 128:1.0 129:1.0 130:1.0 131:1.0 135:1.0 136:1.0 144:1.0 151:1.0 155:1.0 201:1.0 245:1.0 250:1.0 255:1.0 256:1.0 304:1.0 313:1.0 321:1.0 354:1.0 358:1.0 362:1.0 366:1.0 382:1.0 469:1.0 472:1.0 480:1.0 512:1.0 513:1.0 514:1.0 516:1.0 519:1.0 527:1.0 530:1.0 540:1.0 547:1.0 555:1.0 557:1.0 558:1.0 609:1.0 610:1.0 643:1.0 688:1.0 698:1.0 706:1.0 732:1.0 745:1.0 938:1.0 940:1.0 956:1.0 1083:1.0 1118:1.0 1236:1.0 1327:1.0 1329:1.0 1330:1.0 1346:1.0 1370:1.0 1414:1.0 1419:1.0 1453:1.0 1469:1.0 1497:1.0 1518:1.0 1527:1.0 1654:1.0 1667:1.0 1680:1.0 1781:1.0 1937:1.0 2105:1.0 2380:1.0 2404:1.0 2508:1.0 2512:1.0 2700:1.0 2808:1.0 2888:1.0 2940:1.0 2947:1.0 3022:1.0 3093:1.0 3181:1.0 3542:1.0 3742:1.0 3795:1.0 3850:1.0 3851:1.0 4127:1.0 4201:1.0 4278:1.0 4328:1.0 4641:1.0 4749:1.0 4812:1.0 4830:1.0 4866:1.0 5159:1.0 5248:1.0 5269:1.0 5361:1.0 5362:1.0 5363:1.0 5364:1.0 5365:1.0 5366:1.0 6008:1.0 6015:1.0 6091:1.0 6125:1.0 6344:1.0 6345:1.0 6346:1.0 6347:1.0 6348:1.0 
0.001952230145633485 0:1.0 1:1.0 5:1.0 6:1.0 8:1.0 11:1.0 13:1.0 16:1.0 39:1.0 48:1.0 50:1.0 51:1.0 52:1.0 54:1.0 56:1.0 69:1.0 70:1.0 72:1.0 73:1.0 80:1.0 82:1.0 83:1.0 84:1.0 85:1.0 86:1.0 91:1.0 94:1.0 97:1.0 106:1.0 109:1.0 110:1.0 111:1.0 113:1.0 116:1.0 126:1.0 127:1.0 128:1.0 135:1.0 136:1.0 159:1.0 174:1.0 191:1.0 199:1.0 201:1.0 214:1.0 245:1.0 255:1.0 256:1.0 275:1.0 279:1.0 285:1.0 299:1.0 300:1.0 313:1.0 315:1.0 321:1.0 343:1.0 365:1.0 366:1.0 368:1.0 375:1.0 382:1.0 386:1.0 396:1.0 400:1.0 412:1.0 415:1.0 419:1.0 420:1.0 425:1.0 461:1.0 464:1.0 469:1.0 480:1.0 484:1.0 486:1.0 509:1.0 511:1.0 512:1.0 516:1.0 518:1.0 533:1.0 543:1.0 550:1.0 557:1.0 560:1.0 565:1.0 569:1.0 618:1.0 634:1.0 640:1.0 652:1.0 684:1.0 691:1.0 706:1.0 775:1.0 815:1.0 862:1.0 868:1.0 937:1.0 938:1.0 946:1.0 1035:1.0 1049:1.0 1062:1.0 1063:1.0 1095:1.0 1109:1.0 1122:1.0 1125:1.0 1138:1.0 1176:1.0 1179:1.0 1183:1.0 1199:1.0 1255:1.0 1315:1.0 1330:1.0 1332:1.0 1346:1.0 1347:1.0 1415:1.0 1469:1.0 1518:1.0 1596:1.0 1667:1.0 1680:1.0 1690:1.0 1870:1.0 1919:1.0 2026:1.0 2105:1.0 2290:1.0 2313:1.0 2364:1.0 2380:1.0 2501:1.0 2550:1.0 2784:1.0 2974:1.0 3001:1.0 3041:1.0 3141:1.0 3295:1.0 3309:1.0 3332:1.0 3341:1.0 3484:1.0 3578:1.0 3684:1.0 3737:1.0 3763:1.0 4066:1.0 4480:1.0 4742:1.0 4827:1.0 5162:1.0 5166:1.0 5168:1.0 5182:1.0 5466:1.0 5665:1.0 5997:1.0 6008:1.0 6079:1.0 6183:1.0 6371:1.0 6402:1.0 6403:1.0 6404:1.0 6405:1.0 
0.022347936507877447 6:1.0 10:1.0 11:1.0 21:1.0 22:1.0 28:1.0 39:1.0 47:1.0 54:1.0 56:1.0 57:1.0 72:1.0 80:1.0 83:1.0 106:1.0 110:1.0 111:1.0 130:1.0 131:1.0 135:1.0 146:1.0 147:1.0 155:1.0 158:1.0 199:1.0 214:1.0 215:1.0 255:1.0 256:1.0 314:1.0 343:1.0 413:1.0 465:1.0 499:1.0 514:1.0 532:1.0 533:1.0 547:1.0 556:1.0 557:1.0 562:1.0 569:1.0 612:1.0 879:1.0 922:1.0 982:1.0 1043:1.0 1327:1.0 1329:1.0 2298:1.0 2378:1.0 2496:1.0 2500:1.0 2508:1.0 3092:1.0 3106:1.0 3698:1.0 3968:1.0 4080:1.0 4191:1.0 4193:1.0 4696:1.0 4703:1.0 4704:1.0 5045:1.0 6429:1.0 6430:1.0 6431:1.0 6432:1.0 6433:1.0 6434:1.0 
0.010441417432290665 0:1.0 5:1.0 8:1.0 13:1.0 39:1.0 40:1.0 54:1.0 55:1.0 73:1.0 80:1.0 111:1.0 116:1.0 136:1.0 204:1.0 234:1.0 307:1.0 353:1.0 376:1.0 392:1.0 413:1.0 552:1.0 565:1.0 650:1.0 747:1.0 776:1.0 936:1.0 979:1.0 1111:1.0 1122:1.0 1315:1.0 1588:1.0 1698:1.0 1917:1.0 1959:1.0 1984:1.0 2080:1.0 2259:1.0 2324:1.0 2408:1.0 2415:1.0 2555:1.0 2834:1.0 3291:1.0 3425:1.0 3638:1.0 3782:1.0 3895:1.0 4151:1.0 4241:1.0 4283:1.0 5485:1.0 6478:1.0 6479:1.0 6480:1.0 6481:1.0 6482:1.0 6483:1.0 6484:1.0 6485:1.0 6486:1.0 6487:1.0 6488:1.0 6489:1.0 6490:1.0 6491:1.0 6492:1.0 
0.018686911306644738 0:1.0 1:1.0 4:1.0 5:1.0 8:1.0 11:1.0 13:1.0 45:1.0 51:1.0 52:1.0 54:1.0 56:1.0 57:1.0 80:1.0 83:1.0 108:1.0 111:1.0 112:1.0 116:1.0 129:1.0 136:1.0 151:1.0 199:1.0 252:1.0 307:1.0 321:1.0 368:1.0 372:1.0 376:1.0 400:1.0 407:1.0 465:1.0 480:1.0 484:1.0 490:1.0 511:1.0 513:1.0 516:1.0 518:1.0 527:1.0 530:1.0 537:1.0 540:1.0 549:1.0 551:1.0 555:1.0 618:1.0 774:1.0 796:1.0 903:1.0 918:1.0 956:1.0 994:1.0 1144:1.0 1255:1.0 1342:1.0 1540:1.0 1698:1.0 2476:1.0 2570:1.0 2629:1.0 2774:1.0 2913:1.0 2988:1.0 3141:1.0 3240:1.0 3371:1.0 3955:1.0 5240:1.0 5254:1.0 6424:1.0 6546:1.0 6547:1.0 6548:1.0 6549:1.0 
2.688744162480063E-5 0:1.0 1:1.0 4:1.0 5:1.0 8:1.0 10:1.0 11:1.0 13:1.0 16:1.0 21:1.0 22:1.0 39:1.0 40:1.0 50:1.0 51:1.0 52:1.0 54:1.0 56:1.0 57:1.0 71:1.0 72:1.0 80:1.0 82:1.0 83:1.0 84:1.0 87:1.0 110:1.0 111:1.0 116:1.0 124:1.0 126:1.0 127:1.0 129:1.0 131:1.0 132:1.0 148:1.0 151:1.0 152:1.0 157:1.0 201:1.0 207:1.0 210:1.0 241:1.0 258:1.0 264:1.0 297:1.0 307:1.0 335:1.0 342:1.0 368:1.0 376:1.0 377:1.0 400:1.0 407:1.0 409:1.0 412:1.0 439:1.0 468:1.0 484:1.0 486:1.0 502:1.0 509:1.0 512:1.0 513:1.0 514:1.0 516:1.0 517:1.0 525:1.0 527:1.0 532:1.0 533:1.0 548:1.0 550:1.0 557:1.0 560:1.0 562:1.0 563:1.0 565:1.0 569:1.0 606:1.0 615:1.0 618:1.0 624:1.0 640:1.0 707:1.0 711:1.0 732:1.0 859:1.0 874:1.0 922:1.0 940:1.0 941:1.0 948:1.0 994:1.0 1043:1.0 1095:1.0 1118:1.0 1122:1.0 1183:1.0 1187:1.0 1221:1.0 1244:1.0 1254:1.0 1259:1.0 1272:1.0 1327:1.0 1330:1.0 1366:1.0 1396:1.0 1436:1.0 1453:1.0 1469:1.0 1479:1.0 1506:1.0 1517:1.0 1518:1.0 1527:1.0 1584:1.0 1588:1.0 1589:1.0 1612:1.0 1718:1.0 1784:1.0 1793:1.0 1799:1.0 1842:1.0 1862:1.0 1868:1.0 1871:1.0 1878:1.0 1885:1.0 1898:1.0 1918:1.0 1937:1.0 2014:1.0 2026:1.0 2057:1.0 2066:1.0 2069:1.0 2070:1.0 2092:1.0 2105:1.0 2116:1.0 2148:1.0 2298:1.0 2307:1.0 2418:1.0 2613:1.0 2698:1.0 2947:1.0 2958:1.0 2980:1.0 3008:1.0 3122:1.0 3263:1.0 3542:1.0 3575:1.0 3589:1.0 3682:1.0 3805:1.0 4004:1.0 4174:1.0 4246:1.0 4322:1.0 4369:1.0 4483:1.0 4489:1.0 4671:1.0 5209:1.0 5375:1.0 5495:1.0 5546:1.0 5790:1.0 5978:1.0 6138:1.0 6210:1.0 6252:1.0 6270:1.0 6276:1.0 6287:1.0 6470:1.0 6497:1.0 6577:1.0 6578:1.0 6579:1.0 6580:1.0 6581:1.0 6582:1.0 6583:1.0 6584:1.0 6585:1.0 6586:1.0 6587:1.0 6588:1.0 6589:1.0 6590:1.0 6591:1.0 6592:1.0 6593:1.0 6594:1.0 6595:1.0 6596:1.0 6597:1.0 6598:1.0 6599:1.0 6600:1.0 6601:1.0 6602:1.0 6603:1.0 6604:1.0 6605:1.0 6606:1.0 6607:1.0 6608:1.0 6609:1.0 6610:1.0 6611:1.0 6612:1.0 6613:1.0 6614:1.0 6615:1.0 6616:1.0 6617:1.0 6618:1.0 6619:1.0 6620:1.0 6621:1.0 6622:1.0 6623:1.0 
0.00301719550980902 0:1.0 1:1.0 4:1.0 5:1.0 8:1.0 10:1.0 30:1.0 39:1.0 45:1.0 51:1.0 54:1.0 56:1.0 57:1.0 73:1.0 76:1.0 80:1.0 82:1.0 83:1.0 87:1.0 106:1.0 107:1.0 108:1.0 109:1.0 110:1.0 111:1.0 116:1.0 126:1.0 129:1.0 131:1.0 135:1.0 136:1.0 147:1.0 155:1.0 168:1.0 199:1.0 209:1.0 255:1.0 256:1.0 280:1.0 297:1.0 300:1.0 343:1.0 399:1.0 415:1.0 465:1.0 473:1.0 509:1.0 511:1.0 514:1.0 516:1.0 532:1.0 534:1.0 549:1.0 557:1.0 562:1.0 565:1.0 569:1.0 625:1.0 652:1.0 752:1.0 823:1.0 917:1.0 947:1.0 1048:1.0 1110:1.0 1122:1.0 1329:1.0 1396:1.0 1469:1.0 1478:1.0 1494:1.0 1517:1.0 1518:1.0 1612:1.0 1630:1.0 1685:1.0 1799:1.0 2231:1.0 2414:1.0 2477:1.0 2681:1.0 2700:1.0 2707:1.0 2833:1.0 2895:1.0 3001:1.0 3181:1.0 3186:1.0 3459:1.0 3532:1.0 3684:1.0 3884:1.0 4444:1.0 4610:1.0 4959:1.0 5162:1.0 5166:1.0 5168:1.0 5182:1.0 5532:1.0 6436:1.0 6505:1.0 6687:1.0 6688:1.0 6689:1.0 6690:1.0 6691:1.0 6692:1.0 6693:1.0 6694:1.0 6695:1.0 6696:1.0 6697:1.0 6698:1.0 6699:1.0 6700:1.0 
0.009749134600128497 5:1.0 6:1.0 10:1.0 16:1.0 28:1.0 51:1.0 52:1.0 54:1.0 56:1.0 57:1.0 61:1.0 80:1.0 106:1.0 110:1.0 111:1.0 113:1.0 116:1.0 129:1.0 131:1.0 170:1.0 237:1.0 242:1.0 256:1.0 278:1.0 297:1.0 300:1.0 304:1.0 312:1.0 318:1.0 321:1.0 340:1.0 341:1.0 343:1.0 356:1.0 375:1.0 399:1.0 400:1.0 511:1.0 513:1.0 516:1.0 549:1.0 556:1.0 855:1.0 942:1.0 1118:1.0 1175:1.0 1494:1.0 1517:1.0 1589:1.0 1612:1.0 1630:1.0 1775:1.0 2671:1.0 2712:1.0 2738:1.0 2874:1.0 3380:1.0 3451:1.0 3473:1.0 3949:1.0 4392:1.0 4653:1.0 4923:1.0 5311:1.0 6436:1.0 6628:1.0 6701:1.0 6702:1.0 6703:1.0 6704:1.0 6705:1.0 6706:1.0 
8.721596414420246E-4 0:1.0 1:1.0 4:1.0 5:1.0 8:1.0 10:1.0 11:1.0 13:1.0 16:1.0 17:1.0 21:1.0 30:1.0 47:1.0 50:1.0 51:1.0 52:1.0 54:1.0 56:1.0 57:1.0 61:1.0 62:1.0 63:1.0 70:1.0 73:1.0 80:1.0 83:1.0 87:1.0 106:1.0 107:1.0 109:1.0 110:1.0 111:1.0 112:1.0 113:1.0 115:1.0 116:1.0 131:1.0 135:1.0 136:1.0 138:1.0 144:1.0 147:1.0 153:1.0 157:1.0 227:1.0 229:1.0 249:1.0 256:1.0 312:1.0 315:1.0 321:1.0 347:1.0 386:1.0 392:1.0 396:1.0 398:1.0 399:1.0 400:1.0 410:1.0 425:1.0 437:1.0 466:1.0 499:1.0 513:1.0 516:1.0 525:1.0 532:1.0 543:1.0 549:1.0 555:1.0 556:1.0 560:1.0 562:1.0 565:1.0 588:1.0 634:1.0 652:1.0 693:1.0 734:1.0 752:1.0 823:1.0 824:1.0 855:1.0 879:1.0 922:1.0 948:1.0 1042:1.0 1053:1.0 1105:1.0 1154:1.0 1189:1.0 1225:1.0 1254:1.0 1298:1.0 1299:1.0 1315:1.0 1329:1.0 1394:1.0 1453:1.0 1457:1.0 1469:1.0 1504:1.0 1518:1.0 1531:1.0 1610:1.0 1612:1.0 1642:1.0 1671:1.0 1685:1.0 1781:1.0 1782:1.0 1793:1.0 1797:1.0 1862:1.0 1948:1.0 2024:1.0 2477:1.0 2602:1.0 2650:1.0 2653:1.0 2668:1.0 2707:1.0 2712:1.0 2802:1.0 2898:1.0 2947:1.0 2984:1.0 2985:1.0 3000:1.0 3133:1.0 3181:1.0 3206:1.0 3288:1.0 3320:1.0 3379:1.0 3388:1.0 3493:1.0 3573:1.0 3664:1.0 3911:1.0 3968:1.0 4055:1.0 4190:1.0 4284:1.0 4498:1.0 4511:1.0 4693:1.0 4859:1.0 5107:1.0 5162:1.0 5166:1.0 5168:1.0 5182:1.0 5688:1.0 5708:1.0 5917:1.0 5959:1.0 6701:1.0 6761:1.0 6762:1.0 6763:1.0 6764:1.0 6765:1.0 6766:1.0 6767:1.0 6768:1.0 6769:1.0 6770:1.0 6771:1.0 6772:1.0 6773:1.0 6774:1.0 6775:1.0 6776:1.0 6777:1.0 6778:1.0 6779:1.0 
0.021738458981957705 0:1.0 5:1.0 8:1.0 10:1.0 13:1.0 16:1.0 19:1.0 51:1.0 54:1.0 56:1.0 83:1.0 106:1.0 112:1.0 116:1.0 131:1.0 135:1.0 136:1.0 250:1.0 351:1.0 513:1.0 565:1.0 595:1.0 748:1.0 1043:1.0 1105:1.0 1225:1.0 1346:1.0 1396:1.0 1453:1.0 1469:1.0 1518:1.0 1574:1.0 1762:1.0 1880:1.0 2104:1.0 2105:1.0 2252:1.0 2477:1.0 2650:1.0 2792:1.0 3456:1.0 3493:1.0 4284:1.0 4693:1.0 4859:1.0 5162:1.0 5166:1.0 5168:1.0 5182:1.0 6219:1.0 6255:1.0 6634:1.0 6772:1.0 6775:1.0 6874:1.0 6886:1.0 6887:1.0 6888:1.0 6889:1.0 6890:1.0 6891:1.0 6892:1.0 6893:1.0 6894:1.0 6895:1.0 6896:1.0 
0.0025869015595504207 0:1.0 1:1.0 3:1.0 8:1.0 10:1.0 11:1.0 14:1.0 21:1.0 24:1.0 42:1.0 51:1.0 52:1.0 54:1.0 56:1.0 73:1.0 80:1.0 82:1.0 84:1.0 85:1.0 87:1.0 88:1.0 90:1.0 106:1.0 109:1.0 110:1.0 111:1.0 113:1.0 116:1.0 124:1.0 126:1.0 129:1.0 131:1.0 135:1.0 136:1.0 151:1.0 188:1.0 193:1.0 202:1.0 214:1.0 232:1.0 245:1.0 255:1.0 274:1.0 307:1.0 313:1.0 316:1.0 321:1.0 339:1.0 343:1.0 366:1.0 376:1.0 399:1.0 400:1.0 412:1.0 433:1.0 437:1.0 465:1.0 484:1.0 509:1.0 513:1.0 516:1.0 523:1.0 532:1.0 547:1.0 550:1.0 556:1.0 557:1.0 558:1.0 560:1.0 587:1.0 687:1.0 745:1.0 819:1.0 855:1.0 899:1.0 936:1.0 938:1.0 941:1.0 948:1.0 966:1.0 994:1.0 1019:1.0 1043:1.0 1109:1.0 1114:1.0 1175:1.0 1219:1.0 1244:1.0 1245:1.0 1255:1.0 1284:1.0 1336:1.0 1469:1.0 1518:1.0 1527:1.0 1574:1.0 1584:1.0 1596:1.0 1608:1.0 1671:1.0 1698:1.0 1896:1.0 2102:1.0 2132:1.0 2466:1.0 2531:1.0 2861:1.0 2909:1.0 2925:1.0 2957:1.0 2996:1.0 3281:1.0 3282:1.0 3297:1.0 3310:1.0 3314:1.0 3456:1.0 3621:1.0 3872:1.0 4346:1.0 4347:1.0 4348:1.0 4361:1.0 4881:1.0 5141:1.0 5745:1.0 6009:1.0 6201:1.0 6456:1.0 6743:1.0 6977:1.0 6978:1.0 6979:1.0 6980:1.0 6981:1.0 6982:1.0 6983:1.0 6984:1.0 6985:1.0 6986:1.0 6987:1.0 6988:1.0 6989:1.0 6990:1.0 
0.009736493999215834 0:1.0 3:1.0 5:1.0 8:1.0 11:1.0 51:1.0 54:1.0 56:1.0 75:1.0 80:1.0 110:1.0 111:1.0 116:1.0 124:1.0 135:1.0 136:1.0 144:1.0 147:1.0 205:1.0 206:1.0 278:1.0 296:1.0 297:1.0 300:1.0 307:1.0 312:1.0 392:1.0 399:1.0 400:1.0 484:1.0 511:1.0 514:1.0 516:1.0 534:1.0 549:1.0 558:1.0 596:1.0 824:1.0 938:1.0 1027:1.0 1244:1.0 1469:1.0 1494:1.0 1517:1.0 1518:1.0 1612:1.0 1630:1.0 1859:1.0 2105:1.0 2317:1.0 2625:1.0 2884:1.0 2923:1.0 3025:1.0 3131:1.0 3233:1.0 3341:1.0 3363:1.0 3641:1.0 3938:1.0 4084:1.0 4444:1.0 4751:1.0 4875:1.0 5162:1.0 5166:1.0 5168:1.0 5182:1.0 5355:1.0 5535:1.0 5545:1.0 5694:1.0 6436:1.0 6687:1.0 6691:1.0 6699:1.0 6700:1.0 6837:1.0 6838:1.0 6839:1.0 7115:1.0 7116:1.0 7117:1.0 7118:1.0 
0.028187112964155974 0:1.0 5:1.0 10:1.0 13:1.0 17:1.0 21:1.0 51:1.0 54:1.0 56:1.0 67:1.0 71:1.0 80:1.0 87:1.0 106:1.0 110:1.0 111:1.0 116:1.0 119:1.0 124:1.0 131:1.0 135:1.0 136:1.0 151:1.0 256:1.0 307:1.0 343:1.0 366:1.0 400:1.0 410:1.0 532:1.0 547:1.0 548:1.0 552:1.0 1227:1.0 1256:1.0 1258:1.0 1516:1.0 1518:1.0 1781:1.0 2105:1.0 2769:1.0 2914:1.0 3197:1.0 3596:1.0 3716:1.0 3895:1.0 4107:1.0 4332:1.0 4430:1.0 4467:1.0 4658:1.0 5453:1.0 5597:1.0 6450:1.0 6452:1.0 6454:1.0 6459:1.0 6474:1.0 6500:1.0 6518:1.0 7119:1.0 7120:1.0 7121:1.0 
2.4306111947412263E-4 0:1.0 5:1.0 8:1.0 10:1.0 11:1.0 16:1.0 19:1.0 30:1.0 33:1.0 39:1.0 51:1.0 52:1.0 54:1.0 56:1.0 67:1.0 69:1.0 73:1.0 80:1.0 82:1.0 83:1.0 86:1.0 87:1.0 109:1.0 110:1.0 111:1.0 112:1.0 116:1.0 124:1.0 126:1.0 129:1.0 131:1.0 135:1.0 136:1.0 155:1.0 232:1.0 245:1.0 289:1.0 297:1.0 313:1.0 321:1.0 343:1.0 366:1.0 376:1.0 382:1.0 399:1.0 465:1.0 469:1.0 486:1.0 502:1.0 509:1.0 512:1.0 513:1.0 514:1.0 516:1.0 530:1.0 532:1.0 549:1.0 550:1.0 565:1.0 618:1.0 792:1.0 823:1.0 874:1.0 917:1.0 938:1.0 968:1.0 1027:1.0 1108:1.0 1118:1.0 1122:1.0 1199:1.0 1258:1.0 1284:1.0 1327:1.0 1362:1.0 1396:1.0 1417:1.0 1469:1.0 1494:1.0 1517:1.0 1518:1.0 1584:1.0 1588:1.0 1612:1.0 1630:1.0 1685:1.0 1793:1.0 2231:1.0 2290:1.0 2477:1.0 2509:1.0 2668:1.0 2672:1.0 2707:1.0 2895:1.0 2946:1.0 2983:1.0 3165:1.0 3324:1.0 3380:1.0 3486:1.0 3493:1.0 3513:1.0 3564:1.0 3742:1.0 3824:1.0 4356:1.0 4541:1.0 4610:1.0 5162:1.0 5166:1.0 5168:1.0 5180:1.0 5182:1.0 5211:1.0 5259:1.0 5279:1.0 5532:1.0 6436:1.0 6694:1.0 6781:1.0 7122:1.0 7123:1.0 7124:1.0 7125:1.0 7126:1.0 7127:1.0 7128:1.0 7129:1.0 7130:1.0 
0.04928763732895375 0:1.0 5:1.0 11:1.0 45:1.0 54:1.0 56:1.0 57:1.0 80:1.0 111:1.0 115:1.0 116:1.0 144:1.0 189:1.0 335:1.0 547:1.0 627:1.0 650:1.0 917:1.0 1109:1.0 1162:1.0 1315:1.0 1341:1.0 1436:1.0 2023:1.0 2057:1.0 2628:1.0 2698:1.0 2958:1.0 3365:1.0 3390:1.0 3682:1.0 4449:1.0 4808:1.0 4977:1.0 5209:1.0 7167:1.0 7168:1.0 7169:1.0 7170:1.0 7171:1.0 7172:1.0 
